{"type":"LSTMTimeStep","options":{"inputSize":1,"inputRange":0,"hiddenLayers":[20],"outputSize":1,"decayRate":0.999,"smoothEps":1e-8,"regc":0.000001,"clipval":5,"maxPredictionLength":100,"dataFormatter":{"indexTable":{},"characterTable":{},"characters":[],"specialIndexes":[]}},"hiddenLayers":[{"inputMatrix":{"rows":20,"columns":1,"weights":[0.3062259554862976,0.1384865939617157,0.08776156604290009,0.14046014845371246,0.26014378666877747,0.29517072439193726,0.9255281090736389,0.26325148344039917,0.19917279481887817,0.21538662910461426,0.15000596642494202,0.12390226125717163,0.28335636854171753,0.18488430976867676,0.5567764639854431,0.07201317697763443,0.8335869908332825,0.32935094833374023,0.7096070647239685,-0.6988705396652222]},"inputHidden":{"rows":20,"columns":20,"weights":[-0.44577816128730774,-0.5507804751396179,-0.6733126640319824,0.5659344792366028,-0.5171461701393127,-0.7788279056549072,1.484168529510498,0.5574237704277039,-0.25420626997947693,0.8178767561912537,-0.6305266618728638,-0.23722918331623077,0.112221859395504,-0.04185427352786064,0.2511066198348999,0.5737440586090088,-0.11291135102510452,-0.3145133852958679,0.2744804918766022,0.07381438463926315,-0.37599003314971924,0.5185000896453857,-0.48734283447265625,-0.6293061375617981,-0.32754647731781006,-0.5423605442047119,0.212064728140831,-0.33325040340423584,0.7686775326728821,0.634117841720581,-0.34638965129852295,-0.2511674165725708,0.43768149614334106,1.1575628519058228,0.412323921918869,-0.6907512545585632,-0.3807617425918579,-0.2641548812389374,0.44992122054100037,-0.07812228798866272,-0.40775027871131897,-0.10051480680704117,-1.1069568395614624,1.1727312803268433,-0.5071008205413818,-0.08880922943353653,0.6218159198760986,-0.08612222224473953,0.3412143290042877,0.12471045553684235,-0.6168398261070251,0.7112100124359131,0.888361930847168,0.8957021236419678,0.3483763635158539,0.3984232246875763,-0.48281577229499817,-0.6543375849723816,0.17409564554691315,0.8448888659477234,-0.17028991878032684,0.5995550751686096,-0.39657050371170044,-0.7732614278793335,-0.4219352900981903,-0.3964270353317261,0.19696812331676483,-0.4571729004383087,0.6361576318740845,0.5555135011672974,-0.3066387176513672,-0.2262309342622757,0.5938780307769775,1.0330716371536255,0.4277705252170563,-0.6677099466323853,-0.24916085600852966,-0.34952956438064575,0.4007318615913391,-0.32118603587150574,-0.6989545822143555,-0.2576969265937805,-1.0064831972122192,0.4233354926109314,-0.2946092188358307,-0.6807540655136108,1.2920547723770142,0.17866958677768707,-0.2571912109851837,0.7097646594047546,-0.23395343124866486,0.03695371747016907,0.26450255513191223,0.2144431173801422,0.5291369557380676,0.43604668974876404,-0.46582093834877014,-0.36233240365982056,0.3310925364494324,0.28574347496032715,-0.605749249458313,0.07304711639881134,0.011529591865837574,-0.5067667961120605,-0.7711817622184753,-0.5444146990776062,0.26346519589424133,0.28252753615379333,-0.11297698318958282,0.6473330855369568,-0.605599582195282,-0.4746037721633911,0.10710863023996353,0.7071842551231384,0.6115075945854187,-0.17554277181625366,-0.47676435112953186,-0.6340311765670776,0.577126145362854,-0.8360692262649536,0.4318372309207916,-1.0442501306533813,-0.007737855426967144,1.1322678327560425,0.44132524728775024,0.5364736318588257,0.8204084038734436,0.9104335308074951,-0.4053758382797241,-0.5625815987586975,0.46733593940734863,0.895592212677002,1.061090350151062,-0.18614332377910614,-0.4725652039051056,0.9871438145637512,0.6563296914100647,0.4719044864177704,-0.5716694593429565,-1.018025279045105,-0.4268818795681,1.2784440517425537,-0.4150479733943939,-1.8275814056396484,-0.5832090377807617,-0.5737788081169128,0.17968575656414032,-0.35280001163482666,0.6604077219963074,0.5612559914588928,-0.5825434327125549,-0.5543569326400757,0.6008344292640686,0.8680719137191772,0.5551678538322449,-1.191989541053772,-0.37932685017585754,-0.39988285303115845,0.4924037754535675,-0.43668633699417114,-0.1203152984380722,0.44924110174179077,-0.5341111421585083,-0.4550841152667999,-0.30292651057243347,-0.6725572347640991,0.6520159244537354,-0.723593533039093,0.5406126379966736,0.4500042200088501,-0.16774873435497284,0.08532018214464188,0.37414395809173584,0.5255707502365112,0.3121356964111328,0.20740140974521637,-0.41085925698280334,-0.26834890246391296,0.2021569162607193,0.22037696838378906,-0.9738786816596985,0.5276338458061218,0.16030211746692657,-0.5869035124778748,-0.8451045155525208,-0.9870094656944275,-0.29411885142326355,-0.06636291742324829,0.24216598272323608,0.6741252541542053,-0.9788417816162109,-0.3597448766231537,0.6182848811149597,1.0813064575195312,0.7626866698265076,-0.31748366355895996,-0.7276162505149841,-1.0030311346054077,0.8567922711372375,-0.26524025201797485,-0.4127780497074127,-0.4121658205986023,-1.172341227531433,0.4951964318752289,-0.19815024733543396,-0.6342480182647705,1.518571376800537,-0.22765083611011505,-0.23355209827423096,0.4975689649581909,-0.18494349718093872,-0.2510087192058563,0.4635130763053894,0.30061742663383484,0.3731473684310913,0.5060936212539673,-0.4189007878303528,-0.18861481547355652,0.36095717549324036,0.6519168019294739,-0.273605614900589,0.7178998589515686,-0.09346425533294678,-0.6914825439453125,-0.2626829743385315,0.00008699014142621309,0.27567628026008606,-0.5567712187767029,0.9827693700790405,-0.14848293364048004,-0.8439093828201294,-0.6606373190879822,0.19631589949131012,0.9752616286277771,0.27324551343917847,-0.8253098726272583,-0.17195390164852142,-0.2826802432537079,0.41713574528694153,-0.6282938718795776,-0.8988693952560425,-0.1734294891357422,-1.5181382894515991,0.41652289032936096,0.05110373720526695,-0.23319557309150696,1.3493924140930176,-1.104600191116333,0.3933415114879608,0.32560160756111145,-0.19567881524562836,0.5016289949417114,-0.028493307530879974,0.5094676613807678,0.7270606160163879,0.6256138682365417,-0.5154041051864624,-0.13255645334720612,0.7009978294372559,1.0391123294830322,-0.2579846978187561,0.4777263104915619,-0.2038491666316986,-0.5431365966796875,-0.5027419328689575,-0.5505726933479309,0.26812130212783813,-0.7684171795845032,0.7855989933013916,0.5510743856430054,-0.3902488350868225,0.28775402903556824,0.452033132314682,0.9358500838279724,0.43591293692588806,-0.16963204741477966,-0.42074254155158997,-0.46149447560310364,0.26181963086128235,0.5791029930114746,-0.36054104566574097,-0.7316811680793762,-0.04112928733229637,0.662822961807251,-0.041914816945791245,-0.06700752675533295,1.8502323627471924,0.6981330513954163,-0.4935976266860962,0.030965114012360573,-0.11800438165664673,0.25666573643684387,0.266142338514328,-0.48057815432548523,0.38404300808906555,0.6393915414810181,-0.23489995300769806,-0.05665616691112518,0.285074383020401,0.8606848120689392,-0.14079871773719788,0.6621333956718445,-0.4803755283355713,-0.5135942697525024,-0.2335628867149353,-0.49830153584480286,0.4430544376373291,-0.7299742698669434,0.5790767669677734,0.494272381067276,-0.1933632493019104,-0.15382908284664154,0.3831808865070343,0.8658556342124939,0.36265888810157776,-0.5153611302375793,-0.22637973725795746,-0.14156688749790192,0.27796947956085205,-0.08773279935121536,0.04411110281944275,-0.8867139220237732,-0.025677641853690147,0.7726020812988281,0.033251889050006866,0.06079845502972603,0.8677204251289368,0.9353522658348083,-0.4181364178657532,-0.07888491451740265,-0.0557958260178566,0.8605659008026123,-0.06471024453639984,-0.3914969861507416,-0.04491569846868515,0.926402747631073,-0.16633665561676025,-0.008993598632514477,-0.19372963905334473,0.4342479705810547,-0.41511690616607666,-0.3121599853038788,-0.8646335601806641,0.4344029724597931,-0.19085651636123657,-0.5145058631896973,1.343707799911499,0.13245825469493866,-0.08073122799396515,0.5967430472373962,-0.3068038821220398,0.21396079659461975,0.10786817222833633,0.24118801951408386,0.3711894750595093,0.4119461178779602,-0.3070824444293976,-0.18034642934799194,0.32078084349632263,0.5004808902740479,-0.0942494198679924,-0.9165841937065125,-0.09578126668930054,0.7765769958496094,-0.09375607967376709,-0.20806129276752472,0.8333313465118408,0.9920993447303772,-0.7306745648384094,0.08155044913291931,-0.10313405841588974,-0.6041759252548218,0.11729974299669266,-0.7991797924041748,-0.06234300509095192,0.7979333996772766,-0.3507900536060333,0.023307552561163902,0.1868239790201187,0.9041276574134827,-0.18252158164978027,0.7583886981010437,-0.08509867638349533,-0.6247016191482544,-0.07229220867156982,0.5077738761901855,-1.5908108949661255,-1.1392797231674194,0.6994599103927612,-0.09440125524997711,-0.05440428480505943,-0.22247041761875153,0.28922075033187866,0.9220268726348877,0.27778923511505127,-0.6290973424911499,-0.0008437514188699424,-0.21496367454528809,0.4629237949848175,0.1561310589313507]},"inputBias":{"rows":20,"columns":1,"weights":[-0.08961399644613266,-0.08536537736654282,-0.25052011013031006,0.9779049158096313,0.2581577003002167,-0.048514414578676224,0.5597203969955444,-0.1121714785695076,0.19076956808567047,0.13016226887702942,0.1961086541414261,0.20785827934741974,0.8060102462768555,-0.1109442338347435,-0.09875454753637314,0.23392172157764435,0.22395262122154236,0.14495567977428436,-0.07208428531885147,-0.04591986536979675]},"forgetMatrix":{"rows":20,"columns":1,"weights":[0.7439316511154175,0.40432456135749817,0.3361032009124756,0.18400214612483978,0.442113995552063,0.23142646253108978,1.3795781135559082,0.4999323785305023,0.2853563725948334,0.2865866720676422,0.2843262851238251,0.23597946763038635,0.754027247428894,0.22621501982212067,0.5300295948982239,0.2270628660917282,1.0296375751495361,0.42011159658432007,0.6049083471298218,-0.7959146499633789]},"forgetHidden":{"rows":20,"columns":20,"weights":[-0.29011237621307373,-0.9767835736274719,0.14822553098201752,0.9467390775680542,-0.04522024840116501,-0.18148060142993927,1.2801069021224976,1.136095404624939,-0.4831995666027069,0.009614557959139347,0.03545448184013367,-0.8552266955375671,0.1070409044623375,-0.474983274936676,0.030936352908611298,0.9657722115516663,-0.1277688592672348,-0.00620268564671278,0.39197081327438354,0.5774593353271484,0.1720314770936966,0.36655062437057495,-0.8343826532363892,-0.204084575176239,0.05943389609456062,-1.4355130195617676,1.3910168409347534,-0.6704811453819275,0.36838558316230774,1.6540414094924927,-0.014281973242759705,0.5786173343658447,-0.13005253672599792,0.4638662040233612,-0.9522060751914978,-0.13163280487060547,-0.07232443243265152,0.11444644629955292,-0.6101420521736145,0.5740342736244202,-0.9434716701507568,0.3799004852771759,-1.0357426404953003,-0.38414573669433594,-0.6850460767745972,-1.202096700668335,1.052230954170227,-0.1195562556385994,0.6814298033714294,1.4434165954589844,-0.6378433704376221,0.09609817713499069,-0.05824122205376625,0.8087123036384583,0.7005099654197693,0.05858445167541504,-0.2416476011276245,-0.5428552627563477,0.9833317399024963,-0.023451535031199455,-0.26225000619888306,0.4660896360874176,-0.7950809001922607,-0.17509600520133972,-0.13368704915046692,-0.9716131687164307,0.7918341755867004,-0.32241785526275635,0.4461989402770996,0.6590015292167664,-0.249416783452034,0.362469881772995,0.07181928306818008,0.416402667760849,-0.049886494874954224,-0.7821893095970154,-0.09178952872753143,0.026213111355900764,0.2844965159893036,0.42322391271591187,-0.42147308588027954,-0.2435937523841858,-0.837151288986206,0.164579838514328,-0.2506638765335083,-0.11742831766605377,0.7902977466583252,-0.1294018030166626,0.48009103536605835,0.22104255855083466,-0.342002272605896,0.8240843415260315,0.24730834364891052,0.6420726776123047,0.3511313199996948,0.4143368601799011,-0.32347604632377625,-0.3765067160129547,0.3096482753753662,0.2855750024318695,-0.6325451731681824,-0.03515780717134476,-0.7687045931816101,-0.20627188682556152,-0.4167475998401642,-0.815159022808075,1.6414647102355957,0.047949790954589844,0.2216409593820572,0.8477712273597717,-0.3373880088329315,0.5310769081115723,0.056022923439741135,0.5238119959831238,0.36608046293258667,0.4168173670768738,0.014836059883236885,0.001755789271555841,0.4499768912792206,0.34133264422416687,0.7185790538787842,-1.4493950605392456,0.5071125030517578,1.4850118160247803,0.45016032457351685,0.5455066561698914,0.11625400930643082,1.5317575931549072,-1.0565195083618164,-0.41685810685157776,0.4764764904975891,0.10151335597038269,0.5578498840332031,-1.180132269859314,-0.5737324357032776,1.2242047786712646,0.5519909262657166,0.47808563709259033,-0.7048345804214478,0.6014583110809326,0.09270070493221283,0.07121138274669647,-0.3568933308124542,-0.26001232862472534,-0.3247561752796173,0.08878444135189056,1.0177606344223022,-0.6838276386260986,0.32308754324913025,0.13037368655204773,-0.1310715675354004,0.5155148506164551,0.7312540411949158,0.4714808166027069,-0.5163062214851379,-0.7779199481010437,-0.3715989291667938,-0.21929378807544708,-0.03475331887602806,0.5129027366638184,-0.4455496072769165,-0.12301375716924667,-1.042477011680603,0.1486150324344635,-0.21637514233589172,-0.8305143117904663,0.782189130783081,-0.4949152171611786,0.47684982419013977,0.6120899319648743,-0.10202889889478683,0.6707867980003357,0.26957443356513977,0.39589011669158936,0.34059181809425354,0.048624079674482346,-0.4695492684841156,-0.1846460998058319,0.2988468408584595,0.7117958068847656,-0.7422894239425659,0.03877846151590347,-0.5636604428291321,0.1244819238781929,-0.5744237899780273,-0.8826090097427368,1.1581640243530273,0.54682457447052,0.20889922976493835,1.2852394580841064,-0.6964243650436401,0.8470871448516846,0.12076087296009064,0.49901866912841797,0.5043564438819885,0.2033432275056839,-0.26430147886276245,-0.42028549313545227,0.6762199997901917,0.18011732399463654,-0.5776991248130798,-0.24128031730651855,-1.4878493547439575,0.3234187960624695,-0.2837904989719391,0.002652173163369298,1.192064881324768,-0.34503278136253357,0.1366417557001114,0.030665628612041473,-0.2043815553188324,0.9563631415367126,0.4638928771018982,0.5719241499900818,0.5844583511352539,0.42873457074165344,-0.4554554224014282,-0.30744674801826477,0.421835720539093,0.5751473307609558,-0.1719466894865036,1.1421116590499878,-0.19622521102428436,-1.1745761632919312,-0.1191558986902237,-0.14739954471588135,-0.146017923951149,-0.8636459112167358,0.655695915222168,-0.00010202023986494169,-0.18638993799686432,-0.2876725494861603,0.055686742067337036,0.75189208984375,0.2628643810749054,-1.0567221641540527,-0.20866701006889343,-0.15454204380512238,0.3487500846385956,-0.1869230568408966,-0.5031949281692505,0.7658352851867676,-1.3300107717514038,-0.15130311250686646,-0.38783061504364014,-0.25448232889175415,0.9305941462516785,-1.5069708824157715,0.652121365070343,0.2965565323829651,-0.5533277988433838,0.17419637739658356,0.3393964469432831,0.9209632873535156,0.5970422625541687,-0.07943582534790039,-0.8951305150985718,-0.5448940396308899,0.45582589507102966,0.5712350010871887,-0.6515515446662903,0.285432368516922,-0.6051622033119202,-0.06499411910772324,-0.42940428853034973,-0.810883104801178,0.5811503529548645,-0.5986009836196899,0.630391538143158,0.748771607875824,-0.3650345504283905,0.4942709803581238,0.3275434672832489,0.6149817705154419,0.47700658440589905,0.12938866019248962,-0.36174359917640686,-0.34062010049819946,0.4362682104110718,0.4397466480731964,-0.3658425807952881,-0.5048080682754517,-0.18511170148849487,0.5705592632293701,-0.08096151798963547,-0.26495033502578735,1.5464946031570435,0.5165004134178162,0.01703796163201332,0.0983562245965004,-0.15995973348617554,-0.35937708616256714,-0.07952799648046494,0.09316417574882507,0.3359825313091278,0.5343990921974182,0.08092009276151657,0.058813318610191345,0.4370839297771454,0.40599438548088074,-0.04610820487141609,0.5845093131065369,-1.105771780014038,-0.39695465564727783,0.34234189987182617,-1.4635618925094604,1.6396721601486206,-0.7158524990081787,0.4128192663192749,1.3934050798416138,0.01897541619837284,0.4254017472267151,-0.15525195002555847,0.29359081387519836,-0.31704601645469666,-0.33256563544273376,-0.031083330512046814,0.06200294941663742,-0.017503563314676285,0.5018348097801208,0.12298469990491867,-1.1040980815887451,0.25907114148139954,0.9662423133850098,0.07693019509315491,0.2280617356300354,0.9692277312278748,1.1610623598098755,-0.40882763266563416,-0.33342790603637695,0.1355661302804947,1.0637106895446777,0.08528554439544678,-0.2741921544075012,-0.21961760520935059,1.0643316507339478,-0.2253684103488922,-0.07499861717224121,-0.19901344180107117,0.28228500485420227,-0.390867680311203,0.021127866581082344,-0.9357512593269348,0.06214388832449913,0.12413540482521057,-0.158827006816864,1.050592303276062,-0.8185141086578369,0.029597604647278786,0.637236475944519,0.14445041120052338,0.5051003694534302,0.10398583859205246,0.119873046875,0.32143017649650574,0.4675825238227844,-0.424447238445282,-0.16579264402389526,0.2348095178604126,0.7792479991912842,-0.1822391301393509,-0.773686408996582,0.08357971161603928,0.69587641954422,0.13815657794475555,-0.06602632999420166,1.9220280647277832,0.7786509990692139,-0.4501223862171173,-0.02601582556962967,0.16030341386795044,-0.6799339652061462,0.1755509376525879,-0.37337303161621094,-0.06655262410640717,0.797387957572937,-0.04794562608003616,0.12461412698030472,0.11460242420434952,0.798284113407135,0.07532083243131638,0.39484792947769165,-1.0384843349456787,-0.13187235593795776,-0.011735414154827595,-0.09341698884963989,1.2521589994430542,-0.4967140853404999,0.40175145864486694,0.07456611096858978,-0.3278389573097229,-0.33283674716949463,0.12089615315198898,0.4945175349712372,0.24523933231830597,-0.2611461579799652,-0.4151776134967804,-0.13897836208343506,0.385772705078125,0.7050448060035706]},"forgetBias":{"rows":20,"columns":1,"weights":[0,0,0,0,0,0,0,0,0,0,0,0,0,0,0,0,0,0,0,0]},"outputMatrix":{"rows":20,"columns":1,"weights":[0.15569953620433807,0.28874167799949646,0.40592488646507263,0.14416329562664032,0.21042238175868988,0.4749714732170105,0.2878570854663849,0.20404052734375,0.22323857247829437,0.14292240142822266,0.327930212020874,0.24054214358329773,0.7120923399925232,0.1927465945482254,0.5552476048469543,0.31981608271598816,0.30015334486961365,0.4154167175292969,0.42427965998649597,-0.6874097585678101]},"outputHidden":{"rows":20,"columns":20,"weights":[-0.43008461594581604,-0.15236365795135498,-0.9461185336112976,0.17968079447746277,-0.5255132913589478,-0.21180011332035065,1.2433768510818481,-0.4083637595176697,0.8162087798118591,0.16850124299526215,-0.5050297975540161,0.4483337998390198,0.3992163836956024,0.9774800539016724,0.40854883193969727,-0.17688393592834473,-0.3120718002319336,-0.3855213224887848,0.3619645833969116,0.5208534598350525,-0.38556188344955444,0.6832535266876221,-0.6957396864891052,-0.7232081890106201,-0.3004646301269531,-0.5707648396492004,0.4112105369567871,-0.6081717014312744,0.7965587973594666,0.8353127241134644,-0.37236088514328003,0.1773950308561325,0.41724658012390137,1.1908961534500122,0.4367018938064575,-0.7132949233055115,-0.39856526255607605,-0.30107375979423523,0.3827350437641144,0.28450602293014526,-0.8771975636482239,0.31015896797180176,-0.5710504055023193,-0.006622013170272112,-0.8143872618675232,-0.8755515217781067,0.6885561347007751,-0.2722746431827545,0.7224806547164917,1.0047810077667236,-0.8078859448432922,0.027495214715600014,0.427594393491745,0.988885760307312,0.6300250887870789,-0.10129258036613464,-0.6112467646598816,-0.7526143193244934,0.7429845929145813,0.2951221764087677,-0.3065252900123596,0.7538461685180664,-0.42531442642211914,-0.667466938495636,-0.4875619113445282,-0.7400416135787964,0.6428583860397339,-0.6424160599708557,0.7423744201660156,0.7000226974487305,-0.39082667231559753,0.20833395421504974,0.5813151597976685,1.1805089712142944,0.39944425225257874,-0.8445061445236206,-0.42066213488578796,-0.37939390540122986,0.5092839002609253,0.08911553025245667,-0.3287803530693054,0.4070451557636261,-0.39210256934165955,-0.27928078174591064,-0.4338282644748688,-0.48305049538612366,0.7317342758178711,-0.7912359237670898,0.8340356349945068,0.44585949182510376,-0.36042168736457825,-0.12404876202344894,0.2590472996234894,0.848594069480896,0.386616051197052,-0.2747741639614105,-0.5028478503227234,-0.45761141180992126,0.37483543157577515,0.11738885194063187,-0.4752446711063385,-0.39607247710227966,-0.6342629790306091,0.10041637718677521,-0.399514377117157,-0.6186709403991699,1.1932651996612549,0.697306215763092,0.20207707583904266,0.684876024723053,-0.41661688685417175,0.026729686185717583,0.4872012734413147,0.5547265410423279,0.3912215530872345,0.37881043553352356,-0.2768154740333557,-0.2860289514064789,0.39827480912208557,-0.4133666455745697,-0.7766437530517578,0.060574647039175034,-0.821740448474884,0.5813953876495361,-0.4526215195655823,-0.5039934515953064,1.4251377582550049,-0.304362028837204,1.037315011024475,0.73273766040802,-0.45538330078125,0.40844106674194336,1.0418739318847656,1.187201738357544,0.32345834374427795,0.32790765166282654,-0.30332401394844055,-0.3722820580005646,0.5263029336929321,0.5201942324638367,-0.32052087783813477,1.1384934186935425,-0.39517727494239807,-1.3645268678665161,-0.37177279591560364,-0.4922912120819092,0.394268274307251,-0.5036875605583191,0.7099080681800842,0.38509052991867065,-0.30424124002456665,0.06284572184085846,0.3545799255371094,1.055341362953186,0.48149052262306213,-1.2244665622711182,-0.3549891710281372,-0.3789999485015869,0.4545396864414215,0.36094510555267334,-0.26725003123283386,0.6267992854118347,-0.7714864611625671,-0.661933422088623,-0.37904995679855347,-0.8618537187576294,0.744837760925293,-0.9180519580841064,0.6890666484832764,0.6020630598068237,-0.2565464973449707,0.5993437767028809,0.4646049737930298,0.7831531763076782,0.37568381428718567,0.13971848785877228,-0.44014275074005127,-0.24542632699012756,0.3247344493865967,0.3627168834209442,-0.7535371780395508,0.6173080205917358,-0.1517844796180725,-0.6703748106956482,-0.7757062911987305,-0.8636757135391235,0.24409179389476776,-0.2124149054288864,0.764859676361084,0.9051181077957153,-0.7992653846740723,-0.20269660651683807,0.6077388525009155,0.864461362361908,0.562332808971405,-0.16549482941627502,-0.6553976535797119,-0.7069970965385437,0.5924032926559448,-0.30682870745658875,-0.36676472425460815,0.013662089593708515,-1.2661844491958618,0.055700115859508514,-0.2797703742980957,-0.19185012578964233,1.3020426034927368,-0.5277758240699768,0.5880154371261597,0.4474179744720459,-0.20087851583957672,0.64947110414505,0.27967914938926697,0.6908934712409973,0.2741137742996216,0.2700694799423218,-0.3781321048736572,-0.2752738893032074,0.28344962000846863,1.2613805532455444,-0.1463504284620285,0.8845952153205872,-0.17100846767425537,-0.9419618248939514,-0.2897264063358307,-0.4170030951499939,0.1260293871164322,-0.7623530030250549,0.7575353980064392,0.18157526850700378,-0.6136282682418823,-1.0753062963485718,0.11593081057071686,0.818945050239563,0.32701024413108826,-0.8602316379547119,-0.18511442840099335,-0.31585702300071716,0.4328267276287079,-0.8876118659973145,-0.6450179219245911,-0.42195385694503784,-0.9788671731948853,0.6337713003158569,-0.3351163864135742,-0.3535730242729187,0.742839515209198,0.44300830364227295,0.38303518295288086,0.2851353883743286,-0.40253332257270813,0.305650919675827,0.30392900109291077,0.31725355982780457,1.0645480155944824,0.7208433747291565,-0.8714186549186707,-0.39159661531448364,1.0479429960250854,1.2314914464950562,-0.4917934536933899,0.8097092509269714,-0.6355467438697815,-0.5978429317474365,-0.5445393323898315,-0.8236645460128784,0.45637017488479614,-0.7940992712974548,0.6435033679008484,0.4742755591869354,-0.5134962201118469,0.4149714708328247,0.3960649073123932,0.8025764226913452,0.3910030424594879,0.055571120232343674,-0.5153429508209229,-0.5883853435516357,0.4437737762928009,0.8459560871124268,-0.45486781001091003,-0.5710892677307129,-0.4347432255744934,0.5796323418617249,-0.3737756907939911,-0.31411799788475037,1.4757550954818726,0.43795159459114075,0.012700567953288555,0.24661189317703247,-0.32424384355545044,-0.44637858867645264,0.19681362807750702,0.1913495808839798,0.44402948021888733,0.7047710418701172,-0.12253574281930923,-0.29690513014793396,0.5629645586013794,0.3381047546863556,-0.2497989535331726,0.7188740372657776,-0.6162422299385071,-0.5967540144920349,-0.3983067572116852,-0.5309585332870483,0.4556352198123932,-0.8354350328445435,0.7443289160728455,0.5713320970535278,-0.3463466167449951,0.07967710494995117,0.5133262276649475,0.9558364152908325,0.5056843757629395,-0.6257714033126831,-0.39739862084388733,-0.2927347719669342,0.4344119727611542,0.09752986580133438,-0.3258136510848999,0.29251864552497864,-0.38680002093315125,-0.13552583754062653,-0.31084781885147095,-0.13981105387210846,0.7674602270126343,-1.2466000318527222,0.7806485891342163,0.1900041401386261,-0.23222096264362335,-0.0702279657125473,0.1250125914812088,0.7651863098144531,0.30376189947128296,-0.5438354015350342,-0.36513617634773254,-0.38943737745285034,0.3573361337184906,0.08816754072904587,-0.5701355934143066,-0.2821301221847534,-0.7698976397514343,0.27830013632774353,-0.3289541006088257,-0.40631452202796936,1.5444905757904053,-0.004626451060175896,0.3791976273059845,0.3165632486343384,-0.4754776060581207,0.27236586809158325,0.19902679324150085,0.5235124826431274,0.5016094446182251,0.4949769973754883,-0.5007949471473694,-0.4029492735862732,0.4649316668510437,0.4923955202102661,-0.15400376915931702,-0.18980823457241058,-0.06515272706747055,0.025113079696893692,-0.2548433840274811,-0.05056938901543617,2.235344886779785,-0.1505875140428543,0.3625527322292328,0.03057980164885521,-0.21706464886665344,0.02256126143038273,0.5532137155532837,0.49397921562194824,0.03296517953276634,0.06284590810537338,-0.2547610402107239,-0.1010160967707634,0.20715005695819855,0.3498874604701996,0.011309582740068436,0.7219056487083435,0.025142909958958626,-0.5094866752624512,-0.1369898021221161,0.6464367508888245,-0.8392552733421326,-0.9742727875709534,0.6687888503074646,-0.08122996240854263,-0.01988580822944641,-0.5647907853126526,0.6939069628715515,0.841706395149231,0.18597178161144257,-0.6142280101776123,-0.06141843646764755,-0.17334379255771637,0.43035563826560974,0.50555419921875]},"outputBias":{"rows":20,"columns":1,"weights":[-0.07539724558591843,-0.07546087354421616,-0.24323007464408875,1.029697299003601,0.2730366289615631,-0.03951672092080116,0.6812872290611267,-0.10684171319007874,0.19135695695877075,0.1434388905763626,0.20296302437782288,0.20940007269382477,0.8264287710189819,-0.0926346629858017,-0.09155083447694778,0.2374219000339508,0.26265889406204224,0.15859559178352356,-0.04571980610489845,-0.044651493430137634]},"cellActivationMatrix":{"rows":20,"columns":1,"weights":[-0.1755760759115219,0.02879302017390728,-0.12629050016403198,0.009451600722968578,-0.14143569767475128,-0.16934256255626678,0.20623698830604553,-0.055002108216285706,0.03690553456544876,0.15327194333076477,-0.12864495813846588,-0.24182140827178955,0.26239511370658875,0.007618988864123821,0.23057374358177185,-0.005938960704952478,-0.08789975941181183,-0.13296006619930267,0.23448894917964935,-0.19968359172344208]},"cellActivationHidden":{"rows":20,"columns":20,"weights":[0.19014865159988403,0.16344937682151794,0.3979302644729614,-0.18649882078170776,0.25776970386505127,0.5971604585647583,-0.5555950999259949,-0.2060597985982895,0.2080007791519165,-0.2677428126335144,0.22426259517669678,0.12011630833148956,-0.13133075833320618,0.20717526972293854,-0.2364925742149353,-0.2427142709493637,0.3741307556629181,0.342754065990448,-0.051108941435813904,-0.14026662707328796,-0.32300999760627747,-0.39707162976264954,-0.8019269108772278,0.40886080265045166,-0.38950809836387634,-0.6296116709709167,0.8252184987068176,0.26993632316589355,-0.271191269159317,0.806645393371582,-0.19785945117473602,-0.0581493079662323,0.3833923935890198,-0.19172146916389465,0.2636113464832306,0.4621286392211914,-0.3036673069000244,-0.09119713306427002,0.2413220852613449,-0.13715364038944244,0.45470094680786133,0.2051788568496704,0.5658833384513855,-0.23406808078289032,0.23070774972438812,0.39702555537223816,-0.9184213280677795,-0.2036326378583908,0.2279401570558548,-0.22250446677207947,0.16652967035770416,0.14942781627178192,-0.10685237497091293,0.23999056220054626,-0.3188548982143402,-0.29426395893096924,0.27330902218818665,0.19666074216365814,-0.1577111780643463,-0.14722736179828644,0.4691869616508484,0.1480158269405365,0.6230090856552124,-0.29933324456214905,0.27682965993881226,0.9529447555541992,-0.6228148937225342,-0.3160684108734131,0.3368062376976013,-0.9447674751281738,0.37479275465011597,0.05646206811070442,-0.21471531689167023,0.18937338888645172,-0.484568327665329,-0.3947475552558899,0.02305767312645912,0.06708100438117981,-0.0960475355386734,0.08430477231740952,0.4083976149559021,0.13926678895950317,0.41145482659339905,-0.08758212625980377,0.2659548819065094,0.3117775022983551,-0.4224911332130432,-0.2486274540424347,0.22093456983566284,-0.272712767124176,0.36004793643951416,0.33474281430244446,-0.21465671062469482,0.27538418769836426,-0.3964522182941437,-0.05381673946976662,0.46826744079589844,0.29600808024406433,-0.2971764802932739,0.6451212167739868,0.4020610451698303,0.20123858749866486,0.16608992218971252,-0.0674251914024353,0.2367228865623474,0.316087931394577,-0.5891472697257996,-0.43842417001724243,0.3347610831260681,-0.45650872588157654,0.21796928346157074,1.0299532413482666,-0.11824868619441986,0.28292402625083923,-0.1741599291563034,-0.1687370389699936,0.23452435433864594,0.23301048576831818,-0.1998121291399002,0.11858245730400085,-0.15289047360420227,-0.30727431178092957,-0.15395823121070862,0.3280222713947296,-0.16853003203868866,-0.4532278776168823,0.5323033928871155,0.4523034989833832,-0.30150362849235535,0.17184342443943024,-0.16107748448848724,-0.185947448015213,0.1556944102048874,-0.30723848938941956,0.17207151651382446,0.3484417200088501,-0.4033028781414032,-0.1623862385749817,0.3811647295951843,0.1466866135597229,0.2775965929031372,0.5263090133666992,0.7467857003211975,-0.46188127994537354,0.1513185352087021,0.7874069809913635,-1.309086561203003,-0.200932577252388,0.3662818670272827,-1.048476219177246,0.0659526139497757,-0.14026281237602234,-0.2742657959461212,0.2163594514131546,-0.13214002549648285,-0.5055215358734131,0.34148457646369934,0.1740913987159729,-0.08368346840143204,-0.06205887719988823,-0.44852516055107117,-0.35267847776412964,-0.6750460863113403,0.3027358949184418,-0.5085421800613403,-0.43655824661254883,0.48545041680336,0.09535219520330429,-0.19345684349536896,0.4431396722793579,-0.31993430852890015,-0.24535156786441803,0.7848159670829773,-0.05473504588007927,0.5781583786010742,0.2382296472787857,-0.5686264038085938,-0.37736281752586365,0.6166361570358276,-0.17622078955173492,-0.5655832290649414,-0.19066749513149261,-0.2356896847486496,0.31277087330818176,-0.29971352219581604,-0.19665861129760742,0.5030697584152222,0.3831959366798401,-0.17148590087890625,0.3136354088783264,-0.21210339665412903,-0.5116466283798218,0.22007140517234802,-0.1544913798570633,0.21905851364135742,0.3342846930027008,-0.3065149486064911,-0.283808171749115,0.2124834507703781,-0.5018026232719421,0.3159375488758087,0.15622398257255554,0.5034023523330688,-0.2417052537202835,0.2956707775592804,0.12722212076187134,-0.5886912941932678,-0.31810447573661804,0.22617410123348236,-0.164062961935997,0.1643286645412445,0.49836617708206177,-0.28467854857444763,0.21110226213932037,-0.3680722415447235,-0.2169097363948822,0.22662034630775452,0.29114070534706116,-0.2774990200996399,0.16877956688404083,0.3131004869937897,-0.7569291591644287,0.08840028941631317,0.7766809463500977,-0.19648213684558868,0.10531780123710632,0.02819797769188881,1.0492289066314697,-0.3652043342590332,-0.07207487523555756,0.024121291935443878,-0.290643572807312,0.28923335671424866,-0.4257272779941559,0.11857116967439651,0.36110472679138184,-0.3861411511898041,-0.12462271004915237,0.4298131465911865,-0.2756442427635193,-0.21086396276950836,-0.11959205567836761,-0.5888634324073792,0.8061006665229797,0.3816022574901581,-0.2639550566673279,1.2349814176559448,-1.0085344314575195,-0.3910105526447296,0.440507709980011,0.29326850175857544,0.224697545170784,0.6506185531616211,-0.3529794216156006,0.06386638432741165,0.8045845031738281,0.0627012625336647,0.16236348450183868,0.18408669531345367,1.2632489204406738,-0.5077809691429138,-0.2332673966884613,-0.5262329578399658,0.327322781085968,-0.5885049700737,-0.24495884776115417,0.5330823659896851,0.18126969039440155,-0.24730238318443298,0.30521029233932495,-0.4178943634033203,-0.13544924557209015,0.758461594581604,-0.08220446109771729,0.6402233242988586,0.25456827878952026,-0.7642775177955627,-0.4425637125968933,0.3411375880241394,-0.3562942147254944,-0.2410927712917328,-0.3493574261665344,-0.14972014725208282,0.3206816613674164,-0.14065545797348022,-0.2743040919303894,0.7295210361480713,0.2349124252796173,-0.3673921227455139,0.11687776446342468,-0.23324055969715118,-0.17748315632343292,0.09757214039564133,-0.24520081281661987,0.0599495954811573,0.2604964077472687,-0.34008970856666565,-0.06262892484664917,0.04289289936423302,-0.012744592502713203,0.0902160257101059,0.11505819112062454,0.7647835612297058,-0.33591046929359436,0.5177488923072815,0.5633822679519653,-0.7255353927612305,0.05962512642145157,0.16181929409503937,-0.7391732931137085,0.591792643070221,0.054911889135837555,-0.6666303873062134,0.01488377247005701,-0.17018404603004456,-0.3136751651763916,0.40167129039764404,0.40408411622047424,-0.4599163830280304,-0.009251686744391918,0.3484131693840027,-0.14046692848205566,0.490276962518692,0.026033811271190643,-0.08361655473709106,0.39096617698669434,-0.4245956540107727,0.35742223262786865,0.2103797346353531,-0.4045042097568512,-0.11857599765062332,0.052783459424972534,-0.22276227176189423,0.2687290608882904,-0.12725353240966797,-0.20383691787719727,0.4079739451408386,0.2975224554538727,-0.057601116597652435,-0.1406378597021103,0.30584877729415894,-0.021129904314875603,0.4014332592487335,-0.10276537388563156,0.17108400166034698,0.3379090428352356,-0.5278153419494629,-0.026322292163968086,0.1889125406742096,-0.15155020356178284,0.20049510896205902,0.11014088243246078,-0.3142251968383789,0.22151179611682892,-0.2167305052280426,0.019557319581508636,0.42094334959983826,0.2480270117521286,-0.11370223015546799,0.07451426982879639,-0.08501804620027542,-0.2417725920677185,-0.2408601939678192,0.26749134063720703,-0.20714041590690613,-0.25297096371650696,0.5120967626571655,0.3533465266227722,-0.2526073157787323,0.21598728001117706,-0.18379396200180054,-0.3445339500904083,0.13133713603019714,-0.27726975083351135,0.297740638256073,0.3537035286426544,-0.2626577317714691,-0.2736811339855194,0.024424687027931213,-0.16616031527519226,0.07472401857376099,-0.4563310444355011,-0.2300354689359665,1.9586230516433716,0.8217242956161499,-0.3136523962020874,0.7967600226402283,-0.09677798300981522,-0.12192254513502121,0.14160257577896118,0.7236327528953552,0.43759045004844666,-0.5491281151771545,-0.4220103323459625,-0.35772860050201416,0.9825413823127747,0.23633888363838196,0.5088582634925842,-0.13273589313030243,0.9374943375587463]},"cellActivationBias":{"rows":20,"columns":1,"weights":[-0.017683716490864754,0.2661077380180359,0.27722615003585815,-0.9058520197868347,-0.19034254550933838,0.2517353892326355,-0.6186541318893433,-0.14875175058841705,-0.21968486905097961,-0.03645702451467514,-0.24324165284633636,-0.23386244475841522,0.7568323016166687,-0.17851778864860535,-0.047522760927677155,-0.49470120668411255,-0.22547201812267303,-0.22980749607086182,-0.008423919789493084,-0.17327247560024261]}}],"outputConnector":{"rows":1,"columns":20,"weights":[-0.4250901937484741,0.45668724179267883,-0.46504274010658264,-0.45398637652397156,-0.49421459436416626,-0.44329848885536194,0.4271412491798401,-0.4898272454738617,0.45085906982421875,0.4530946910381317,-0.46550169587135315,-0.5123924016952515,0.589680016040802,0.48678213357925415,0.4174002408981323,-0.44682449102401733,-0.5316081643104553,-0.47365739941596985,0.4146588444709778,4.304917335510254]},"output":{"rows":1,"columns":1,"weights":[0.5122126936912537]},"inputLookup":null,"inputLookupLength":0,"outputLookup":null,"outputLookupLength":0}