{"type":"LSTMTimeStep","options":{"inputSize":1,"inputRange":0,"hiddenLayers":[20],"outputSize":1,"decayRate":0.999,"smoothEps":1e-8,"regc":0.000001,"clipval":5,"maxPredictionLength":100,"dataFormatter":{"indexTable":{},"characterTable":{},"characters":[],"specialIndexes":[]}},"hiddenLayers":[{"inputMatrix":{"rows":20,"columns":1,"weights":[0.13528990745544434,0.2312195897102356,0.2529129087924957,0.12619884312152863,0.02616233378648758,0.07663414627313614,0.19261690974235535,0.08731034398078918,0.1887511909008026,0.12233894318342209,-0.7079099416732788,0.009204845875501633,0.056137409061193466,-0.02351442724466324,0.07963886857032776,0.20651477575302124,-0.5625200271606445,0.2759493291378021,0.16134919226169586,0.09820325672626495]},"inputHidden":{"rows":20,"columns":20,"weights":[0.5028135776519775,-0.32018280029296875,0.6112186908721924,-0.2503717541694641,-0.3799476623535156,0.7722235321998596,0.12898853421211243,0.34200140833854675,0.651421308517456,0.2717103362083435,-0.09831070154905319,-0.1746501475572586,0.533962607383728,-0.19326108694076538,0.22902236878871918,0.7083020210266113,0.24499519169330597,0.8939449191093445,0.19715319573879242,0.1745465248823166,0.09826266020536423,-0.2690458595752716,0.03843770548701286,-0.5198804140090942,-0.22183957695960999,0.21889963746070862,0.570636510848999,0.34239646792411804,0.14257346093654633,0.29348209500312805,-0.9644860625267029,-0.37701860070228577,0.38249340653419495,-0.46192944049835205,0.3537079393863678,0.0948379635810852,0.7451773881912231,-0.3009626269340515,0.33836838603019714,0.4104952812194824,0.2831864356994629,-0.333698570728302,0.544705867767334,-0.18129470944404602,-0.40337538719177246,1.0204651355743408,-0.002282766392454505,0.3212276101112366,0.686161458492279,0.24401196837425232,-0.14470650255680084,-0.136229008436203,0.4226537346839905,-0.25907793641090393,0.34110134840011597,0.7188335061073303,-0.13675715029239655,0.643420934677124,0.2402506023645401,0.3218494951725006,0.6591033935546875,-0.3275265395641327,0.515714168548584,-0.45243674516677856,-0.4241916239261627,-0.21929097175598145,-0.28171032667160034,0.5551290512084961,0.4506562054157257,0.46983572840690613,0.40897801518440247,-0.4942016303539276,-0.7248167991638184,-0.5114409327507019,0.42184263467788696,0.5105047821998596,-0.30345627665519714,0.4069368839263916,0.437365859746933,0.5353124141693115,0.953905463218689,-0.10813992470502853,0.20539744198322296,-0.4919013977050781,-0.24310366809368134,-0.12846288084983826,0.019733311608433723,0.34451058506965637,0.3949127495288849,0.355575829744339,-0.33288031816482544,-0.5905650854110718,-0.1762472689151764,-0.44888654351234436,0.268462210893631,0.32784292101860046,0.662787139415741,-0.24230314791202545,0.25508010387420654,0.3060097098350525,0.7822157740592957,-0.14320173859596252,0.6631636619567871,-0.2178191989660263,-0.037917573004961014,0.4282214343547821,0.4350144565105438,0.13054879009723663,0.5813609957695007,0.12955476343631744,-0.42123308777809143,-0.18408741056919098,0.5746684074401855,-0.18359607458114624,0.07471588999032974,0.6717551946640015,0.21629440784454346,0.34214940667152405,0.09423279762268066,0.11384071409702301,0.5915467739105225,-0.1587558388710022,0.6808956861495972,0.30753085017204285,-0.14379198849201202,0.4245505928993225,-0.8063714504241943,0.0027678455226123333,0.6283654570579529,-0.05751913785934448,0.45737481117248535,0.2179403305053711,-0.4220530092716217,0.2902001738548279,0.045076411217451096,0.6156786680221558,-0.07922808080911636,0.5780590772628784,-0.1418919712305069,-0.17608249187469482,0.6375699639320374,-0.19332122802734375,0.0415300652384758,-0.5694820880889893,-0.36442121863365173,0.06104364991188049,0.044926032423973083,0.378563791513443,0.03530401363968849,0.4022456705570221,-0.22354631125926971,-0.6598288416862488,-0.10592319071292877,-0.6036036610603333,0.30994635820388794,0.006233994383364916,0.5557547807693481,-0.33434924483299255,0.3551451563835144,0.46351340413093567,0.4278784692287445,-0.4946816861629486,0.7423979640007019,-0.2565636932849884,-0.36802053451538086,0.9475201368331909,0.052017610520124435,0.3308124542236328,0.670210599899292,0.20427563786506653,-0.21229910850524902,-0.15316374599933624,0.34075239300727844,-0.22489817440509796,0.36001402139663696,0.48867863416671753,0.12666116654872894,0.6362115740776062,0.17697623372077942,0.280735582113266,0.6837630271911621,-0.27340421080589294,0.022303111851215363,-0.549303412437439,-0.30365926027297974,0.08630389720201492,0.171488419175148,0.4038321375846863,0.03210024908185005,0.3513936996459961,-0.3064974844455719,-0.7158129215240479,0.025914987549185753,-0.6379607915878296,0.32204318046569824,0.11494685709476471,0.6290165781974792,-0.2436639368534088,0.343923956155777,0.3914700150489807,0.6945661902427673,-0.03736292943358421,0.5557014346122742,-0.20283126831054688,0.0784602016210556,0.5494871735572815,0.2634572684764862,0.03019116446375847,0.521565854549408,0.1122489869594574,1.2782325744628906,-0.4828053116798401,-1.8575588464736938,-0.5103529095649719,0.041308335959911346,0.5030351877212524,0.06922973692417145,0.5618132948875427,0.06280847638845444,0.16686363518238068,0.9335753917694092,-0.10862409323453903,0.35091733932495117,-0.4729638397693634,-0.24522154033184052,-0.22805899381637573,-0.2476111203432083,0.3239399194717407,0.6351956129074097,0.3165529668331146,0.22506555914878845,-0.4479841887950897,-1.1211079359054565,-0.41864973306655884,0.25225192308425903,0.5222128629684448,0.19277995824813843,0.2664256989955902,0.2467181235551834,0.2942340075969696,0.41335850954055786,-0.1951332986354828,0.6010493040084839,-0.010251264087855816,-0.19974972307682037,-0.09844033420085907,-0.10143058747053146,0.4387587606906891,0.633188009262085,0.3448329567909241,-0.2557220160961151,-0.1297498643398285,-1.2643216848373413,-0.06734301149845123,0.6205573678016663,0.7490997314453125,-0.4793570637702942,0.5428879261016846,0.131365567445755,0.17365549504756927,0.9478833079338074,-0.2758934795856476,0.2988591492176056,-0.41760244965553284,-0.37689268589019775,0.1012570708990097,-0.14685285091400146,0.4396165907382965,0.4735602140426636,0.48605307936668396,0.1259259432554245,-0.4828333258628845,-0.787936806678772,-0.388613224029541,0.35541942715644836,0.5023894309997559,0.07314292341470718,0.08835495263338089,0.36300724744796753,0.3770712614059448,0.723232626914978,-0.1837780773639679,0.12753048539161682,-0.4994516372680664,-0.28220513463020325,-0.3592052757740021,-0.0018974639242514968,0.34614306688308716,0.22313499450683594,0.41276079416275024,-0.05296802148222923,-0.6385112404823303,-0.3658232092857361,-0.5289691090583801,0.25963348150253296,0.1226591244339943,0.6344417929649353,-0.20962941646575928,0.23914900422096252,0.3120357096195221,0.44312775135040283,-0.43770721554756165,0.6651828289031982,-0.24581876397132874,-0.46897780895233154,1.0693236589431763,0.0932813435792923,0.3310985267162323,0.7005717754364014,0.3852711319923401,-0.3310527503490448,-0.33860087394714355,0.17954906821250916,-0.17631873488426208,0.4532366096973419,0.573954164981842,0.22452668845653534,0.6399024128913879,0.3686964809894562,0.3727226257324219,0.1587890386581421,-0.08541405946016312,0.18996283411979675,-0.5103288888931274,0.38825568556785583,-0.22067572176456451,0.7805753946304321,0.24099232256412506,0.01767069846391678,0.6034747958183289,-0.2513662278652191,-0.4665662348270416,0.9666045904159546,-0.5370522737503052,-0.06310410052537918,-0.3082050681114197,-0.5012329816818237,0.21634580194950104,0.29476213455200195,0.8676214814186096,0.4251963198184967,-0.3105928301811218,0.40211203694343567,-0.1283833086490631,-0.35941824316978455,0.8964506387710571,0.14184880256652832,0.3076940178871155,0.5608154535293579,0.2466244399547577,-0.2635546624660492,-0.12185557186603546,0.2757699191570282,-0.14924302697181702,0.3043680787086487,0.5394722819328308,0.06653740257024765,0.7417906522750854,0.12483282387256622,0.24462220072746277,0.2963167726993561,-0.3614233732223511,-0.05082324892282486,-0.5617378950119019,-0.23850660026073456,0.14340940117835999,0.05623995140194893,0.2944805920124054,-0.09100696444511414,0.47349023818969727,-0.6015163064002991,-0.5827687978744507,0.04182856157422066,-0.6826479434967041,0.3295048475265503,-0.054191671311855316,0.7038722634315491,-0.3796994388103485,0.32200437784194946,0.44251856207847595,0.7548767924308777,-0.40343213081359863,0.0977625697851181,-0.6359899044036865,-0.42274391651153564,0.0979294553399086,-0.0124745462089777,0.4890943765640259,0.1307518035173416,0.48888760805130005,-0.2772972881793976,-0.6653439998626709,-0.017946092411875725,-0.5090197324752808,0.4383516311645508,0.15940538048744202,0.45629653334617615,-0.2035251408815384,0.4547766149044037,0.42077651619911194]},"inputBias":{"rows":20,"columns":1,"weights":[0.35182541608810425,0.18397818505764008,-0.4391702115535736,-0.06227601692080498,-0.04996715858578682,0.5402575135231018,-0.16280144453048706,0.010701636783778667,-0.49411991238594055,-0.001891592750325799,0.3014281690120697,0.14321550726890564,-0.08525248616933823,0.017983529716730118,0.05613997206091881,-0.3617783784866333,-0.15681394934654236,-0.03782413899898529,-0.046712201088666916,0.03422506898641586]},"forgetMatrix":{"rows":20,"columns":1,"weights":[0.05537286400794983,0.24329033493995667,0.23510226607322693,0.10204686969518661,0.20511136949062347,0.23136645555496216,0.2563287019729614,0.1780509203672409,0.18277296423912048,0.20168755948543549,-0.7267668843269348,0.07339996099472046,0.3147265613079071,0.2155085802078247,0.09694691747426987,-0.017809247598052025,0.7807148098945618,0.28368648886680603,0.07161977142095566,0.18156573176383972]},"forgetHidden":{"rows":20,"columns":20,"weights":[0.6873181462287903,-0.32443782687187195,0.7637127637863159,-0.5276463031768799,-0.12189934402704239,0.49413585662841797,0.8267917633056641,0.27540451288223267,0.7124354243278503,0.2866166830062866,-0.6104864478111267,-0.33023956418037415,0.27871423959732056,-0.4535561501979828,0.2752181589603424,0.7569866180419922,0.4682960510253906,0.4908541440963745,0.23791413009166718,0.282163143157959,0.5423106551170349,-0.16865892708301544,0.4834230840206146,-0.3066015839576721,-0.29947876930236816,0.5055404901504517,-0.17244753241539001,0.15396852791309357,0.5651944875717163,0.2760303318500519,-0.18339553475379944,-0.22446267306804657,0.37164315581321716,-0.12176376581192017,0.1568944901227951,0.5575980544090271,0.055710867047309875,0.053399909287691116,0.31124982237815857,0.11248867213726044,0.917262077331543,-0.1070241704583168,0.6127902269363403,-0.32262128591537476,-0.2721814513206482,0.5604948401451111,0.8980658650398254,0.3293866217136383,0.5676538944244385,0.40207621455192566,-1.0304509401321411,-0.3061032295227051,-0.7000742554664612,-0.2992103695869446,0.3627583980560303,0.6161636114120483,0.6514617204666138,0.5775484442710876,0.22558721899986267,0.423283189535141,0.9361950755119324,-0.14085237681865692,0.5567541122436523,-0.520791232585907,-0.364902526140213,-0.5698570609092712,0.423374742269516,0.569149374961853,0.4629155397415161,0.5063604116439819,0.006993572693318129,-0.5887317061424255,0.15763461589813232,-0.5532077550888062,0.5190026164054871,0.33983370661735535,0.03123932145535946,-0.04700509086251259,0.38089287281036377,0.6425034999847412,0.8385891318321228,-0.17636016011238098,0.3081192672252655,-0.39896053075790405,-0.3221531808376312,-0.192209392786026,-0.09683646261692047,0.22157779335975647,0.4746303856372833,0.25934648513793945,-0.28141412138938904,-0.28095167875289917,0.43314969539642334,-0.3269428014755249,0.23025450110435486,0.39163124561309814,0.2292819768190384,0.13661719858646393,0.23714490234851837,0.17679515480995178,0.5520727634429932,-0.2235778570175171,0.7661812901496887,-0.06791724264621735,0.19840694963932037,0.404295414686203,0.06255880743265152,-0.11085551977157593,0.8039644360542297,-0.03555426374077797,-0.4644859731197357,-0.10020812600851059,0.5280952453613281,-0.12160614877939224,-0.06440197676420212,0.7305618524551392,-0.1547069102525711,0.4128866493701935,-0.11095943301916122,0.02761140652000904,0.8472998738288879,-0.22394801676273346,0.8958387970924377,0.3415217697620392,0.10200006514787674,0.26628080010414124,-0.33928918838500977,-0.13657496869564056,1.1090716123580933,-0.10527432709932327,-0.12966471910476685,0.3566396236419678,-0.09983333945274353,0.0629441887140274,-0.18549038469791412,1.1146128177642822,-0.039137471467256546,0.546306848526001,-0.16680996119976044,-0.0023669477086514235,0.9441989064216614,-0.2759629786014557,0.400638610124588,-0.5037834644317627,-0.38489460945129395,-0.10981474071741104,0.3155008554458618,0.364313542842865,0.29493752121925354,0.34477493166923523,-0.25041916966438293,-0.5166612267494202,0.2069704383611679,-0.46335816383361816,0.3539358079433441,0.24287298321723938,0.31314054131507874,-0.02209443412721157,0.30852383375167847,0.34792056679725647,0.8807324767112732,-0.24597570300102234,0.7252099514007568,-0.3992849886417389,-0.17877641320228577,0.6634067893028259,0.8504698872566223,0.3689103126525879,0.6692003011703491,0.3849792182445526,-1.0307992696762085,-0.357781320810318,-0.5040136575698853,-0.3892740309238434,0.2810734212398529,0.5119258761405945,0.6789430379867554,0.2182987928390503,0.2796812653541565,0.38217461109161377,0.7157537937164307,-0.22115668654441833,0.17284712195396423,-0.31140226125717163,-0.362714022397995,-0.17551188170909882,0.2067314237356186,0.47107216715812683,0.22196058928966522,0.4968564212322235,-0.31812575459480286,-0.5394182205200195,-0.11417219787836075,-0.5266208052635193,0.48983240127563477,0.1596638560295105,0.7197622656822205,-0.023994404822587967,0.3541732430458069,0.44531431794166565,0.6651290059089661,-0.28211709856987,0.5088480114936829,-0.3180319666862488,-0.14800378680229187,0.4907265603542328,-0.03371339291334152,0.2777321934700012,0.5318341851234436,0.4393744468688965,0.8732728362083435,-0.3450075089931488,-0.8391854763031006,-0.2941747009754181,0.32158511877059937,0.5917778611183167,-0.2273857444524765,0.5731571316719055,0.293792724609375,0.5010764598846436,1.0997686386108398,-0.05921588093042374,0.5708035826683044,-0.6303239464759827,-0.10261566191911697,-0.2545788884162903,0.46304020285606384,0.38188204169273376,0.5008302927017212,0.44125595688819885,0.16521812975406647,-0.5698516368865967,-0.524446964263916,-0.5588198900222778,0.2965402901172638,0.4168408513069153,-0.025470754131674767,-0.06135110184550285,0.3007863163948059,0.4919988512992859,1.4895195960998535,-0.09518902748823166,1.9463331699371338,-1.0728756189346313,-0.34777164459228516,-0.6385350227355957,0.17042453587055206,0.2759815752506256,2.391049861907959,0.2147778570652008,-0.7218320965766907,-0.727663516998291,0.6893416047096252,-0.339741975069046,0.5474737286567688,2.939871311187744,0.9371684193611145,-0.9456052184104919,0.12075137346982956,0.281428724527359,0.48858642578125,-0.21261721849441528,0.32704266905784607,-0.24363000690937042,-0.4026782810688019,-0.47835612297058105,0.1550292670726776,0.5910122394561768,0.2518834173679352,0.597325325012207,0.01895211450755596,-0.44647523760795593,0.052356161177158356,-0.4472486078739166,0.6850028038024902,0.17359964549541473,0.04379356652498245,0.09108123928308487,0.45588287711143494,0.6439498662948608,1.2540216445922852,-0.17922452092170715,0.56361323595047,-0.36480361223220825,-0.32007384300231934,-0.2679152190685272,0.20081546902656555,0.29736340045928955,0.6982411742210388,0.39929088950157166,-0.14691607654094696,-0.4198092818260193,0.5747411847114563,-0.35965695977211,0.31572556495666504,0.5086838006973267,-0.10818464308977127,0.16584913432598114,0.2791060507297516,0.2837051749229431,1.2341798543930054,-0.16680999100208282,1.276199460029602,-0.39565059542655945,-0.2371566742658615,1.04427969455719,0.5515918731689453,0.30937105417251587,0.9596884846687317,0.4282586872577667,-0.5268994569778442,-0.30502262711524963,0.20922233164310455,-0.2531508207321167,0.2362145334482193,0.7347003221511841,0.39585328102111816,0.5619595050811768,0.08049483597278595,0.416460782289505,0.46815404295921326,-0.1269637644290924,0.4395942687988281,0.4632455110549927,0.3805568218231201,0.024996455758810043,0.30449777841567993,0.031111646443605423,0.5357081294059753,0.6845491528511047,-0.52456134557724,0.1335485726594925,2.183851957321167,-0.7836141586303711,-0.15614895522594452,-0.020751066505908966,0.7138246893882751,-0.0840383917093277,0.22694067656993866,0.8967409133911133,0.2771672308444977,-0.28817352652549744,0.3343329429626465,0.0004030580457765609,-0.28705501556396484,1.544814944267273,0.1430797576904297,0.23439925909042358,0.22664912045001984,0.2018670290708542,-0.7174244523048401,-0.07458088546991348,-0.3678443729877472,-0.05255068093538284,0.23598016798496246,0.40441593527793884,0.33938953280448914,0.4646288752555847,0.32696521282196045,0.11182203143835068,0.8193004727363586,-0.3046746551990509,0.3515635132789612,-0.471859335899353,-0.4303520917892456,0.2426295429468155,0.09784608334302902,0.41334471106529236,0.34628593921661377,0.39673787355422974,-0.24792368710041046,-0.5981696248054504,0.007951071485877037,-0.4010658264160156,0.3164970278739929,0.2573176920413971,0.5272930264472961,0.05687153339385986,0.3880031406879425,0.3688977062702179,0.6053106188774109,-0.2539611756801605,0.18381358683109283,-0.4161578416824341,-0.419730007648468,-0.32547158002853394,0.27646738290786743,0.3832087516784668,0.20935340225696564,0.41492438316345215,-0.15669609606266022,-0.48987749218940735,-0.45417100191116333,-0.57117760181427,0.42563655972480774,0.1456512063741684,0.3001933991909027,-0.014137561433017254,0.43656912446022034,0.5338671803474426]},"forgetBias":{"rows":20,"columns":1,"weights":[0,0,0,0,0,0,0,0,0,0,0,0,0,0,0,0,0,0,0,0]},"outputMatrix":{"rows":20,"columns":1,"weights":[0.14242637157440186,0.14251716434955597,0.22630956768989563,0.1934717297554016,0.03548095375299454,0.09819193929433823,0.20308788120746613,0.04997539892792702,0.2236267775297165,0.1154506653547287,-0.8003318309783936,0.10756488889455795,0.14292766153812408,0.016156597062945366,0.15363341569900513,0.11530596762895584,-0.3961392343044281,0.30455827713012695,0.1747564673423767,0.1789359599351883]},"outputHidden":{"rows":20,"columns":20,"weights":[0.7020258903503418,-0.43148502707481384,0.7831125855445862,-0.3373361825942993,-0.4147707521915436,0.7105967402458191,0.36530888080596924,0.4144134223461151,0.7502379417419434,0.3704689145088196,-0.1624111533164978,-0.22828927636146545,0.5236037373542786,-0.2845590114593506,0.4522760808467865,0.9193849563598633,0.46260836720466614,0.8512713313102722,0.3437424600124359,0.2446248084306717,0.7407503128051758,-0.2203729897737503,0.6416774988174438,-0.45197513699531555,-0.27591004967689514,0.7440598607063293,0.03034530021250248,0.3068312406539917,0.5714279413223267,0.25554803013801575,-0.6586213707923889,-0.2736389636993408,0.2387712299823761,-0.3388334810733795,0.17967946827411652,0.5222333073616028,0.48452985286712646,0.25536152720451355,0.21081291139125824,0.2723549008369446,0.7219021916389465,-0.3525394797325134,0.635452926158905,-0.2016027718782425,-0.2729719281196594,1.3298343420028687,0.20667488873004913,0.2837720811367035,0.796074390411377,0.29816025495529175,-0.37883225083351135,-0.212686225771904,0.29347899556159973,-0.31465014815330505,0.24637626111507416,0.7313430905342102,0.21031446754932404,1.055902361869812,0.25537601113319397,0.3612063229084015,0.9304911494255066,-0.2601225674152374,0.5891245603561401,-0.31305259466171265,-0.4301564693450928,-0.18870359659194946,-0.08725830912590027,0.5303770899772644,0.6721879243850708,0.5217282772064209,0.14884911477565765,-0.3811386823654175,-0.3938788175582886,-0.39010122418403625,0.35658934712409973,0.7939122915267944,0.04752955958247185,0.49505043029785156,0.4519396722316742,0.46166443824768066,1.1918309926986694,-0.1264237016439438,0.81200110912323,-0.3421088755130768,-0.34089145064353943,0.31453490257263184,0.0586606040596962,0.31215575337409973,0.9052996635437012,0.21859292685985565,-0.2602856457233429,-0.49012285470962524,-0.061910029500722885,-0.4344193935394287,0.3010033369064331,0.8528104424476624,0.37807437777519226,0.1446189284324646,0.31558671593666077,0.283059686422348,0.8183785080909729,-0.27992749214172363,0.8470881581306458,-0.10852079838514328,-0.0793735682964325,0.5121172070503235,-0.00906135980039835,0.13717518746852875,0.8266103863716125,0.060698989778757095,-0.06479150056838989,-0.15854300558567047,0.3268899619579315,-0.16000932455062866,0.13309212028980255,0.782405436038971,-0.05678080394864082,0.5261590480804443,0.2209586203098297,0.1594253033399582,1.0221970081329346,-0.23056873679161072,0.9078873991966248,0.2470635622739792,-0.25879794359207153,0.5520252585411072,-0.6857886910438538,-0.011667529121041298,0.9810702800750732,-0.02968020737171173,0.301506370306015,0.2837010324001312,-0.28074607253074646,0.13614138960838318,0.18806855380535126,1.1075196266174316,-0.02166232094168663,0.8331806063652039,0.020496299490332603,-0.07701725512742996,1.2240465879440308,-0.28524520993232727,0.5655291080474854,-0.4273080825805664,-0.3264096975326538,0.33518627285957336,0.0866096094250679,0.28829333186149597,0.8267413973808289,0.3119910657405853,-0.22503530979156494,-0.49249356985092163,-0.0430210717022419,-0.44168516993522644,0.24491842091083527,0.6786182522773743,0.3012772500514984,0.22867068648338318,0.3777133524417877,0.38196250796318054,0.9216638803482056,-0.4139493405818939,0.7187445759773254,-0.2119634747505188,-0.31741517782211304,1.3044267892837524,0.2111017256975174,0.21404977142810822,0.7579039931297302,0.20202979445457458,-0.420859158039093,-0.25298988819122314,0.4100583493709564,-0.2385541796684265,0.305337131023407,0.6921815872192383,0.25472205877304077,0.998755931854248,0.14304248988628387,0.2583897113800049,0.9449611902236938,-0.3834034502506256,0.5121068358421326,-0.4848816990852356,-0.4232122302055359,0.2775552570819855,0.021082768216729164,0.34291982650756836,0.456177681684494,0.3703640401363373,-0.4482749104499817,-0.5041390657424927,-0.14623987674713135,-0.5043760538101196,0.4402053654193878,0.5070961117744446,0.3983646333217621,0.10856105387210846,0.2755037546157837,0.4464220404624939,0.8623753786087036,-0.10282689332962036,0.4875940680503845,-0.11484063416719437,-0.005917942617088556,0.7030525207519531,0.168043851852417,0.11619222164154053,0.6293989419937134,0.0465921089053154,0.4101651608943939,-0.5584645867347717,-0.14293719828128815,-0.5649749636650085,0.11297479271888733,0.5663700699806213,0.023174341768026352,0.4989096522331238,0.11563459783792496,0.29584959149360657,1.2797691822052002,-0.0670478567481041,0.6550719141960144,-0.447100430727005,-0.31386518478393555,-0.2622668743133545,0.04943845048546791,0.2783540189266205,0.8949728608131409,0.35482677817344666,0.08499713987112045,-0.3606022000312805,-0.8949726819992065,-0.34114566445350647,0.2867666780948639,0.90444415807724,0.009251570329070091,0.3202802836894989,0.30654582381248474,0.3407522141933441,0.5004490613937378,-0.27694135904312134,0.6985942125320435,-0.12662141025066376,-0.3028530180454254,0.0059633697383105755,-0.2294810563325882,0.5133386254310608,0.6903046369552612,0.4436980187892914,-0.394639253616333,-0.21132779121398926,-1.1030350923538208,-0.14704489707946777,0.6896660923957825,0.8895633220672607,-0.34398144483566284,0.7014025449752808,0.3005533218383789,0.20962734520435333,1.2089718580245972,-0.26092228293418884,0.6026557683944702,-0.46663376688957214,-0.34833940863609314,0.12779876589775085,0.10221388936042786,0.44609731435775757,0.7689833045005798,0.37411248683929443,0.07388032227754593,-0.392953097820282,-0.4937696158885956,-0.40071940422058105,0.38256019353866577,0.7723249197006226,0.3024687170982361,0.3110849857330322,0.35488107800483704,0.3749120831489563,1.0102591514587402,-0.09784428030252457,0.56435227394104,-0.36039799451828003,-0.3748677968978882,-0.10047823935747147,-0.06287132948637009,0.2567689120769501,0.656737744808197,0.24311880767345428,-0.19681520760059357,-0.45349130034446716,0.07845408469438553,-0.4118749499320984,0.3709900677204132,0.6413978338241577,0.47797003388404846,0.08202127367258072,0.3147571384906769,0.3235585391521454,1.0458147525787354,-0.4846824109554291,0.9063969254493713,-0.3566877245903015,-0.2950667440891266,1.3275326490402222,0.34558308124542236,0.3259353041648865,0.8853594660758972,0.2984311282634735,-0.5570374131202698,-0.3368070423603058,0.3393627405166626,-0.3466165363788605,0.39711281657218933,0.7675947546958923,0.4176791310310364,0.9581358432769775,0.15533269941806793,0.17954595386981964,0.08077932149171829,-0.2930119037628174,0.4068867266178131,0.11848833411931992,0.12699361145496368,0.3318672180175781,0.5751786231994629,0.4292529225349426,0.3217022120952606,0.7602589726448059,-0.2934201657772064,0.18101783096790314,1.6761364936828613,-0.1928265392780304,0.1618746817111969,0.08337858319282532,-0.37274041771888733,0.38119298219680786,0.5202687978744507,0.8483886122703552,0.42513811588287354,-0.4022148847579956,0.5842244625091553,-0.08698473870754242,-0.2952493727207184,1.201982021331787,0.031284354627132416,0.2630208730697632,0.5015515685081482,0.3205430507659912,-0.5968185663223267,-0.08763813227415085,0.3007875680923462,-0.14251266419887543,0.4172440767288208,0.641428530216217,-0.04348571598529816,0.7450288534164429,0.28972411155700684,0.20785437524318695,0.6323865056037903,-0.33068981766700745,0.4103878140449524,-0.5395758152008057,-0.31491202116012573,0.37209126353263855,0.0850735753774643,0.4247286915779114,0.5789884328842163,0.2789701819419861,-0.49152877926826477,-0.4380952715873718,-0.15304355323314667,-0.4020966589450836,0.32668012380599976,0.3222957253456116,0.5447165966033936,-0.05221276357769966,0.32128316164016724,0.41217437386512756,0.9750569462776184,-0.3240714967250824,0.3629932999610901,-0.5344628095626831,-0.41933581233024597,0.0373726412653923,0.044979870319366455,0.38630548119544983,0.5793428421020508,0.3681894540786743,-0.3079279363155365,-0.5496474504470825,-0.48712581396102905,-0.4992530941963196,0.3255111873149872,0.5976880788803101,0.26159849762916565,0.05886932834982872,0.3280905783176422,0.33382558822631836]},"outputBias":{"rows":20,"columns":1,"weights":[0.36066389083862305,0.20170965790748596,-0.43600335717201233,-0.05734638124704361,-0.041519369930028915,0.5694174766540527,-0.16446453332901,0.019179455935955048,-0.49296337366104126,0.007570967078208923,0.30469492077827454,0.1606728732585907,-0.08470631390810013,0.027734192088246346,0.0647149533033371,-0.34553781151771545,-0.1428375542163849,-0.03413967415690422,-0.029376404359936714,0.046712592244148254]},"cellActivationMatrix":{"rows":20,"columns":1,"weights":[-0.013479123823344707,-0.08901775628328323,0.006716099567711353,-0.16986995935440063,-0.08131132274866104,0.039300598204135895,-0.09258627891540527,0.12483098357915878,-0.008812428452074528,0.15507440268993378,-0.03531772270798683,-0.18574848771095276,0.11699701845645905,-0.14436985552310944,0.13610976934432983,-0.027378888800740242,-0.19156821072101593,0.03327412158250809,0.14550092816352844,0.1572851538658142]},"cellActivationHidden":{"rows":20,"columns":20,"weights":[0.0935385599732399,-0.276797354221344,-0.3522210121154785,-0.9489118456840515,-0.3869113028049469,-0.2650104761123657,-0.21843038499355316,0.4534972310066223,-0.3169151544570923,0.4001748859882355,0.14915692806243896,-0.7921403050422668,-0.11259887367486954,-0.7834373712539673,0.494998037815094,-0.25646793842315674,-0.2729441225528717,-0.20645351707935333,0.35341179370880127,0.4943557679653168,0.028680147603154182,0.4281855821609497,0.1528792530298233,0.21891222894191742,0.2663381099700928,-0.4603007435798645,0.18168582022190094,-0.18693801760673523,0.1316523402929306,-0.1475210338830948,0.13874180614948273,0.19064225256443024,-0.11826717853546143,0.005406841170042753,-0.1753407120704651,0.012918177992105484,-0.2601509988307953,0.1260184794664383,-0.23542173206806183,-0.16979654133319855,0.34247317910194397,-0.30494439601898193,-0.22429046034812927,-0.9162988066673279,-0.38547205924987793,-0.31150633096694946,-0.3401303291320801,0.4854448437690735,-0.15860965847969055,0.4520304501056671,0.2474665343761444,-0.9237695336341858,-0.09655371308326721,-0.694959282875061,0.5018137693405151,-0.24451176822185516,-0.2876473069190979,0.1408911496400833,0.2885712683200836,0.4714571535587311,0.37749651074409485,0.46167904138565063,0.4579058289527893,0.14386090636253357,0.1494939774274826,-0.04133094474673271,0.11809302121400833,-0.18524529039859772,0.37780269980430603,-0.20211049914360046,0.3856733739376068,0.6331850290298462,0.10116484016180038,0.7830504179000854,-0.1316145360469818,0.48269423842430115,-0.26353758573532104,0.34552547335624695,-0.18532633781433105,-0.1670357584953308,0.14872796833515167,0.3209002912044525,0.16338597238063812,0.08316923677921295,0.2224026322364807,-0.4350198805332184,0.29250800609588623,-0.2262987196445465,0.11628817766904831,-0.14705894887447357,0.17622406780719757,0.13850663602352142,0.4427967369556427,0.16662999987602234,-0.11835113912820816,0.09266563504934311,-0.3405638635158539,0.1163427010178566,-0.1825081706047058,-0.21724213659763336,0.027663415297865868,-0.567382276058197,0.0005910982727073133,-0.20000821352005005,-0.2527288794517517,0.333210289478302,-0.1910044401884079,0.09784824401140213,0.10130167007446289,0.09692145138978958,0.06992422044277191,-0.10845490545034409,-0.03344263136386871,-0.16330432891845703,0.11500795930624008,0.10796256363391876,-0.07917028665542603,0.01366314198821783,0.21622906625270844,0.04015341401100159,-0.534055769443512,0.02720222994685173,-0.4732954204082489,0.002963380655273795,-0.2258908599615097,-0.5337163209915161,-0.15218856930732727,0.2316967248916626,-0.37411269545555115,0.21658889949321747,0.38497665524482727,0.05621293559670448,0.04340831935405731,0.028712069615721703,0.22289443016052246,-0.4236709773540497,-0.3286261260509491,-0.2901449501514435,0.12094205617904663,0.09200552105903625,-0.4507634937763214,-0.5597312450408936,-0.24879051744937897,-0.04830047860741615,-0.2906703054904938,0.3615884482860565,-0.40247586369514465,0.3457663357257843,-0.179594948887825,0.2966209352016449,-0.4210319519042969,-0.2777409851551056,-0.29955750703811646,-0.3770883083343506,0.2039589285850525,-0.3105766475200653,0.1582435965538025,-0.2688908278942108,0.22332224249839783,0.07198775559663773,0.35053351521492004,-0.35320883989334106,0.0036601722240448,-0.7932106256484985,-0.4805179238319397,-0.46653276681900024,-0.18703897297382355,0.653056263923645,0.02010270766913891,0.4479576349258423,0.14815455675125122,-0.6997482776641846,0.013345582410693169,-0.746383786201477,0.548825204372406,-0.16110093891620636,-0.20601262152194977,0.09305865317583084,0.41378891468048096,0.45600467920303345,-0.3737237751483917,-0.6543556451797485,-0.3455486297607422,0.00885956920683384,-0.32905641198158264,0.30088573694229126,-0.3603145182132721,0.2736654281616211,-0.31613513827323914,0.31430405378341675,-0.5450292229652405,-0.23952551186084747,-0.19229519367218018,-0.31027689576148987,0.25037020444869995,-0.3586464822292328,0.2365170121192932,-0.2828281819820404,0.26786187291145325,0.23014703392982483,0.5655979514122009,-0.23954461514949799,0.2138291895389557,-0.1843000203371048,-0.3917675018310547,0.8947851061820984,0.11202598363161087,0.18103840947151184,0.16379642486572266,0.1551857888698578,0.043477993458509445,-0.24718162417411804,0.17848077416419983,-0.16487030684947968,0.33295103907585144,0.28974810242652893,0.22991301119327545,0.7214968204498291,0.12542122602462769,0.05937878042459488,0.26972508430480957,0.5444610714912415,0.3735891282558441,-0.02604769729077816,0.2401730865240097,-0.15215572714805603,0.03323373198509216,-0.2211752086877823,0.4086437523365021,-0.2527772784233093,0.5077834725379944,0.22100728750228882,-0.29835274815559387,0.3740385174751282,-0.1348491609096527,0.38413625955581665,-0.26264429092407227,0.30051445960998535,-0.2942359447479248,-0.27034762501716614,-0.678859531879425,0.2839929163455963,-0.6096958518028259,-0.11499013006687164,0.19355469942092896,-0.5162592530250549,-0.2508845329284668,-0.16508609056472778,-0.6134449243545532,-0.09071623533964157,0.2281436175107956,0.030343834310770035,0.0172067079693079,-0.03260092809796333,-0.22926154732704163,-1.0520875453948975,0.30698636174201965,-0.6280097365379333,-0.024882115423679352,-0.07282838970422745,0.39787477254867554,0.5266976952552795,0.4150336682796478,-0.009184610098600388,0.299617201089859,-0.21565954387187958,0.2623633146286011,-0.2523000240325928,0.414684921503067,-0.2172294408082962,0.7055951356887817,0.025441400706768036,0.09219695627689362,0.29082319140434265,-0.2048308104276657,0.4129265546798706,-0.11890055984258652,0.34629136323928833,-0.3551701307296753,-0.180728018283844,-0.25477084517478943,-0.37164193391799927,-0.13641490042209625,-0.01835906319320202,-0.25013741850852966,0.3226913809776306,-0.31596285104751587,0.20927311480045319,-0.18693506717681885,0.17331819236278534,-0.2974204123020172,-0.2639435827732086,-0.055724140256643295,-0.4273562729358673,0.15341319143772125,-0.21482880413532257,-0.08149453997612,-0.09950705617666245,0.29934439063072205,0.13956889510154724,0.4727824628353119,-0.16525991261005402,0.16924773156642914,-0.7605533599853516,-0.4847574532032013,-0.3526109457015991,-0.02831045351922512,0.5612549185752869,0.00019252291531302035,0.49884727597236633,0.044489987194538116,-0.6015679240226746,0.08060843497514725,-0.6432812809944153,0.642561137676239,-0.016813352704048157,-0.12680844962596893,0.11479485780000687,0.43412190675735474,0.49261045455932617,-0.283031702041626,0.1814592331647873,-0.2948637008666992,-0.053341858088970184,0.09417853504419327,-0.7080255746841431,0.006997857242822647,-0.38218268752098083,-0.27455997467041016,-0.44484227895736694,0.043141838163137436,0.031207837164402008,-0.5965845584869385,0.07810845971107483,-0.3383876085281372,-0.030140189453959465,0.4637266993522644,-0.6414738297462463,-0.2785412669181824,-0.2717878818511963,0.16819888353347778,-0.3419899642467499,0.044130779802799225,-0.5398974418640137,-0.5873796939849854,-0.21763089299201965,-0.44804954528808594,0.4920141100883484,0.050489943474531174,0.36522069573402405,0.32799556851387024,-0.5520740151405334,-0.250501811504364,-0.4687281847000122,0.6436645984649658,-0.03359204903244972,-0.49983111023902893,0.26799339056015015,0.27164262533187866,0.39957019686698914,-0.3918895721435547,-0.6874806880950928,-0.41309478878974915,0.035152677446603775,-0.2713124752044678,0.4386451244354248,-0.3334295451641083,0.32244688272476196,-0.23587536811828613,0.30760857462882996,-0.3721381425857544,-0.17980529367923737,-0.08598583191633224,-0.3283248841762543,0.13317401707172394,-0.2952246069908142,0.13152408599853516,-0.36985963582992554,0.295593798160553,0.0962219312787056,-0.4442628026008606,-0.5426294803619385,-0.33450379967689514,0.06460894644260406,-0.28358015418052673,0.3511643409729004,-0.35219699144363403,0.37744924426078796,-0.33580273389816284,0.2929411828517914,-0.5575176477432251,-0.17767882347106934,-0.2745709717273712,-0.4291185140609741,0.1428373008966446,-0.36943939328193665,0.19622531533241272,-0.3281765580177307,0.3013715147972107,0.24966344237327576]},"cellActivationBias":{"rows":20,"columns":1,"weights":[-0.5323617458343506,-0.27251338958740234,-0.09794031083583832,0.4356299638748169,0.10026882588863373,0.353264182806015,-0.17879754304885864,-0.1494213044643402,-0.07699844986200333,-0.1765008419752121,-0.4396935701370239,0.3400416672229767,0.22141286730766296,0.33733323216438293,-0.11151427030563354,-0.11550860852003098,-0.0822841227054596,0.01571052521467209,-0.1464686095714569,-0.2874322533607483]}}],"outputConnector":{"rows":1,"columns":20,"weights":[0.45480823516845703,-0.5688731670379639,0.412986695766449,-0.4033621549606323,-0.4305729866027832,0.43993982672691345,-0.381066232919693,0.42443132400512695,0.42390623688697815,0.40912216901779175,-4.49481725692749,-0.39105647802352905,-1.3858287334442139,-0.4002099931240082,0.41369038820266724,0.4268793761730194,6.0954484939575195,0.3997941017150879,0.4082275927066803,0.37924447655677795]},"output":{"rows":1,"columns":1,"weights":[1.4141826629638672]},"inputLookup":null,"inputLookupLength":0,"outputLookup":null,"outputLookupLength":0}