{"type":"GRUTimeStep","options":{"inputSize":1,"inputRange":0,"hiddenLayers":[20],"outputSize":1,"decayRate":0.999,"smoothEps":1e-8,"regc":0.000001,"clipval":5,"maxPredictionLength":100,"dataFormatter":{"indexTable":{},"characterTable":{},"characters":[],"specialIndexes":[]}},"hiddenLayers":[{"updateGateInputMatrix":{"rows":20,"columns":1,"weights":[0.7762494087219238,0.9192712903022766,1.3959758281707764,1.2698534727096558,0.9912793040275574,0.8893523812294006,1.1730440855026245,0.9709009528160095,1.1085853576660156,1.4949467182159424,1.155319094657898,0.9757440686225891,1.043052315711975,1.2354021072387695,1.0432140827178955,0.8157573938369751,1.0951415300369263,0.7182560563087463,0.9007712006568909,1.081139326095581]},"updateGateHiddenMatrix":{"rows":20,"columns":20,"weights":[0.8279091119766235,-0.7753404974937439,-0.31628507375717163,0.43487751483917236,0.7150177955627441,-1.0126038789749146,-0.6280122995376587,-0.6138415932655334,1.0973261594772339,-0.7170224785804749,-0.7578076124191284,0.2256559580564499,1.3374860286712646,0.41031986474990845,1.4840437173843384,0.6999271512031555,-0.9398617148399353,-0.6298434138298035,0.8022856116294861,0.4340355694293976,0.8558216094970703,-0.7235851883888245,-0.3524797260761261,0.32829779386520386,0.7428357005119324,-0.9292299151420593,-0.5833006501197815,-0.6421741843223572,1.1465595960617065,-0.6947087049484253,-0.8883535265922546,0.3747859299182892,1.5055335760116577,0.515347957611084,1.8625372648239136,0.6309270858764648,-0.8302599787712097,-0.5809868574142456,0.7709391117095947,0.5403372645378113,0.6536786556243896,-0.6969051361083984,0.5528790354728699,0.2451833337545395,0.6693682670593262,-0.7740679383277893,0.06889036297798157,-0.38983604311943054,0.9877473711967468,-0.3099072575569153,-0.5822843909263611,0.26333683729171753,1.0688565969467163,0.19602592289447784,1.6034904718399048,0.5363856554031372,-0.5521988868713379,-0.5666196346282959,0.6797018647193909,0.32677415013313293,0.7173089385032654,-0.5738664865493774,-0.10462921857833862,-0.3967895209789276,0.5435193777084351,-0.6520744562149048,0.26552248001098633,-0.2695327401161194,1.0370374917984009,-0.22821971774101257,-0.4394826292991638,-0.0400027371942997,1.2344788312911987,0.06198546662926674,1.6303269863128662,0.3781404495239258,-0.49712109565734863,-0.451644629240036,0.4947563409805298,-0.2054496705532074,0.7053281664848328,-0.5449506044387817,-0.2997579872608185,0.35344231128692627,0.5843097567558289,-0.8589414954185486,-0.45625776052474976,-0.47467130422592163,0.9243121147155762,-0.5825394988059998,-0.728001058101654,0.15777629613876343,1.1677428483963013,0.25952306389808655,1.519567608833313,0.44530487060546875,-0.6409918665885925,-0.434266060590744,0.577770471572876,0.435778945684433,0.8679232001304626,-0.8252748250961304,-0.34596341848373413,0.3343740403652191,0.8235510587692261,-0.944434404373169,-0.5600621104240417,-0.5910100936889648,1.088643193244934,-0.6100990772247314,-0.7876443266868591,0.24674035608768463,1.5036773681640625,0.3639279007911682,1.771313190460205,0.6381003856658936,-0.7904364466667175,-0.6271816492080688,0.7370562553405762,0.41425761580467224,0.9286898970603943,-0.15069614350795746,0.6139136552810669,-0.8128795027732849,0.375018447637558,-1.0383174419403076,0.34591570496559143,0.4848310649394989,0.9200226068496704,-0.9593310952186584,0.9266216158866882,0.8213801980018616,0.897209107875824,-0.543950080871582,1.1054881811141968,0.18854129314422607,-1.5437257289886475,-0.5718142986297607,-0.024916844442486763,-0.8397558927536011,0.7199845910072327,-0.5517195463180542,-0.35140371322631836,0.2905259430408478,0.5486583709716797,-0.7818485498428345,-0.18467679619789124,-0.27048519253730774,1.2934616804122925,-0.3083726465702057,-0.6142846941947937,0.1558324694633484,1.4900797605514526,0.19800855219364166,1.8794769048690796,0.4010161757469177,-0.6550440788269043,-0.396686851978302,0.5755818486213684,0.35659798979759216,0.49892282485961914,-0.4698126018047333,-0.17551366984844208,-0.005225408356636763,0.26607683300971985,-0.8617467284202576,-1.7031159400939941,-0.1616392284631729,1.417515516281128,-1.4499369859695435,-0.4104171097278595,0.6629725694656372,1.734874963760376,0.7729875445365906,1.7655247449874878,0.2076813131570816,-1.9049930572509766,-0.32463884353637695,0.3989199101924896,0.1828550100326538,0.9342537522315979,-1.220170021057129,0.03579969331622124,0.7583348155021667,1.3627265691757202,-0.6200516819953918,-0.3811437487602234,-0.6144711375236511,0.4834262430667877,-0.7598252296447754,-0.22217336297035217,0.9285696744918823,0.9590446949005127,0.5971179008483887,0.7388994097709656,1.1558797359466553,-0.30020198225975037,-0.4613281190395355,1.0175096988677979,0.556428074836731,0.593921422958374,-0.41072702407836914,-0.25514551997184753,-0.029275495558977127,0.28579282760620117,-0.8377279043197632,0.5888102054595947,0.05254603922367096,1.2833935022354126,-0.059134721755981445,0.36274221539497375,-0.005100731272250414,1.4248522520065308,-0.27247899770736694,2.11862850189209,0.09155358374118805,-0.6521705389022827,-0.31042706966400146,0.3743062913417816,0.10928589850664139,0.7611629962921143,-0.6858084797859192,-0.02713351882994175,0.03185511380434036,0.5719613432884216,-0.8607465624809265,-1.5722943544387817,-0.469497412443161,0.8082539439201355,0.13514094054698944,-0.526721179485321,0.31715959310531616,1.0998966693878174,0.6177706718444824,1.064857840538025,0.5218788981437683,-1.3047648668289185,-0.48043107986450195,0.5044518113136292,0.18578296899795532,0.5910161733627319,-0.532913863658905,-0.1841234713792801,0.12290283292531967,0.5414794087409973,-0.9947099089622498,-1.7438037395477295,-0.34088873863220215,1.670615553855896,-1.4434739351272583,-0.44025182723999023,0.8378157019615173,1.9744693040847778,0.8406592011451721,1.8036296367645264,0.28844180703163147,-2.018394947052002,-0.34114494919776917,0.4941211938858032,0.1865902990102768,0.61404949426651,-0.2946075201034546,0.06547082960605621,-0.048249904066324234,0.22175537049770355,-0.76982182264328,0.16772983968257904,-0.009524423629045486,1.3107616901397705,-1.2739191055297852,-0.007850476540625095,0.6097308993339539,1.2032796144485474,0.19441083073616028,1.2137165069580078,0.12141740322113037,-2.8488423824310303,-0.6945821046829224,0.3692559003829956,-0.09818100929260254,0.6807205677032471,-0.5488277077674866,-0.023569634184241295,-0.06729717552661896,0.37580251693725586,-0.9234514832496643,-1.1317009925842285,-0.06120719760656357,1.6119215488433838,-1.1820080280303955,-0.36152204871177673,0.6047419905662537,1.7839531898498535,0.618038535118103,1.8142412900924683,0.20245426893234253,-1.9456124305725098,-0.40011119842529297,0.43542787432670593,0.0776190385222435,0.8239213228225708,-0.6501764059066772,-0.3606105446815491,0.4245298504829407,0.7063669562339783,-0.9391889572143555,-0.35361653566360474,-0.5815243124961853,0.9720739126205444,-0.6077967286109924,-0.8567458987236023,0.2096836268901825,1.2403509616851807,0.35281649231910706,1.6470600366592407,0.49985039234161377,-0.7206558585166931,-0.6157512664794922,0.6462976932525635,0.4261772930622101,0.48368799686431885,-0.3711438477039337,-0.29760265350341797,0.1666402518749237,0.23324045538902283,-0.29612967371940613,-0.1388239562511444,-0.060650091618299484,1.1404889822006226,-1.7563515901565552,-0.26579850912094116,0.8681110143661499,0.9185295104980469,0.14334458112716675,1.0626990795135498,0.25167885422706604,-1.99955153465271,-0.6658039093017578,0.363773912191391,0.16505858302116394,0.7819837927818298,-0.6800210475921631,-0.3747459352016449,0.35647499561309814,0.8288671970367432,-0.8200539350509644,-0.5813037753105164,-0.5986093878746033,0.849321722984314,-0.7370388507843018,-0.7220376133918762,0.32199472188949585,0.9744380712509155,0.545263946056366,1.0656577348709106,0.5889612436294556,-0.7744013667106628,-0.7456157803535461,0.7478243708610535,0.5670586228370667,0.7308922410011292,-0.7596971988677979,-0.40604451298713684,0.4514373540878296,0.806171178817749,-1.0580589771270752,-0.5488742589950562,-0.6047380566596985,1.2139918804168701,-0.6195536255836487,-0.8243892192840576,0.32683229446411133,1.3995760679244995,0.47745630145072937,1.6835967302322388,0.6428946256637573,-0.9130116701126099,-0.6405173540115356,0.7452405095100403,0.4466250538825989,0.7637532353401184,-0.6017017364501953,-0.2470695674419403,-0.09408518671989441,0.48325297236442566,-0.9401217103004456,0.45568814873695374,-0.2646067142486572,1.29896080493927,-0.20535875856876373,-0.07105931639671326,0.045747630298137665,1.3093798160552979,-0.060407668352127075,1.9678539037704468,0.36670541763305664,-0.7381144165992737,-0.4791337847709656,0.5088154673576355,-0.4474889636039734]},"updateGateBias":{"rows":20,"columns":1,"weights":[0,0,0,0,0,0,0,0,0,0,0,0,0,0,0,0,0,0,0,0]},"resetGateInputMatrix":{"rows":20,"columns":1,"weights":[0.36944955587387085,1.0438612699508667,0.1426016390323639,0.07788001745939255,0.5517882108688354,0.21195586025714874,0.04702107235789299,0.6593826413154602,-1.563709020614624,-0.2339477241039276,0.16333265602588654,-0.39369630813598633,-2.248577356338501,-0.033536914736032486,-4.325455665588379,0.18094852566719055,-1.6537879705429077,0.015611951239407063,0.8529297113418579,0.3799101412296295]},"resetGateHiddenMatrix":{"rows":20,"columns":20,"weights":[0.3027588427066803,-0.29312974214553833,-0.31451350450515747,0.3180203437805176,0.27888038754463196,-0.311772882938385,-0.6528792381286621,-0.19808533787727356,0.9908260107040405,0.16664887964725494,-0.6561813354492188,-0.012522619217634201,1.5062241554260254,0.6546786427497864,1.7500495910644531,0.0713295117020607,-0.09218056499958038,0.10401473194360733,0.30182361602783203,0.35294729471206665,-0.9859275817871094,1.7578151226043701,-0.049955934286117554,-0.12255324423313141,-2.059112310409546,0.5517310500144958,-0.6164104342460632,1.2347023487091064,-0.39818206429481506,-0.042759448289871216,0.281181275844574,-0.40248191356658936,0.0049165524542331696,-0.757351815700531,-0.6184638738632202,-1.539048671722412,-0.10972688347101212,0.9189085960388184,-1.6578335762023926,0.07056660205125809,0.5982012152671814,-0.43136847019195557,-0.006696728523820639,0.07259389013051987,0.19620174169540405,-0.7424618601799011,0.7931612730026245,-0.0350131131708622,0.8223417401313782,-0.2509276270866394,0.22670353949069977,0.14364872872829437,0.7032430171966553,-0.47997698187828064,1.126218557357788,0.08635012060403824,-0.5015344023704529,-0.465664803981781,0.30601802468299866,0.02637755125761032,0.5230462551116943,-0.4514620900154114,-0.1054731085896492,0.02329055219888687,0.384643018245697,-0.6334141492843628,0.760341227054596,-0.06578607857227325,0.3776487708091736,-0.2358214557170868,0.156694695353508,0.1229826807975769,0.33568075299263,-0.3704489469528198,0.7272404432296753,0.2278716266155243,-0.3755572736263275,-0.3844495415687561,0.45157116651535034,-0.1363876461982727,0.13747933506965637,-0.21457037329673767,-0.3553907871246338,0.483028769493103,-0.058058954775333405,-0.1267789602279663,-0.3439067602157593,-0.18728980422019958,-0.02790275774896145,0.13970138132572174,-0.4880114495754242,0.07583174854516983,0.028420059010386467,-0.14307837188243866,-0.07083180546760559,0.014673462137579918,0.32661354541778564,0.03380546718835831,0.175582617521286,0.45852750539779663,-0.12309122085571289,0.12828612327575684,-0.21215081214904785,0.17444773018360138,-0.0855993703007698,-0.008925902657210827,-0.5580288171768188,0.0514945313334465,0.6943347454071045,0.00997711531817913,-0.4275009334087372,-0.00461659487336874,1.6564961671829224,0.7713884115219116,2.1776833534240723,-0.24239088594913483,-0.1423468440771103,0.49351170659065247,0.03075641579926014,0.1867981255054474,0.44375136494636536,-0.437894731760025,0.36500412225723267,-0.4005284905433655,0.3199804425239563,-0.5688649415969849,0.05955199897289276,-0.23272918164730072,1.616504430770874,-0.02016925998032093,-0.5588698983192444,-0.3482920229434967,1.717880368232727,-0.12004972249269485,2.6172709465026855,0.293677419424057,-0.8462197780609131,-0.16820289194583893,0.4978279769420624,-0.07992145419120789,-0.4022708237171173,0.6697779893875122,-0.2678583562374115,0.03922830522060394,-1.1615207195281982,0.24227836728096008,1.0130391120910645,0.9366118907928467,0.12921351194381714,0.5598158836364746,0.9493836164474487,-0.6158341765403748,0.32837924361228943,-1.0561039447784424,0.20647136867046356,-0.9939852356910706,0.147832989692688,0.5364183187484741,-0.7212507128715515,-0.2424456775188446,2.4572553634643555,-3.074219226837158,0.024039745330810547,0.7850062251091003,3.3519821166992188,-1.7289109230041504,2.255774736404419,-2.047804594039917,0.34868332743644714,-0.4839693307876587,-0.46072909235954285,0.12804323434829712,-1.1733644008636475,-0.2054382860660553,-0.15260379016399384,2.579136848449707,-0.8356177806854248,-2.67779803276062,2.722796678543091,-0.0858674868941307,0.9966530799865723,-0.607016384601593,-0.6853361129760742,0.5441074371337891,1.1220290660858154,-0.28665900230407715,-1.6854262351989746,-1.417373538017273,0.5835695266723633,-4.12954044342041,-1.664737582206726,1.6840204000473022,0.0981515645980835,1.6908208131790161,1.468599796295166,1.1738156080245972,-2.974839448928833,-2.6179184913635254,0.9878482818603516,0.25748831033706665,0.6439560055732727,-0.3166486322879791,0.1304045468568802,-0.17952118813991547,-0.03806014358997345,-0.835871160030365,0.7924572825431824,0.2854640781879425,0.9328737258911133,-0.25546783208847046,0.8510937094688416,0.059042658656835556,0.6351857781410217,-0.6837046146392822,1.1920503377914429,-0.10183494538068771,-0.7019506096839905,-0.4877118468284607,0.21758712828159332,-0.18568313121795654,0.3432495594024658,-0.15689478814601898,-0.0912356972694397,-0.10668566823005676,1.041568398475647,-0.2925827205181122,-0.9122051000595093,-0.523194432258606,0.25081929564476013,-2.7843213081359863,-0.3778561055660248,2.326287031173706,-0.16180621087551117,1.4058201313018799,0.45661407709121704,0.7423316836357117,-0.7000900506973267,-0.7753299474716187,0.4272306263446808,-0.01393816526979208,3.1676886081695557,-2.8774170875549316,0.3676728308200836,-0.28906574845314026,2.444377899169922,-2.878288507461548,1.7887279987335205,-1.1306291818618774,0.794211208820343,0.1496540904045105,1.1635431051254272,-0.127241849899292,-0.09812586009502411,0.6193755865097046,0.7166664004325867,2.302757501602173,-0.5645337700843811,-1.3201559782028198,2.5027999877929688,-0.7582650184631348,-0.2605506181716919,0.05521148070693016,-0.023121725767850876,-0.09122446924448013,-0.15486977994441986,0.11190501600503922,0.19429408013820648,-0.05313115194439888,-0.30169007182121277,0.9542336463928223,0.00122501899022609,-0.3637067377567291,-0.10646377503871918,-0.3567473888397217,-0.154478520154953,-0.12237048894166946,0.9176339507102966,0.3045095205307007,0.02824285626411438,-0.024425484240055084,4.861017227172852,-3.5006377696990967,0.03406447917222977,-0.5965349078178406,1.639794945716858,-4.024198532104492,3.7812392711639404,-1.5350778102874756,2.2000858783721924,-1.5668407678604126,1.2341217994689941,-0.4006541669368744,0.5570185780525208,0.9230853915214539,2.5837032794952393,1.8878178596496582,-1.6365337371826172,-1.3696835041046143,2.9941253662109375,-1.4084798097610474,0.3098244369029999,-0.4064081907272339,-0.3493853211402893,0.5830520987510681,0.21124108135700226,-0.34596407413482666,-0.3574698865413666,-0.3035705089569092,-0.1297013908624649,-0.11035706102848053,-0.48571062088012695,0.008846680633723736,-0.2584950923919678,-0.07927029579877853,-0.18307587504386902,0.22950808703899384,-0.002640032209455967,-0.35436883568763733,0.26408281922340393,0.41866758465766907,2.4326541423797607,-3.0029590129852295,0.8817950487136841,-0.07902306318283081,2.397212028503418,-1.3088457584381104,3.584278106689453,-1.9413187503814697,0.6920145750045776,-2.486191749572754,-0.2255566418170929,-0.0317547433078289,-0.43474045395851135,-1.446658730506897,1.361779808998108,1.942943811416626,0.29825282096862793,-2.5348806381225586,2.5241079330444336,-0.7097081542015076,0.6638008952140808,-0.539070188999176,-0.08912373334169388,0.4136829078197479,1.0567104816436768,-0.3560362160205841,-0.6453579664230347,-0.7283819913864136,-0.06353668868541718,-1.7715128660202026,-0.9131951332092285,0.4310038387775421,-0.8472658395767212,0.23015260696411133,-0.8006504774093628,0.8118374347686768,-1.1881122589111328,-1.3279035091400146,0.5323412418365479,0.18343782424926758,-0.7231915593147278,1.1534733772277832,-0.1555386781692505,-0.033837947994470596,-1.514758825302124,0.23222415149211884,-0.4500841200351715,0.9528734087944031,-0.16542527079582214,-0.09417150914669037,0.21701692044734955,-0.15946203470230103,0.09676559269428253,-0.6381336450576782,-0.3876718580722809,-1.1569361686706543,-0.1750716269016266,0.6150636076927185,-1.0702450275421143,0.18116173148155212,0.8157541155815125,-0.5620993375778198,0.2669374346733093,-0.3256870210170746,0.38319680094718933,-0.9263069033622742,1.1497201919555664,0.06974313408136368,0.986328661441803,-0.3649248480796814,0.4815526306629181,0.08679397404193878,0.8929792642593384,-0.6907967925071716,1.1615469455718994,0.11634252965450287,-0.8118872046470642,-0.6042065620422363,0.3960651159286499,-0.4192837178707123]},"resetGateBias":{"rows":20,"columns":1,"weights":[0,0,0,0,0,0,0,0,0,0,0,0,0,0,0,0,0,0,0,0]},"cellWriteInputMatrix":{"rows":20,"columns":1,"weights":[0.15996767580509186,-0.12262400984764099,-0.34040355682373047,0.37125536799430847,0.18701691925525665,-0.08945219963788986,-0.2979022264480591,-0.27182549238204956,0.027780724689364433,-0.9691269993782043,-0.187884122133255,0.4426809251308441,0.009709141217172146,0.2827087938785553,-0.019145745784044266,0.3014386296272278,-0.593466579914093,-0.3548884391784668,0.14541524648666382,0.36767059564590454]},"cellWriteHiddenMatrix":{"rows":20,"columns":20,"weights":[-0.2993898391723633,-0.4450148642063141,-0.5349918603897095,0.340796560049057,0.15826024115085602,0.18921537697315216,-0.3635720908641815,-0.29004496335983276,-2.292071580886841,0.0810946449637413,-0.8678296208381653,-0.02623416669666767,-1.6412806510925293,0.204252228140831,-1.4923559427261353,0.08165153861045837,1.3190380334854126,0.14035603404045105,0.3318048417568207,0.35825660824775696,0.17199531197547913,0.3340400457382202,0.24506635963916779,-0.23040524125099182,-0.06570219993591309,-0.10729637742042542,0.7243281006813049,0.17489637434482574,2.4904391765594482,-0.16213759779930115,0.615195631980896,0.03181645646691322,2.3459274768829346,-0.10405431687831879,1.9002875089645386,-0.0314381867647171,-1.4412949085235596,-0.16123232245445251,-0.13966621458530426,-0.3851672112941742,1.1400957107543945,-0.23943160474300385,0.35701677203178406,0.28841909766197205,0.9385446310043335,-1.15172278881073,0.01316758431494236,-0.24506215751171112,2.882948637008667,-0.6355893611907959,-0.2877216339111328,0.6777427196502686,3.1540274620056152,-0.09463357925415039,2.756092071533203,0.5169065594673157,-0.9154514074325562,-0.9472779631614685,0.3278670907020569,0.12985998392105103,-1.0189732313156128,0.10741952806711197,-0.41963991522789,-0.08894908428192139,-0.8463574647903442,1.1758332252502441,0.6141990423202515,-0.28650709986686707,-4.07391881942749,1.020837426185608,0.48046115040779114,-1.1139557361602783,-3.9022023677825928,-0.27819034457206726,-2.9459238052368164,-0.6706592440605164,2.110764265060425,0.786559522151947,-0.22705645859241486,-0.3188876509666443,-0.37158727645874023,-0.42742305994033813,-0.35486048460006714,0.15374605357646942,0.0013472503051161766,0.28440919518470764,-0.23263192176818848,-0.29394179582595825,-2.616389036178589,0.40534526109695435,-0.7032040357589722,-0.5125799179077148,-2.20065975189209,-0.10999198257923126,-1.970780372619629,-0.047708459198474884,1.8446674346923828,0.3270905017852783,0.20704615116119385,0.21661622822284698,0.3325319290161133,0.2475389838218689,0.2936929166316986,-0.2940496504306793,-0.17092831432819366,-0.38119828701019287,0.5411946177482605,0.10616268962621689,2.1789400577545166,0.06823395192623138,0.5122004747390747,-0.333710640668869,1.947596788406372,-0.09712180495262146,1.6228713989257812,0.022613801062107086,-0.9025636911392212,-0.24849574267864227,-0.2600843012332916,-0.28458231687545776,0.4285702109336853,0.23213373124599457,0.25798162817955017,-0.1624697893857956,0.14838549494743347,-0.6803314089775085,-2.188427686691284,0.2991337180137634,3.7978227138519287,-1.7619247436523438,-0.10548809915781021,0.6357973217964172,3.882441520690918,0.6666666865348816,3.7051146030426025,0.13003526628017426,-4.0581746101379395,-0.7066785097122192,-0.12763898074626923,-0.08620689809322357,0.2212851196527481,0.5563585162162781,0.1395246535539627,0.15892469882965088,0.5493762493133545,-0.38229334354400635,0.23080043494701385,0.22929926216602325,3.7358012199401855,-0.6654788255691528,0.4184437096118927,1.477730631828308,2.468151569366455,-0.03138704225420952,2.1202785968780518,0.49316614866256714,-2.0956907272338867,-0.6872333884239197,-0.24137204885482788,-0.15584291517734528,0.04223525524139404,-0.12209746241569519,-0.05961140617728233,0.16377176344394684,0.16288888454437256,-0.15477807819843292,-0.1802232712507248,-0.003619181690737605,-1.3563376665115356,-0.05419323965907097,-0.2695675194263458,0.10396642237901688,-1.0395641326904297,-0.24772752821445465,-0.8384921550750732,0.08297105133533478,0.48702794313430786,-0.006884078029543161,0.14436013996601105,0.09563370794057846,-1.4579840898513794,0.6061977744102478,0.7086071372032166,-0.27273353934288025,-0.19543714821338654,2.4090936183929443,1.4060536623001099,0.03239203244447708,0.9871459603309631,-3.2806451320648193,0.6962607502937317,2.273843288421631,0.4305931329727173,0.38419339060783386,2.6004440784454346,-0.17632241547107697,-1.3620023727416992,-0.02038007602095604,-0.5734676718711853,-0.23661300539970398,0.6480541229248047,0.2757664620876312,-0.03611617162823677,0.16411060094833374,0.3723210394382477,-0.8728621602058411,0.2213447540998459,0.13520678877830505,2.9146580696105957,-0.8525304198265076,-0.14080417156219482,1.2306381464004517,2.714132785797119,0.22407236695289612,2.356414794921875,0.4582805335521698,-2.01407527923584,-0.963567316532135,-0.13973507285118103,0.06307630240917206,1.107474684715271,-0.23959213495254517,0.10248617827892303,-0.7381659150123596,-0.9418792724609375,-4.5628581047058105,-0.8395415544509888,0.4885149598121643,-4.539249420166016,0.4978889524936676,-0.991879403591156,-3.2278361320495605,-2.9018847942352295,-0.8109920024871826,-1.9662333726882935,-0.3859768509864807,1.3447210788726807,0.10359736531972885,0.2830445170402527,-0.07117819786071777,0.15553517639636993,-0.2074313461780548,-0.22886231541633606,0.15224318206310272,0.32816797494888306,-0.45256614685058594,-0.009537947364151478,-0.12176870554685593,-0.1674114316701889,0.08412615209817886,-0.252538800239563,-0.1320486217737198,-0.18274249136447906,-0.06892558932304382,-0.19027942419052124,0.1383957415819168,0.11354367434978485,-0.03804760426282883,0.3000931441783905,0.1423010379076004,-0.4300103783607483,-0.5710069537162781,0.026146287098526955,-0.2240608036518097,-1.5046027898788452,1.054039716720581,0.8903095126152039,-0.2989346385002136,-4.8099517822265625,0.752149760723114,-0.375337690114975,-1.7608528137207031,-2.318490505218506,-1.4018943309783936,-1.45335054397583,-0.6238383650779724,2.462688446044922,0.623807430267334,0.40632396936416626,-0.3437254726886749,0.4467773139476776,-0.2604345679283142,-0.17777204513549805,0.14628015458583832,0.2969859540462494,-0.8873778581619263,0.18014134466648102,-0.18600299954414368,0.2935316562652588,0.18161915242671967,-0.27996590733528137,-0.37736761569976807,0.20399874448776245,-0.08896661549806595,-0.031227802857756615,0.1963420808315277,0.012444921769201756,-0.16113975644111633,0.2890792489051819,0.05724610388278961,-0.4760911762714386,-0.6333540081977844,-0.6487600803375244,0.2439945936203003,-0.10171780735254288,0.3194955289363861,-0.07255950570106506,-0.3361140787601471,-3.4225451946258545,0.5177077651023865,-1.0591260194778442,-0.957729160785675,-2.168499708175659,0.17091630399227142,-2.1475560665130615,-0.176245778799057,2.113576889038086,0.6168755292892456,0.5327200293540955,0.44966769218444824,-0.47872138023376465,0.6448365449905396,0.5251488089561462,-0.18371668457984924,-0.09096189588308334,1.1040743589401245,0.4579543471336365,0.09994000941514969,1.4474742412567139,-0.5137578845024109,0.3337312936782837,1.1842403411865234,-0.281912624835968,0.037302833050489426,2.041635274887085,-0.03639867156744003,-0.4610527753829956,-0.0034800043795257807,-0.49892106652259827,-0.29412373900413513,0.06206441670656204,0.809083104133606,0.8551994562149048,-0.32754477858543396,-0.031124504283070564,1.357862114906311,0.42869919538497925,0.2575785219669342,2.6244256496429443,-0.3761614263057709,1.3103461265563965,0.15138107538223267,1.918220043182373,-0.332480788230896,1.7130582332611084,0.1135931983590126,-1.149239182472229,-0.29925960302352905,-0.6958232522010803,-0.38443925976753235,-0.18676519393920898,-0.36212587356567383,-0.337686687707901,0.21476194262504578,0.16698963940143585,0.08282395452260971,-0.5246613621711731,-0.12915882468223572,-2.6948089599609375,0.19276162981987,-0.6905308961868286,-0.2098625898361206,-2.4217071533203125,0.17241770029067993,-1.781385064125061,0.011769776232540607,1.3415005207061768,0.2643616497516632,0.20295491814613342,0.34026461839675903,-0.707176923751831,-0.15871396660804749,0.5409090518951416,-0.15892474353313446,-1.263553261756897,0.9390514492988586,1.1300667524337769,-0.38417237997055054,-4.824934959411621,1.3955808877944946,1.0200401544570923,-1.442304253578186,-4.879435062408447,-0.7599308490753174,-2.6371843814849854,-0.9288985729217529,2.942317485809326,1.0546233654022217,-0.18252858519554138,-0.44974425435066223]},"cellWriteBias":{"rows":20,"columns":1,"weights":[-2.451540231704712,-1.486301302909851,-0.21158286929130554,1.648827075958252,1.6624035835266113,2.9182045459747314,3.0277538299560547,-1.7448254823684692,2.3620829582214355,-0.4528250992298126,1.745007872581482,2.07829213142395,2.219189167022705,1.7046979665756226,2.554478883743286,1.3981893062591553,0.6576290726661682,0.9634755253791809,1.3679945468902588,0.5527084469795227]}}],"outputConnector":{"rows":1,"columns":20,"weights":[0.17190822958946228,-0.4730026125907898,-0.303261935710907,0.33471429347991943,0.49834704399108887,-0.17945411801338196,-0.37382620573043823,-0.5381983518600464,0.3225555121898651,-0.19845446944236755,-0.4051652252674103,0.27119359374046326,0.25461140275001526,0.49788016080856323,0.24248747527599335,0.4452712833881378,-0.2103596180677414,-0.1811036467552185,0.46303313970565796,0.5716102123260498]},"output":{"rows":1,"columns":1,"weights":[0.6651874780654907]},"inputLookup":null,"inputLookupLength":0,"outputLookup":null,"outputLookupLength":0}