{"type":"GRUTimeStep","options":{"inputSize":1,"inputRange":0,"hiddenLayers":[20],"outputSize":1,"decayRate":0.999,"smoothEps":1e-8,"regc":0.000001,"clipval":5,"maxPredictionLength":100,"dataFormatter":{"indexTable":{},"characterTable":{},"characters":[],"specialIndexes":[]}},"hiddenLayers":[{"updateGateInputMatrix":{"rows":20,"columns":1,"weights":[0.6892814636230469,0.878842294216156,0.5736504197120667,0.7234004139900208,0.686355710029602,0.6786556243896484,0.6497536897659302,0.49057087302207947,0.8335642218589783,0.5599996447563171,0.7181209921836853,0.6008056998252869,0.6347059607505798,0.6290836930274963,1.4183348417282104,0.7596783638000488,0.6918181777000427,0.7973074913024902,0.5282145738601685,0.439557820558548]},"updateGateHiddenMatrix":{"rows":20,"columns":20,"weights":[0.5783589482307434,1.8541876077651978,-0.634575366973877,-0.8423124551773071,0.8219630122184753,0.8396966457366943,-1.3885526657104492,0.5162534117698669,-1.0735864639282227,-0.6387864947319031,0.6517515778541565,0.7106075882911682,-0.7150489091873169,0.7970042824745178,0.6457886695861816,-0.9908798336982727,0.571782112121582,-0.9128376245498657,-0.5165926814079285,-0.2599814236164093,0.4994521737098694,0.3973161280155182,-0.5377261638641357,-1.0788661241531372,0.19499452412128448,0.5771001577377319,-0.6039776802062988,0.5978720188140869,-1.173080563545227,-0.529182493686676,0.37328797578811646,0.5035514235496521,-0.5208956599235535,0.4185347557067871,0.13847333192825317,-0.4714343845844269,0.516438364982605,-0.7416975498199463,-0.5661834478378296,-0.3813381791114807,0.7984442710876465,1.042686939239502,-0.7928842306137085,-0.9807592630386353,0.5861073732376099,0.8953302502632141,-0.9733277559280396,0.791958212852478,-1.2866907119750977,-0.6699115037918091,0.5483272671699524,0.8362629413604736,-0.7370366454124451,0.736423134803772,0.623580813407898,-1.1655274629592896,0.7011440396308899,-0.8940985798835754,-0.7459930181503296,-0.3328143358230591,0.3561818599700928,0.7869681119918823,-0.516898512840271,-1.3247560262680054,0.8390464186668396,0.6219304800033569,-1.0165314674377441,0.4390465021133423,-1.2940531969070435,-0.44122549891471863,1.0660127401351929,0.6150749325752258,-0.49570074677467346,0.9462049603462219,0.3245033025741577,-1.169296145439148,0.39103591442108154,-1.1306867599487305,-0.3859535753726959,-0.5459122657775879,0.7514366507530212,1.0888950824737549,-0.7247277498245239,-1.2263611555099487,0.7113040685653687,0.8457643389701843,-0.8316742777824402,0.6895337104797363,-1.4396963119506836,-0.6499773859977722,0.6838238835334778,0.7611440420150757,-0.7023993134498596,0.6922045946121216,0.3387291133403778,-0.8947988152503967,0.7140758037567139,-0.8589721322059631,-0.6203370690345764,-0.615178108215332,0.6026236414909363,1.047171950340271,-0.6488996744155884,-0.9822362065315247,0.6335688233375549,0.7773371338844299,-1.0133711099624634,0.7330372333526611,-1.1854538917541504,-0.6920707821846008,0.44878077507019043,0.7633911967277527,-0.7545064091682434,0.6213558316230774,0.6410293579101562,-0.9130629301071167,0.720557451248169,-0.9246171712875366,-0.7437765598297119,-0.3203195333480835,0.5464109182357788,0.9053404331207275,-0.7144222855567932,-1.0069243907928467,0.7299367189407349,0.6862151622772217,-0.8682467937469482,0.7138722538948059,-1.0743765830993652,-0.655207097530365,0.761863648891449,0.5748387575149536,-0.6327295899391174,0.7891210317611694,0.22790852189064026,-0.7277904152870178,0.7393958568572998,-0.8929109573364258,-0.590612530708313,-0.8368080258369446,0.8041507005691528,0.8105450868606567,-0.7359983325004578,-0.9002447128295898,0.6928074359893799,0.774507999420166,-1.0304059982299805,0.7987608909606934,-1.0865795612335205,-0.6948446035385132,0.6102975010871887,0.8925996422767639,-0.8124346733093262,0.8305913805961609,0.5526093244552612,-0.9437956213951111,0.6964992880821228,-0.8514561057090759,-0.6334193348884583,-0.21442030370235443,0.43249934911727905,0.7215906977653503,-0.5263329744338989,-1.2006022930145264,0.8396531939506531,0.6542927622795105,-0.8839775919914246,0.5594199299812317,-1.1602659225463867,-0.5572325587272644,0.9876328706741333,0.508610188961029,-0.47714462876319885,0.9658610820770264,0.35833752155303955,-0.8429378271102905,0.5168415904045105,-1.105918049812317,-0.5743597149848938,-0.670403778553009,0.6762363314628601,1.2914159297943115,-0.7458301186561584,-0.9736064076423645,0.741125226020813,0.8376544713973999,-1.315301537513733,0.703991174697876,-1.355673909187317,-0.7172222137451172,0.4894298315048218,0.7117293477058411,-0.7849827408790588,0.6996617913246155,0.7123330235481262,-0.9381623268127441,0.7424483895301819,-0.9601185321807861,-0.61650151014328,-0.20166310667991638,0.6403166055679321,0.9188901782035828,-0.680634081363678,-1.2892544269561768,0.6457191109657288,0.7168482542037964,-0.7911840677261353,0.6286454200744629,-1.3939629793167114,-0.6261353492736816,0.6303974986076355,0.6732192039489746,-0.7671374082565308,0.6746152639389038,0.3689400255680084,-0.9240434169769287,0.6065546274185181,-0.9375832676887512,-0.7455400228500366,-0.4579978883266449,0.7641056180000305,1.0886207818984985,-0.6542596220970154,-0.9800563454627991,0.6807840466499329,0.7827242016792297,-1.1685895919799805,0.7253263592720032,-1.16585373878479,-0.6421673893928528,0.6389017105102539,0.839398980140686,-0.7875770330429077,0.6648916006088257,0.6115673780441284,-1.0442222356796265,0.692073404788971,-0.897412121295929,-0.6074861884117126,-0.3298672139644623,0.6921836733818054,1.433696985244751,-0.6551629900932312,-0.9773861765861511,0.6370474696159363,0.9082415699958801,-1.1697945594787598,0.7719454765319824,-1.2621753215789795,-0.7212587594985962,0.40780937671661377,0.8034412264823914,-0.7921297550201416,0.6185906529426575,0.655232846736908,-0.9096852540969849,0.6759613156318665,-0.8206990957260132,-0.6893160939216614,-0.3503479063510895,0.6422556638717651,1.0476139783859253,-0.7073709964752197,-1.1289361715316772,0.7279440760612488,0.5539562702178955,-0.9330084919929504,0.501514732837677,-1.3548294305801392,-0.6658793687820435,0.6884812712669373,0.6812976598739624,-0.6440573334693909,0.7811108827590942,0.1617860645055771,-0.7980793118476868,0.639624297618866,-0.878535270690918,-0.48555999994277954,-0.7044613361358643,0.3089978098869324,0.3053564131259918,-0.5113608837127686,-0.9395127296447754,0.6357654929161072,0.5974937677383423,0.100862517952919,0.2417595237493515,-0.8211842179298401,-0.2864992320537567,0.4364733099937439,0.3673749566078186,-0.49562710523605347,-0.046197161078453064,-0.43056175112724304,-0.6945422887802124,0.3339950144290924,-0.6270549893379211,-0.3825957179069519,0.01959056220948696,0.49661821126937866,0.21963602304458618,-0.6939549446105957,-1.1078474521636963,0.352653443813324,0.5293357372283936,-0.4301815927028656,0.8037746548652649,-1.1608388423919678,-0.6791850328445435,0.35411426424980164,0.7017293572425842,-0.6142119765281677,0.5720202326774597,0.28205952048301697,-0.4440596103668213,0.6291667819023132,-0.8403492569923401,-0.8081434369087219,-0.6286823153495789,0.8177661299705505,1.973854660987854,-0.802192747592926,-0.9021658897399902,0.8508181571960449,0.8666043877601624,-1.1153925657272339,0.7085818648338318,-1.085767388343811,-0.7357193231582642,0.6817503571510315,0.7930631041526794,-0.8304304480552673,0.5660878419876099,0.3308713138103485,-1.0448942184448242,0.8456740379333496,-0.8541738986968994,-0.6932615041732788,-0.39684686064720154,0.2736373245716095,1.033607840538025,-0.5255339741706848,-1.189087986946106,0.7073228359222412,0.5050479173660278,-1.1636420488357544,0.40387529134750366,-1.1918673515319824,-0.4389774203300476,0.6992923617362976,0.39149361848831177,-0.34992530941963196,0.692051351070404,0.24535563588142395,-0.7779138088226318,0.4118989109992981,-0.8730306029319763,-0.46111369132995605,-0.6075819134712219,0.7806503772735596,0.8106128573417664,-0.5968904495239258,-0.9279502630233765,0.7132392525672913,0.8715782165527344,-1.0587177276611328,0.7716226577758789,-1.3154942989349365,-0.663693904876709,0.481943279504776,0.7719945311546326,-0.7286273837089539,0.6565283536911011,0.6320214867591858,-0.9397308826446533,0.741042971611023,-1.0161863565444946,-0.6375076174736023,-0.23313704133033752,0.9466654658317566,2.0454516410827637,-0.4437248408794403,-0.8338816165924072,1.0843780040740967,0.5538743138313293,-1.3647581338882446,0.576968252658844,-1.1152658462524414,-0.613024115562439,1.0183271169662476,0.6617061495780945,-0.5038123726844788,0.8754638433456421,-0.06367227435112,-1.214794397354126,0.5460439920425415,-1.2302618026733398,-0.5772823691368103,-0.5314998030662537]},"updateGateBias":{"rows":20,"columns":1,"weights":[0,0,0,0,0,0,0,0,0,0,0,0,0,0,0,0,0,0,0,0]},"resetGateInputMatrix":{"rows":20,"columns":1,"weights":[0.36255380511283875,0.13562607765197754,0.5730288624763489,-1.5496770143508911,0.04276986047625542,0.5284984111785889,-0.12961333990097046,0.06886739283800125,-2.4559168815612793,0.27333757281303406,-0.46953263878822327,0.4868718981742859,0.38979998230934143,0.19957076013088226,0.11192382127046585,-0.7658806443214417,0.11181753873825073,0.20089344680309296,0.06844093650579453,0.29890596866607666]},"resetGateHiddenMatrix":{"rows":20,"columns":20,"weights":[0.4382000267505646,0.4877016842365265,-0.2634252905845642,0.6290158629417419,0.5634527802467346,0.1551833599805832,-0.6873244643211365,0.42975208163261414,0.9165542125701904,-0.5086649656295776,0.34921449422836304,0.4515303373336792,-0.09227527678012848,0.8305673003196716,0.23828019201755524,-0.20072144269943237,0.7427517771720886,-0.1960258036851883,-0.40511763095855713,-0.7566636204719543,-0.08710546791553497,-0.4991106390953064,0.021609053015708923,0.11505734175443649,-0.39090317487716675,-0.039146725088357925,0.3794313073158264,0.023976095020771027,0.1862596571445465,0.07027830928564072,-0.5956777334213257,-0.11964745819568634,-0.0005516813253052533,-0.5034648776054382,0.09269309788942337,0.3250572681427002,-0.08083420991897583,0.2885708808898926,-0.05419832095503807,0.2930871844291687,0.021267006173729897,-0.7218979597091675,-0.35571572184562683,-0.07921271026134491,-0.05127499997615814,0.3482419550418854,-0.21621347963809967,0.4091701805591583,-0.10139293968677521,-0.13866838812828064,-0.16398662328720093,0.31629833579063416,-0.246212899684906,0.1867610663175583,0.9502794146537781,0.0017607311019673944,0.45213818550109863,0.006357306614518166,-0.24230249226093292,-0.35535407066345215,0.4897778332233429,0.4485147297382355,-0.3349415957927704,-0.10528106242418289,0.35214513540267944,0.3983144462108612,-0.3386770486831665,-0.23381337523460388,-0.3577641546726227,-0.3901289105415344,0.3808876872062683,0.3262624740600586,-0.4120730757713318,0.02106267213821411,-0.9149354100227356,-0.5107216835021973,0.05484599620103836,-0.17711693048477173,-0.3046751022338867,0.6535645723342896,-0.16761238873004913,-0.16392739117145538,0.25761157274246216,0.3039305806159973,-0.6811178922653198,-0.1589033603668213,0.39362624287605286,-0.23655931651592255,0.15173432230949402,0.30118247866630554,-0.7355269193649292,-0.16816915571689606,0.19669902324676514,-0.7290029525756836,-0.21179282665252686,0.2439965158700943,-0.44495537877082825,0.3072492778301239,0.28160586953163147,0.7253749370574951,0.08423881977796555,-0.4626508355140686,-0.3897256851196289,-0.2843068540096283,0.1749991476535797,0.4938819706439972,-0.3806135654449463,0.3277011215686798,-0.33074691891670227,-0.17412428557872772,0.08022099733352661,0.4132962226867676,-0.36842212080955505,0.24668017029762268,0.9717819690704346,-0.18342626094818115,0.4126383662223816,-0.2182973474264145,-0.26608458161354065,-0.14555391669273376,-0.12291376292705536,-0.01208939403295517,0.09662807732820511,0.1901436448097229,-0.12850238382816315,-0.007388535887002945,0.39989349246025085,-0.06637714803218842,0.23264414072036743,0.04357576370239258,-0.13360905647277832,-0.16409040987491608,-0.003174720797687769,-0.3897491693496704,-0.039754197001457214,0.17363888025283813,-0.07829016447067261,0.13209708034992218,0.12983308732509613,0.4502575397491455,0.2701985239982605,-0.1715393364429474,-0.41909706592559814,-0.2732129395008087,0.5543208718299866,0.35620632767677307,-0.9598624110221863,0.4163770079612732,-0.20655547082424164,-0.4269280731678009,0.37233278155326843,0.39431625604629517,-0.2940060794353485,0.9702083468437195,0.10785302519798279,-0.3924049139022827,0.38554421067237854,-0.6250591278076172,-0.29739511013031006,-0.8968088030815125,0.7842279076576233,1.6904654502868652,-1.236122965812683,-0.8181076049804688,-0.042993977665901184,1.271970510482788,-0.5917898416519165,0.27175822854042053,-1.1266803741455078,-1.0696083307266235,0.2963516116142273,1.4371788501739502,-1.245371699333191,-0.0013035826850682497,-0.5433722138404846,-1.0383844375610352,0.030220050364732742,-0.714454174041748,-0.8319231867790222,1.0377616882324219,0.6426391005516052,0.20189209282398224,-0.2890709936618805,0.3614729940891266,0.37614667415618896,0.3341560661792755,-0.7511214017868042,0.6443180441856384,0.6341243386268616,-0.5017211437225342,0.2740211486816406,0.5082538723945618,-0.28138673305511475,0.6725994944572449,0.46465152502059937,-0.15176841616630554,0.8496677875518799,-0.18693792819976807,-0.5289757251739502,-0.5351613759994507,-0.5837393999099731,-0.8116370439529419,0.3082325756549835,-0.13842354714870453,-0.6153469681739807,-0.29734501242637634,0.4343551993370056,-0.2703401446342468,-0.16070330142974854,0.19640929996967316,-0.634345531463623,-0.2206088751554489,0.4735214412212372,-0.5525598526000977,-0.9858673214912415,0.6898191571235657,-0.3050834834575653,0.3387279808521271,0.24777936935424805,0.28269314765930176,0.40684711933135986,-0.30972933769226074,-0.3857649564743042,0.6137561202049255,0.175420343875885,0.4538721740245819,-0.7638508081436157,0.8025497198104858,0.7149871587753296,-0.4538402259349823,0.03572334349155426,0.5971647500991821,-0.31317901611328125,0.571427047252655,0.4913703203201294,0.000170681465533562,0.8171483874320984,-0.11032886803150177,-0.5885621905326843,-0.7059823274612427,0.1406572461128235,-0.1876825988292694,-0.4088628590106964,-0.1960124969482422,0.1828428953886032,0.4748055338859558,-0.4002603590488434,0.3739773631095886,-0.2444627434015274,-0.27666616439819336,0.16896119713783264,0.2888753116130829,-0.27493607997894287,0.3377102017402649,0.647523045539856,-0.17344214022159576,0.5660189986228943,-0.09563563019037247,-0.30938956141471863,-0.3203371465206146,-0.4865158200263977,0.22028633952140808,0.46360257267951965,-0.01339353434741497,-0.5685838460922241,-0.27313557267189026,0.56339031457901,-0.49827805161476135,0.010676607489585876,0.42937278747558594,-0.3645271062850952,-0.34877023100852966,0.3227229416370392,-0.9121515154838562,-0.08335953205823898,0.3032452464103699,-0.4401244819164276,0.3146993815898895,0.36899009346961975,0.9093353152275085,0.5101289749145508,1.299162745475769,-0.535257875919342,-1.063991665840149,0.36799412965774536,0.7656967639923096,-0.27740368247032166,0.2592049837112427,-1.3519372940063477,-0.46320879459381104,0.39469942450523376,0.43432679772377014,-0.6859575510025024,0.30191922187805176,0.9385301470756531,-1.107393503189087,-0.04680363088846207,-0.7852843403816223,-0.2978368401527405,0.03049284964799881,0.035267505794763565,1.9028240442276,0.23762404918670654,-0.2840689718723297,0.6004584431648254,-0.2221064269542694,-0.9501221179962158,-0.47504401206970215,-0.3625553846359253,0.10404231399297714,0.7716237306594849,-0.2790929079055786,0.24560227990150452,0.3633825182914734,-0.4975758194923401,-0.7922319173812866,-0.28181228041648865,-0.5427427887916565,0.22598178684711456,0.3036802411079407,0.44791164994239807,-0.15419995784759521,-0.45532605051994324,0.4072420001029968,0.25327569246292114,0.513521671295166,0.050721973180770874,0.804413914680481,0.48162317276000977,-0.662024736404419,0.08392851799726486,0.7122151851654053,-0.426939457654953,0.2781420052051544,-0.027583854272961617,0.22213733196258545,0.6419994831085205,0.43018341064453125,-0.6728314161300659,-0.4186862111091614,-0.18427281081676483,0.009905067272484303,0.10381460189819336,0.2492879033088684,-0.4830075204372406,-0.12527364492416382,0.2601073980331421,-0.29270073771476746,0.28510943055152893,0.23309724032878876,-0.4211881756782532,-0.2182406187057495,0.09401987493038177,-0.5296961069107056,-0.10067729651927948,0.47735562920570374,-0.15626338124275208,0.45603054761886597,0.23922602832317352,0.6262701153755188,0.4657871425151825,0.5407868027687073,-0.181997150182724,-0.07552414387464523,0.9449427723884583,0.3177926540374756,-1.5306811332702637,0.45243266224861145,0.028817765414714813,-0.24255070090293884,0.8178701400756836,0.3433907628059387,-0.21352244913578033,1.0757346153259277,0.26873984932899475,-0.7958246469497681,0.4537002444267273,-0.8129994869232178,-0.439047247171402,-0.9577528238296509,-0.5892700552940369,0.05614449083805084,0.24510960280895233,-0.3426748812198639,-0.726017415523529,-0.25314438343048096,0.9002334475517273,-0.446042537689209,-0.4403638541698456,0.5382500886917114,-0.5155454874038696,-0.45970258116722107,0.2515873312950134,-0.9790515899658203,-0.014734968543052673,0.11872892081737518,-0.6062510013580322,0.2973681390285492,0.4526022970676422,0.922264575958252]},"resetGateBias":{"rows":20,"columns":1,"weights":[0,0,0,0,0,0,0,0,0,0,0,0,0,0,0,0,0,0,0,0]},"cellWriteInputMatrix":{"rows":20,"columns":1,"weights":[0.4074040353298187,0.0710974633693695,-0.28125840425491333,-0.01702762208878994,0.22841626405715942,0.23143745958805084,-0.3089503049850464,0.38631558418273926,-0.006349900271743536,-0.2917573153972626,0.2226049154996872,0.27595463395118713,-0.22568279504776,0.35222333669662476,0.309157133102417,-0.1238865926861763,0.9448237419128418,-0.15736626088619232,-0.360432893037796,-0.5848003625869751]},"cellWriteHiddenMatrix":{"rows":20,"columns":20,"weights":[0.2204504758119583,0.311580091714859,-0.37521424889564514,0.24662694334983826,-0.17875075340270996,0.43372753262519836,0.00946474727243185,0.3676026165485382,1.2779004573822021,-0.12458176910877228,-0.20288415253162384,0.3144584596157074,-0.1518276035785675,-0.2018927037715912,1.3999357223510742,0.23018810153007507,0.15905426442623138,-0.384880930185318,-0.3329593241214752,0.25327733159065247,0.11601804196834564,0.188259556889534,-0.12903854250907898,2.353992462158203,0.013458593748509884,-0.016004612669348717,0.10380727052688599,0.3250204026699066,3.3464488983154297,-0.23259814083576202,0.9001123309135437,0.16541874408721924,-0.07587581872940063,-0.042325980961322784,0.13014847040176392,0.8937491178512573,0.22108785808086395,-0.08227156102657318,-0.2997882664203644,-0.04896855726838112,-0.2184833288192749,-0.18660394847393036,0.19256877899169922,-0.27677789330482483,0.226502925157547,-0.5402776002883911,-0.23581208288669586,0.05361669510602951,-1.1740747690200806,0.1991754025220871,0.15984342992305756,-0.2739223837852478,0.3615110516548157,0.2694430649280548,-1.2989898920059204,-0.23215080797672272,-0.09826666861772537,0.3949168026447296,0.10265566408634186,-0.5361315608024597,-0.26916882395744324,0.05100155249238014,0.10817374289035797,-0.010633690282702446,0.2097170501947403,-0.3103562593460083,-0.19821728765964508,-0.11934106796979904,-0.3988056182861328,0.2832181751728058,0.12688161432743073,-0.21661566197872162,0.3121751546859741,0.2687937617301941,-0.5508522987365723,-0.12311208993196487,-0.22238242626190186,-0.1284104734659195,0.34353458881378174,-0.2657003700733185,0.2607995569705963,0.15547944605350494,-0.22649921476840973,0.4295218288898468,-0.2298736572265625,0.33417534828186035,0.21979665756225586,0.5784744620323181,2.1757421493530273,-0.32488229870796204,-0.25525224208831787,0.3703581392765045,-0.3547416031360626,-0.3318692147731781,0.23020894825458527,0.6453372240066528,0.28755709528923035,0.09684178233146667,-0.5162525177001953,0.3278196156024933,0.10437190532684326,0.14820320904254913,-0.2081209272146225,0.21579338610172272,-0.2751104533672333,0.4287683963775635,0.08680921047925949,-0.048580192029476166,1.1875733137130737,-0.12452465295791626,-0.14533066749572754,0.28597205877304077,-0.3253113329410553,-0.4459529519081116,0.9483716487884521,0.15234443545341492,0.13285067677497864,-0.22204770147800446,-0.07550933212041855,0.553933322429657,-0.2055206149816513,-0.32064133882522583,0.2826707065105438,-0.8438977003097534,0.2607460618019104,-0.2030678540468216,-0.2491944432258606,-0.3329509198665619,-2.1869609355926514,0.18173819780349731,0.25372514128685,-0.17107753455638885,0.169345423579216,0.3405326008796692,-0.1354445070028305,-0.3161870837211609,-0.060268156230449677,0.1273133009672165,0.27012670040130615,-0.4154258966445923,-0.00297917565330863,0.17067210376262665,-0.446831077337265,0.0978139266371727,-0.29270708560943604,0.6645440459251404,0.16823188960552216,0.16839659214019775,1.2786911725997925,-0.07968158274888992,-0.32282882928848267,0.32360830903053284,-0.4182202219963074,-0.41408154368400574,1.6518813371658325,0.11162102967500687,0.15079812705516815,-0.2927924692630768,-0.2556076943874359,0.6310681104660034,-0.28193360567092896,0.053965359926223755,0.18009841442108154,0.2875101864337921,0.2572166621685028,-0.20755407214164734,-0.2299499809741974,-0.1697804480791092,-0.015027066692709923,0.25838765501976013,0.22321991622447968,-0.3036271035671234,0.2506534457206726,0.2900569438934326,-0.4348228871822357,-0.14786608517169952,-0.19925816357135773,-0.1739165037870407,0.2807405889034271,-0.23074255883693695,-0.22968731820583344,-0.18531838059425354,0.27154526114463806,-0.1939777433872223,0.2793271541595459,-0.46891793608665466,-0.04609842970967293,-0.3065282106399536,-1.4655030965805054,0.24994121491909027,0.14198707044124603,-0.3724938929080963,0.27171286940574646,0.13785192370414734,-1.3458037376403809,-0.1422971785068512,-0.16903536021709442,0.20795223116874695,0.4653928875923157,-0.4693402051925659,0.2279820293188095,0.025231564417481422,-0.29072046279907227,0.7832320928573608,-0.17039881646633148,0.40875083208084106,0.1047692596912384,0.47757089138031006,2.167309045791626,-0.33055391907691956,0.07975374907255173,0.3105420470237732,-0.26212769746780396,-0.19633841514587402,0.12616486847400665,0.4540702998638153,0.20533424615859985,-0.01975112408399582,-0.38637593388557434,0.23301154375076294,0.24992229044437408,0.13638438284397125,-0.2047225385904312,0.23690274357795715,-0.3526662588119507,0.475506454706192,0.09035748243331909,0.2518894672393799,1.4556010961532593,-0.26830288767814636,-0.33868393301963806,0.2724999189376831,-0.338490754365921,-0.30845069885253906,1.22922945022583,0.024854861199855804,0.022176699712872505,-0.12356361001729965,-0.4011431336402893,0.43231043219566345,-0.21158213913440704,-0.22994759678840637,0.29252925515174866,-0.17961637675762177,0.191686749458313,-0.3577978014945984,-0.23857906460762024,0.03106379695236683,-1.0665156841278076,0.24773503839969635,0.18522882461547852,-0.25618284940719604,0.22629988193511963,0.3496893048286438,-1.104570746421814,-0.21902282536029816,-0.16880665719509125,0.2502201497554779,0.2305166870355606,-0.4763129949569702,0.17195388674736023,0.09631410241127014,-0.4050217866897583,0.7077507972717285,-0.3474063277244568,0.3303307294845581,0.35643523931503296,0.42539459466934204,2.226656198501587,-0.2525787353515625,-0.4176846444606781,0.34589603543281555,-0.207037091255188,-0.2896742820739746,0.26652613282203674,0.4127231240272522,0.26938217878341675,-0.04085710272192955,-0.33661049604415894,0.30959373712539673,-0.629386842250824,0.05419650301337242,-0.15951968729496002,0.9795639514923096,-0.07622823119163513,-0.023819075897336006,-0.02995895780622959,-0.8009228110313416,1.9298306703567505,0.41498565673828125,0.06845762580633163,-0.33465805649757385,-0.07903219759464264,-0.041121866554021835,0.1714278906583786,0.5681825876235962,-0.37232089042663574,-0.2651345431804657,1.0424538850784302,0.17050524055957794,-0.0661570206284523,0.15230564773082733,0.16358138620853424,-1.691670298576355,0.16121028363704681,-0.17426036298274994,-0.4289674460887909,-0.3511098325252533,-3.0212504863739014,0.07918927818536758,-0.30430400371551514,-0.1066020205616951,0.10021231323480606,0.1788252741098404,-0.035946138203144073,-0.5544914603233337,-0.10323489457368851,-0.12285486608743668,0.24843105673789978,-0.29859036207199097,0.00437011756002903,0.11111970245838165,-0.4772888422012329,-0.06523290276527405,-0.6875473856925964,0.5160659551620483,0.3840780258178711,0.14645183086395264,1.073126196861267,-0.18532638251781464,-1.1491694450378418,0.46231451630592346,-0.3577900528907776,-0.6010280847549438,1.20112144947052,-0.11362464725971222,-0.3697763979434967,-0.5841259956359863,-0.3762519955635071,0.8509700894355774,-0.176455557346344,-0.08865475654602051,0.23747996985912323,-1.3109291791915894,0.01914425566792488,-0.17784631252288818,-0.07909217476844788,-0.14219488203525543,-1.9617273807525635,0.1911754459142685,0.13164745271205902,-0.1435483694076538,-0.005876485258340836,0.18074984848499298,-0.15948431193828583,-0.4087131917476654,-0.179472416639328,0.2060527801513672,0.16623219847679138,-0.17593103647232056,-0.2818060517311096,-0.181743323802948,0.5221962332725525,-0.47424301505088806,0.24750956892967224,-0.49130988121032715,-0.16079558432102203,-0.1732778400182724,-1.5177332162857056,0.26250752806663513,0.1708812564611435,-0.32382598519325256,0.4023076295852661,0.3783074915409088,-1.8173564672470093,-0.1191880851984024,-0.05884956568479538,0.3681999444961548,0.2538817822933197,-0.6597300171852112,-0.12969064712524414,0.17004306614398956,0.4648492932319641,-0.3018827736377716,0.3035614788532257,-0.48627763986587524,-0.3591640293598175,-0.8940697908401489,-1.4050692319869995,0.3124323785305023,0.5326099991798401,-0.322797566652298,0.48613208532333374,0.3804463744163513,-0.9955509305000305,-0.3911062479019165,-0.10189773887395859,0.04215119406580925,0.8003878593444824,-0.5732859373092651]},"cellWriteBias":{"rows":20,"columns":1,"weights":[-1.822478175163269,1.7244099378585815,1.842448353767395,0.039128612726926804,1.4758555889129639,-1.3358714580535889,-1.5999561548233032,-2.420485734939575,-0.4281623363494873,1.7281395196914673,1.1182620525360107,-1.5767565965652466,1.4932541847229004,0.9379372596740723,0.24964983761310577,-1.926310658454895,-2.8285539150238037,-0.5861222743988037,2.3373501300811768,1.29344642162323]}}],"outputConnector":{"rows":1,"columns":20,"weights":[-0.10284184664487839,0.3369602859020233,-0.18262387812137604,-0.1501924991607666,0.40185460448265076,0.23501452803611755,-0.34507960081100464,0.27147695422172546,-0.16425853967666626,0.0473853275179863,0.46940112113952637,0.17019543051719666,-0.20256096124649048,0.12940213084220886,0.3159078359603882,-0.3506564199924469,0.31685149669647217,-0.3480089604854584,0.09544826298952103,-0.003168319584801793]},"output":{"rows":1,"columns":1,"weights":[1.0327214002609253]},"inputLookup":null,"inputLookupLength":0,"outputLookup":null,"outputLookupLength":0}