{"type":"LSTM","options":{"inputSize":60,"inputRange":60,"hiddenLayers":[20,20],"outputSize":60,"decayRate":0.999,"smoothEps":1e-8,"regc":0.000001,"clipval":5,"maxPredictionLength":100,"dataFormatter":{"indexTable":{"0":38,"1":53,"9":36,"I":0,"n":1,"s":2,"i":3,"d":4,"e":5," ":6,"C":7,"h":8,"'":9,"u":10,"r":11,"y":12,"k":13,"a":14,"W":15,"m":16,"p":17,"F":18,"l":19,"g":20,"B":21,"(":22,"w":23,"@":24,"b":25,"t":26,"o":27,"c":28,"&":29,",":30,")":31,"v":32,"J":33,"x":34,"N":35,":":37,"P":39,".":40,"M":41,"E":42,"j":43,"!":44,"D":45,"-":46,"T":47,"f":48,"U":49,"S":50,"A":51,"H":52,"V":54,"X":55,"O":56,"stop-input":57,"start-output":58,"unrecognized":59},"characterTable":{"0":"I","1":"n","2":"s","3":"i","4":"d","5":"e","6":" ","7":"C","8":"h","9":"'","10":"u","11":"r","12":"y","13":"k","14":"a","15":"W","16":"m","17":"p","18":"F","19":"l","20":"g","21":"B","22":"(","23":"w","24":"@","25":"b","26":"t","27":"o","28":"c","29":"&","30":",","31":")","32":"v","33":"J","34":"x","35":"N","36":"9","37":":","38":"0","39":"P","40":".","41":"M","42":"E","43":"j","44":"!","45":"D","46":"-","47":"T","48":"f","49":"U","50":"S","51":"A","52":"H","53":"1","54":"V","55":"X","56":"O","57":null,"58":null,"59":null},"values":[{"input":"Inside Chi's nursery","output":"kardashian"},{"input":"Why I dyed my hair pink","output":"kardashian"},{"input":"Feeling Blue (wearing @kkwbeauty powder contour in medium & dark contour kit as eye shadow, & a new lip coming soon)","output":"kardashian"},{"input":"I will be interviewed by @JudgeJeanine on @FoxNews at 9:00 P.M. Enjoy!","output":"trump"},{"input":"Dem Memo: FBI did not disclose who the clients were - the Clinton Campaign and the DNC. Wow!","output":"trump"},{"input":"Thank you to the great men and women of the United States @SecretService for a job well done!","output":"trump"},{"input":"All Democrats should watch this!","output":"trump"},{"input":"Senate hearing on the Impeachment Hoax starts today at 1:00 P.M.","output":"trump"},{"input":"We are in very close communication with China concerning the virus. Very few cases reported in USA, but strongly on watch. We have offered China and President Xi any help that is necessary. Our experts are extraordinary!","output":"trump"}],"characters":["I","n","s","i","d","e"," ","C","h","'","u","r","y","k","a","W","m","p","F","l","g","B","(","w","@","b","t","o","c","&",",",")","v","J","x","N","9",":","0","P",".","M","E","j","!","D","-","T","f","U","S","A","H","1","V","X","O","stop-input","start-output","unrecognized"],"specialIndexes":[57,58,59]}},"trainOpts":{"iterations":100,"errorThresh":0.005,"log":true,"logPeriod":10,"learningRate":0.01,"callbackPeriod":10,"timeout":"Infinity"},"input":{"rows":61,"columns":60,"weights":[-0.10711703449487686,-0.1164138987660408,0.24230797588825226,0.6388064026832581,0.010008128359913826,0.3321565091609955,-0.6964620351791382,-0.6566973924636841,0.6872743368148804,-0.2741807997226715,-0.45155787467956543,0.38292205333709717,0.0010214645881205797,-1.047093152999878,-0.7565149068832397,-0.9656913876533508,-0.11510848999023438,0.2233467400074005,0.1617186963558197,0.623031497001648,0.0909641683101654,0.10291602462530136,-0.2879127860069275,0.6580635905265808,-0.46915003657341003,1.0058313608169556,-0.3663943111896515,-0.20999367535114288,-0.36728808283805847,-0.16539141535758972,0.6470628380775452,-0.4794076979160309,-1.0185368061065674,0.6182510256767273,0.22698324918746948,-0.524561882019043,-0.19070588052272797,0.0734565481543541,-0.2047773003578186,0.16054780781269073,-0.44193941354751587,1.2661136388778687,-0.34504637122154236,-0.9810345768928528,0.16998198628425598,0.663766622543335,-0.253845751285553,0.6393594145774841,1.2699143886566162,1.2514671087265015,-0.19704686105251312,0.5583229660987854,-0.8478377461433411,0.051190201193094254,0.26448050141334534,0.3229435682296753,-0.6999980211257935,-0.6401365399360657,-0.2061978429555893,1.1691175699234009,1.1943066120147705,1.6543861627578735,1.278374433517456,-1.3030266761779785,0.3164239823818207,2.5362818241119385,2.7764499187469482,-1.5033507347106934,-0.5618042349815369,-1.790738821029663,-2.3687515258789062,0.36492645740509033,2.532526969909668,-0.21838171780109406,-1.115234613418579,-0.5077241063117981,-1.1292240619659424,-0.8335506916046143,-1.1377681493759155,-0.56747967004776,1.4911127090454102,1.872849941253662,-1.704010248184204,2.455030918121338,1.5564807653427124,-0.8263443112373352,-1.618255615234375,0.21133381128311157,-0.011930028907954693,-1.612222671508789,-0.8148432970046997,0.6495301127433777,1.9219976663589478,-0.5115166902542114,-1.4459468126296997,-0.9096465110778809,0.7118046283721924,0.25374090671539307,1.7002410888671875,0.5641055107116699,-0.2469920814037323,-0.1957375854253769,-0.028572000563144684,0.6397207379341125,2.6237881183624268,-0.41519731283187866,-0.7055243253707886,1.317661166191101,-0.8428425788879395,-0.6096354126930237,-1.8869524002075195,-0.5772953033447266,0.3503989279270172,0.5772134065628052,1.8627675771713257,1.6997848749160767,0.36157941818237305,0.456076055765152,-1.5403391122817993,-0.8949901461601257,-0.23187510669231415,-0.3156167268753052,0.7640133500099182,0.22983138263225555,0.1821209341287613,0.7500942349433899,0.5499904155731201,-1.8942774534225464,1.0421392917633057,-0.6098276376724243,-1.107956886291504,-0.21092846989631653,0.11456030607223511,-1.4758917093276978,-0.6372265815734863,-0.22335687279701233,-0.16559873521327972,0.46805527806282043,0.5943251848220825,1.449068546295166,1.2146992683410645,0.12067760527133942,-0.9144951105117798,0.8036699891090393,0.26614177227020264,0.9723951816558838,-0.6670244336128235,-1.664771556854248,-0.8931350111961365,0.08088051527738571,0.36730989813804626,-0.2365102767944336,0.5301821827888489,-0.4536561965942383,-0.028347155079245567,0.7309278249740601,-0.5928940773010254,-0.7972508072853088,0.2696455419063568,0.7940983772277832,-0.9055098295211792,0.05413560941815376,1.6771132946014404,-1.9568610191345215,0.3821637034416199,0.37721508741378784,0.3679027855396271,1.3576616048812866,1.1729987859725952,1.1268928050994873,-0.35731348395347595,0.10755089670419693,-0.7446662187576294,-0.0002666760701686144,-0.21491427719593048,0.8213813900947571,0.741202712059021,0.22668443620204926,0.3735504746437073,1.0921911001205444,-1.0553734302520752,-0.591110348701477,-0.6866177916526794,0.5941498279571533,-0.7426363825798035,-0.6132419109344482,-1.0711047649383545,-0.3978004455566406,1.878488302230835,0.585681140422821,0.5893325805664062,-0.20117077231407166,-0.6971873641014099,-0.8570895791053772,-1.5923230648040771,-0.4783264398574829,-0.266117662191391,0.6914357542991638,0.19016225636005402,0.5633565783500671,-0.2270006388425827,-0.5467321872711182,0.2108156830072403,0.14080964028835297,0.4320428967475891,0.509315013885498,-0.41709765791893005,0.5654436349868774,-0.3291495740413666,0.6632879972457886,0.27466097474098206,-0.7712250351905823,-1.5926827192306519,0.3081045150756836,-0.2312268167734146,-0.17860183119773865,-0.5358996987342834,0.2014124095439911,0.018916981294751167,-0.20051971077919006,-2.4062905311584473,0.9169716238975525,0.7014286518096924,-0.21137842535972595,-0.5799350738525391,-0.3636738657951355,-0.9235048890113831,-0.2189946472644806,0.11820366233587265,0.11673465371131897,0.9096266627311707,0.3370656371116638,-1.8504164218902588,-0.5105956792831421,-0.3939167559146881,-0.41341474652290344,-1.5450838804244995,-0.6646696925163269,0.17841939628124237,0.5042372345924377,0.34141844511032104,0.4010733366012573,-0.29517924785614014,-0.5589423179626465,0.16220715641975403,-0.579710841178894,-0.7862821221351624,-0.8603874444961548,-0.7092288136482239,0.35361045598983765,0.39106160402297974,-0.5679512023925781,0.6089838147163391,-0.4756641983985901,-0.506234884262085,-0.7906014919281006,0.42688003182411194,-0.5318474173545837,-0.5693598389625549,-0.4689755141735077,-0.3764309883117676,0.33657369017601013,0.6878042221069336,-0.5772169232368469,-0.6438323855400085,0.8133795261383057,0.04076755419373512,0.06994961202144623,-0.5196670889854431,0.35517993569374084,0.43096527457237244,-0.9399360418319702,-0.3104163408279419,2.266723871231079,0.27564480900764465,-1.0291165113449097,-0.07829900830984116,1.0767097473144531,-0.48708686232566833,-0.2909359633922577,0.13891929388046265,0.577489972114563,-0.9785292744636536,0.19052621722221375,-0.2986169755458832,0.7468781471252441,0.5716190934181213,-0.5441585779190063,0.5714671015739441,-0.28090623021125793,-0.7311500310897827,0.7074379324913025,-0.5700755715370178,0.2312692105770111,-0.020840510725975037,-0.6546509861946106,-2.2180097103118896,-1.2540897130966187,-0.28370216488838196,0.45529085397720337,-0.5317455530166626,-0.6847099661827087,-0.28850194811820984,0.28210633993148804,0.230547234416008,-0.7655161619186401,-0.26645800471305847,1.1058290004730225,0.2741876542568207,0.8004061579704285,-0.5586265325546265,-0.6103830337524414,-0.2666829526424408,-0.212428480386734,0.029659800231456757,0.5982994437217712,0.7731625437736511,0.2954586446285248,0.4546404182910919,1.5502759218215942,-0.7081739902496338,0.047295622527599335,1.017288088798523,0.994872510433197,-0.8419274687767029,0.35531851649284363,-0.8882092833518982,0.40111005306243896,-1.0627224445343018,0.42836636304855347,0.7774755954742432,-0.5744553804397583,-1.007859706878662,0.6082099676132202,0.6611720323562622,-0.278576523065567,-0.5307268500328064,2.158831834793091,-0.654198169708252,-0.17110943794250488,-1.9889330863952637,0.42684173583984375,-0.34863385558128357,-0.09836278110742569,-0.702549159526825,0.7497966885566711,-0.4800369441509247,0.6186776757240295,0.7482582330703735,0.2808690667152405,0.09830639511346817,0.6029612421989441,-0.2702084481716156,-0.5250738859176636,-0.3039584457874298,0.8037881255149841,-2.0721285343170166,-0.2694768011569977,0.6605583429336548,0.5407392382621765,-0.19282139837741852,-0.46858736872673035,-0.22902515530586243,-0.43288469314575195,-0.9652909636497498,-0.44737526774406433,0.307700514793396,0.5206044912338257,-0.33663150668144226,0.4987291395664215,-0.5672255158424377,-0.5632397532463074,-0.07734475284814835,-0.37846267223358154,-0.2536640465259552,0.10072951018810272,0.3483155369758606,-0.40824010968208313,-0.3270756006240845,-0.2747022807598114,-0.6701570153236389,0.11908549815416336,0.9125167727470398,0.07639052718877792,-0.9171895384788513,-0.1132531389594078,0.8164685964584351,0.5852353572845459,0.49257516860961914,0.621159553527832,0.5057698488235474,-0.035833973437547684,0.6587982773780823,0.14259658753871918,0.0026208495255559683,-0.35091233253479004,-0.5156384110450745,0.5816450119018555,-0.38676917552948,-0.5534610152244568,-0.400325745344162,0.6742748618125916,-0.4099496304988861,-0.24651536345481873,-0.7061393857002258,0.5248109698295593,0.24767403304576874,0.0209361482411623,0.15815946459770203,0.5243663191795349,0.3362313210964203,0.3230602741241455,-0.3142504096031189,-0.6285250186920166,-0.04987515136599541,-0.1139630377292633,0.4626266658306122,-0.8898218870162964,0.22231823205947876,0.30955561995506287,1.2307531833648682,1.5618255138397217,0.7985658049583435,-0.8082413673400879,0.774109423160553,1.150215983390808,2.429612398147583,-0.5690781474113464,-1.0780638456344604,-0.5226958990097046,-1.2859081029891968,0.3384621739387512,1.7537500858306885,0.032296936959028244,0.17348018288612366,0.3592517375946045,-0.9082218408584595,-0.27847930788993835,-1.2926025390625,-0.41147223114967346,0.7245866060256958,1.169136643409729,-1.3873951435089111,0.9212486743927002,1.055574893951416,-0.5106648206710815,-0.962002694606781,0.4188210368156433,1.1212269067764282,-0.6354111433029175,-0.5083944797515869,0.8900726437568665,1.2563395500183105,-0.04453041031956673,-0.3377355933189392,-0.3874754011631012,0.6303150057792664,0.4128025472164154,0.9191957116127014,-0.21717491745948792,0.12688370048999786,0.21989279985427856,0.6171615123748779,0.40396648645401,0.880653440952301,-0.23823200166225433,-0.045796386897563934,1.1604106426239014,-0.4487065076828003,0.07585322111845016,-1.2931416034698486,-0.2540937662124634,0.45843642950057983,0.6106442809104919,0.5458196401596069,0.9801357984542847,0.19364938139915466,0.07262961566448212,-1.1475461721420288,0.04753749072551727,-1.5948270559310913,-1.653166651725769,-1.4678502082824707,1.2316724061965942,-1.611861228942871,-1.081590175628662,0.41280344128608704,-0.15296627581119537,-0.7443979978561401,1.0430461168289185,-0.2968122661113739,-1.056449294090271,-1.5120848417282104,1.037921667098999,1.0940070152282715,1.5764355659484863,0.5353875160217285,-1.1618865728378296,0.9625808000564575,-0.6805053353309631,1.2426912784576416,-1.130321979522705,0.7118634581565857,0.5068470239639282,-0.6887706518173218,-1.2403173446655273,2.4667723178863525,0.8909805417060852,2.592377185821533,1.3561434745788574,-1.789852261543274,3.146946668624878,1.5273122787475586,-3.20755672454834,-0.5977405905723572,-0.39886099100112915,-1.7223092317581177,-0.11911305785179138,-0.7766255140304565,0.92671799659729,0.26585736870765686,-0.5017204880714417,-0.30658212304115295,0.6206471920013428,-1.0871071815490723,-1.3950417041778564,-1.349579095840454,-2.4597086906433105,-1.1569066047668457,-1.0448092222213745,1.2764310836791992,-1.4553182125091553,1.3834656476974487,-1.627148151397705,-0.7848635315895081,1.2310672998428345,2.993612766265869,2.9852826595306396,1.294350504875183,-0.6492429971694946,0.0264934990555048,-0.06391745060682297,-0.3138429522514343,-0.6697927117347717,-0.5723680853843689,0.6690444946289062,0.15056341886520386,-1.087775468826294,0.08805352449417114,0.015270118601620197,0.1875632256269455,0.3627748191356659,0.6910058259963989,-1.3633668422698975,-1.9540690183639526,-0.7881830334663391,-1.0045127868652344,0.37489065527915955,-0.5148895382881165,-0.29154878854751587,0.3988287150859833,-0.37931761145591736,-0.7976557016372681,-0.5553023219108582,1.223875641822815,0.04466463625431061,0.2299014776945114,1.0058443546295166,0.21904702484607697,0.13868488371372223,-0.3857836127281189,-1.0085147619247437,0.8766147494316101,0.5521618723869324,-1.1388434171676636,0.29786157608032227,0.12517008185386658,-1.7258093357086182,1.513845682144165,-0.07693034410476685,-0.23184870183467865,0.7044546604156494,1.7456958293914795,-0.8679981827735901,-0.09119916707277298,-1.1720130443572998,-0.8495074510574341,-0.6324297785758972,-0.2560383975505829,0.5764650106430054,0.41800060868263245,-0.09821110218763351,-0.7666604518890381,0.750144898891449,0.8884990811347961,-0.2757689654827118,0.5355396866798401,0.2738283574581146,-1.7861849069595337,0.9808204770088196,-0.2468840330839157,1.4536798000335693,-1.1900442838668823,-1.9353306293487549,-2.9641764163970947,-0.6979130506515503,-0.6262871026992798,-0.5982972979545593,-0.36630597710609436,0.6781010031700134,0.5622254610061646,1.896605372428894,-0.2644558548927307,-2.993189811706543,-2.0997140407562256,-2.8260977268218994,-1.1910502910614014,2.0655481815338135,-1.6358050107955933,1.2390986680984497,1.4293683767318726,-0.795201301574707,-0.5560432076454163,-0.3065108358860016,3.152125358581543,3.425368547439575,1.6683348417282104,-2.7320988178253174,-3.389101982116699,2.191967487335205,2.417055606842041,-3.1085429191589355,1.0712246894836426,3.495046854019165,-1.9243499040603638,-2.557368755340576,2.1566052436828613,4.291953086853027,1.0566636323928833,0.9231868386268616,-1.7854485511779785,3.1358723640441895,-2.8799099922180176,-2.393493175506592,-0.17806462943553925,2.8201773166656494,0.03949560597538948,-0.2383655458688736,2.0128681659698486,1.8921525478363037,2.0053255558013916,2.948423147201538,-4.134411334991455,-2.1995327472686768,0.3527008295059204,0.3750922977924347,-2.8379766941070557,-2.5516183376312256,-1.4397153854370117,2.504422664642334,0.23108378052711487,-0.3708500862121582,-0.354452908039093,-0.5100840926170349,-0.7409687042236328,-0.23549319803714752,1.0267843008041382,0.40656012296676636,0.6974053978919983,0.6746014952659607,-0.5436425805091858,-0.7472814321517944,0.3927396237850189,-0.6756604909896851,-0.6568222045898438,-0.2936686873435974,0.5946471095085144,0.4305565059185028,-0.3264562487602234,0.2828793525695801,-0.646218478679657,0.6892537474632263,0.3739049434661865,-0.02440747059881687,-0.45729848742485046,0.6267608404159546,-0.045953769236803055,0.40438055992126465,-0.22623580694198608,0.8563322424888611,1.158656120300293,-0.9271854758262634,0.7640512585639954,1.0444188117980957,0.3389337658882141,-1.0961332321166992,0.06045045331120491,0.5282275676727295,-0.38207972049713135,-0.6982262134552002,-1.4340459108352661,0.8229817748069763,-1.220616340637207,-0.7729049921035767,-0.23803208768367767,0.8541238903999329,-0.03947293758392334,0.2250981628894806,0.4654233455657959,0.9357031583786011,0.2292986512184143,1.114721655845642,-0.453268826007843,-1.4407310485839844,-0.3099466860294342,0.7929571866989136,-0.21534553170204163,-0.8854120969772339,0.07539311051368713,0.9739590287208557,0.2414042055606842,0.1485414057970047,0.5738509297370911,-0.24279458820819855,0.1828552931547165,0.2848655879497528,0.22418077290058136,0.18000568449497223,-0.5531748533248901,-0.22428826987743378,-2.1908371448516846,0.29849278926849365,0.4735369086265564,0.19314302504062653,0.6585960388183594,0.9617342948913574,0.03511831909418106,-1.0725761651992798,-0.741195023059845,-0.5544978380203247,-0.2918410301208496,0.7309496402740479,0.43735387921333313,1.3967432975769043,-0.2250630259513855,-0.9068568348884583,-1.2907410860061646,0.1907857358455658,-1.6195482015609741,-0.3001827895641327,0.2316088229417801,0.21693295240402222,0.2158173769712448,0.01731497421860695,-0.09817172586917877,-0.34878918528556824,0.45241087675094604,0.006950098555535078,0.35534295439720154,0.3049634099006653,0.5534926652908325,-0.40316978096961975,-0.040553607046604156,0.01759328879415989,0.004318352788686752,0.03786476328969002,1.493072509765625,1.5866191387176514,0.11377742886543274,0.07461510598659515,-0.49673768877983093,-0.2188177853822708,0.17377160489559174,0.12133969366550446,0.27299267053604126,-0.2079465538263321,-0.03372369334101677,-0.3502843379974365,0.38082653284072876,-0.5493637919425964,-0.3107951581478119,0.299485445022583,-0.4613765776157379,0.17133621871471405,-0.18443891406059265,-0.43222904205322266,0.5315332412719727,-0.7709047198295593,0.12505732476711273,0.28012213110923767,1.152692437171936,-0.14864492416381836,-0.46898528933525085,-0.8642076849937439,-0.7316139936447144,-0.8816691637039185,0.03015907108783722,0.20719973742961884,0.3395511209964752,1.1810641288757324,-0.5976605415344238,-0.4923952519893646,0.31359049677848816,-0.419900506734848,-0.0661696344614029,0.5660584568977356,0.20948034524917603,1.3914532661437988,1.2906813621520996,-0.5771375298500061,0.686123788356781,-0.5923230051994324,-0.452548086643219,0.9605598449707031,0.11335122585296631,-0.6682636141777039,-0.4242652654647827,0.45460036396980286,-0.3304065763950348,-0.4894489645957947,-0.63944411277771,1.0343375205993652,-0.23905174434185028,-0.9071844220161438,-0.387129008769989,0.530097484588623,-0.2267676591873169,-0.5892340540885925,0.5789669752120972,0.8781067728996277,-0.03360690176486969,0.7340884804725647,-0.7637144327163696,-0.5554885268211365,-0.5020226836204529,-0.5048113465309143,-1.0224300622940063,-0.7060226798057556,0.4900968670845032,1.0928316116333008,-0.004785558208823204,0.0808868557214737,3.394803762435913,-1.2735317945480347,-0.012739378958940506,0.07305993884801865,-0.33534517884254456,-0.7866507768630981,-0.4811849296092987,-0.855785608291626,-2.501922607421875,3.469409704208374,-0.3579041659832001,-0.7402657270431519,-0.565226674079895,-0.45435839891433716,-2.376707077026367,-1.0095232725143433,-1.5948530435562134,0.35392332077026367,2.2918686866760254,0.6193626523017883,-3.3744287490844727,3.2060441970825195,2.338226318359375,0.9096152186393738,-1.5728065967559814,-2.989802122116089,-1.227637767791748,0.4765036404132843,0.13801318407058716,1.0197906494140625,0.09919452667236328,-0.9656720757484436,-2.500185012817383,-1.8512262105941772,0.5393021702766418,-0.06239435076713562,1.1357344388961792,1.6848593950271606,-0.7676208019256592,1.6463690996170044,-0.22091084718704224,-1.0256717205047607,-0.29902225732803345,1.656179428100586,0.783066987991333,3.4753522872924805,0.667464554309845,1.429517388343811,0.44520801305770874,-0.056161269545555115,-0.3971801698207855,0.5363953709602356,1.048263669013977,0.7595572471618652,1.04719078540802,-0.8551852703094482,-2.7808313369750977,1.5191572904586792,0.37434300780296326,-0.6481990218162537,-0.125930055975914,0.0440010204911232,-0.8420912623405457,1.0418331623077393,-1.3942861557006836,-1.2985281944274902,0.4855750799179077,-0.839581310749054,-0.8102314472198486,0.7069248557090759,0.19804680347442627,-0.5856934785842896,-0.6421201229095459,-0.43853649497032166,0.05725352093577385,-0.0805954858660698,0.009998832829296589,0.1067943200469017,0.0004416532756295055,0.016207346692681313,-0.27742061018943787,-0.5969996452331543,0.6603236198425293,0.15924501419067383,0.5355866551399231,-1.1575661897659302,0.6750541925430298,0.024650000035762787,0.7194216251373291,-0.35693448781967163,-0.4248920679092407,0.321317195892334,-0.1413150578737259,-0.42687737941741943,0.6953842043876648,0.09086255729198456,0.6883765459060669,-0.17539311945438385,0.06736498326063156,0.620078444480896,-2.4558804035186768,-0.9551207423210144,1.019836187362671,1.2625199556350708,0.3079880475997925,-0.11094556003808975,0.7151569724082947,0.9187270402908325,0.07129710912704468,0.9418113231658936,-0.17707842588424683,-0.27876338362693787,0.49377164244651794,-0.10701239854097366,0.06255902349948883,-0.8278453946113586,-0.11666373163461685,0.6723088622093201,-2.050955057144165,-1.5379351377487183,1.2979092597961426,1.1407108306884766,-1.7570080757141113,-0.7750229835510254,0.39257070422172546,2.1377668380737305,-1.0823695659637451,0.8665491938591003,0.6805503964424133,-0.5863181948661804,-2.0746636390686035,1.514682650566101,1.0530894994735718,1.2909963130950928,1.0663068294525146,-1.9963668584823608,0.6151064038276672,-1.7243313789367676,0.040480680763721466,-1.190488338470459,1.856263279914856,2.160292148590088,-1.6690460443496704,-1.3780803680419922,2.338470458984375,1.245417594909668,0.7845063805580139,1.633908748626709,-1.3728759288787842,1.1566662788391113,-0.9010138511657715,-1.173500895500183,-0.10818656533956528,1.491566777229309,-0.34950628876686096,0.7751099467277527,-1.7081888914108276,0.627311646938324,1.268226981163025,-1.3226739168167114,0.16591709852218628,1.4819904565811157,-1.7963721752166748,-1.425986647605896,0.12959744036197662,-0.5577359795570374,-1.3175222873687744,-1.042499303817749,2.2425012588500977,-1.617379903793335,1.203473448753357,-1.6527748107910156,-0.5329103469848633,-1.3587560653686523,1.3375804424285889,1.1923424005508423,0.6702444553375244,-1.2793034315109253,-0.2645863890647888,-0.09796769171953201,-0.4465307891368866,0.4036450982093811,-0.5114668607711792,-0.14290489256381989,0.3944219648838043,0.07663444429636002,1.244243860244751,0.37587517499923706,0.9581828713417053,-0.2851618826389313,0.08619239181280136,-0.714073657989502,-0.6828252077102661,-0.4485798478126526,-0.23729635775089264,0.09239184856414795,-0.05329678952693939,0.6334223747253418,-0.26994776725769043,-0.2334999293088913,0.1479194313287735,0.10580046474933624,0.7023269534111023,0.5262408256530762,-0.05809124931693077,1.7150579690933228,1.7833573818206787,0.3015812039375305,0.4823754131793976,-0.29262587428092957,-0.8173693418502808,0.880713939666748,-0.18402168154716492,-0.8163264393806458,-0.31353646516799927,0.4488570988178253,-0.1804383546113968,-0.3110571801662445,-0.32832029461860657,1.2434359788894653,0.023619212210178375,-0.3976946771144867,-0.7134004831314087,0.17506925761699677,-0.4975731074810028,-0.11397679895162582,0.5722877979278564,0.6273106336593628,-0.1384643316268921,0.764814555644989,-0.6401463747024536,-0.6239985823631287,-0.1862136721611023,-0.861181914806366,-0.6504364609718323,-0.7042854428291321,0.2532402575016022,0.6011912226676941,0.47405311465263367,1.5141500234603882,-1.4123401641845703,-0.8457673788070679,0.4704449474811554,0.9558026790618896,1.205653190612793,-1.7967935800552368,-0.67550128698349,0.17970000207424164,0.1320287436246872,-1.0014265775680542,1.451589822769165,-1.1756961345672607,-1.7650349140167236,-1.2528530359268188,-0.012829829938709736,0.7306866645812988,0.04075697436928749,0.31468188762664795,1.5630238056182861,0.6296114325523376,-1.288565754890442,-0.285126656293869,1.2819328308105469,0.2840908467769623,0.12714523077011108,-0.06193709746003151,-0.6262784004211426,-0.15811336040496826,0.06451059132814407,-1.338647484779358,1.014785885810852,1.2302852869033813,-0.2374163717031479,-0.8375871777534485,-0.21637628972530365,-0.6145012378692627,1.3676806688308716,0.4035146236419678,-1.2720369100570679,0.7737892866134644,0.8116646409034729,-0.3164210021495819,0.48667967319488525,-0.6997300982475281,-1.6469203233718872,-0.4397328794002533,-0.013457266613841057,-0.08070752769708633,-0.45790258049964905,0.6534802317619324,-0.35962361097335815,0.8433799743652344,1.030561923980713,2.340768814086914,-1.1047425270080566,0.2244797796010971,-1.7745805978775024,0.37050142884254456,1.9777168035507202,3.1773953437805176,0.8255143761634827,-0.9798036217689514,-0.7601528167724609,4.046760559082031,1.941321611404419,-1.592735767364502,0.6337103843688965,-3.4842324256896973,-1.5718282461166382,1.5569701194763184,3.7275784015655518,-1.1033185720443726,-1.8494030237197876,-1.220967173576355,-1.7206486463546753,0.4518158435821533,-0.5254194736480713,-0.21604032814502716,2.68593692779541,2.634920358657837,-3.741940975189209,0.4170077443122864,2.5204577445983887,0.4994284212589264,-2.102842330932617,-3.1458241939544678,-0.33109554648399353,-1.4065850973129272,0.2627875804901123,-0.25047990679740906,0.3531799018383026,0.14768105745315552,-1.476479411125183,-0.9118293523788452,1.4074656963348389,-1.575516939163208,2.243349075317383,0.2339973896741867,-1.8662852048873901,0.46811026334762573,-0.23625437915325165,-0.5864218473434448,3.282731294631958,-0.0436013862490654,0.2580750286579132,3.0483338832855225,-0.4236842691898346,0.3094480037689209,-0.8294481635093689,-0.04556000232696533,-0.23519864678382874,-0.6830325722694397,1.737419605255127,3.278487205505371,0.24627752602100372,-1.0659064054489136,-2.2814502716064453,0.18902193009853363,0.43366092443466187,0.8109568357467651,-0.6667332649230957,-2.476632595062256,0.20270097255706787,0.6565319299697876,0.44381457567214966,-0.42246684432029724,-0.20559990406036377,-0.09902006387710571,-0.8690022826194763,1.3743643760681152,1.3660792112350464,-0.1656210571527481,-0.11818709969520569,-0.01809273473918438,-0.5161375403404236,-0.2735695242881775,-2.3861727714538574,-0.24272631108760834,-0.025298768654465675,0.6070119738578796,-0.7682613730430603,0.5424194931983948,2.3944811820983887,-0.12187064439058304,0.010847676545381546,1.4168425798416138,-1.5351543426513672,-0.08879871666431427,0.30021965503692627,-0.6111785769462585,1.5020939111709595,1.0445564985275269,-1.321008563041687,-0.35639503598213196,1.771131992340088,0.11768124997615814,2.054670810699463,0.13985168933868408,-0.17077919840812683,0.1595105528831482,0.614361047744751,0.24450132250785828,0.3879512846469879,0.16696467995643616,-0.6382783055305481,1.4509462118148804,-0.15621154010295868,0.36243897676467896,0.15250927209854126,0.5146082043647766,-0.24726414680480957,1.5144269466400146,0.8356168270111084,-0.3231160342693329,-0.587544322013855,-0.7255948781967163,-1.8417139053344727,0.4213774800300598,1.0405462980270386,1.0279221534729004,-0.019825950264930725,-1.5040141344070435,0.35855817794799805,0.44916194677352905,-0.3545668125152588,-0.22128744423389435,-0.6854360103607178,-0.9250301122665405,0.14070990681648254,0.9250335097312927,0.8225421905517578,0.6251680254936218,0.7094734907150269,0.1258598417043686,-0.4470433294773102,-0.20144210755825043,-1.2597576379776,-0.7334905862808228,-0.2827471196651459,0.49218010902404785,-0.5060693025588989,-0.6824806332588196,1.234075665473938,-0.6132833361625671,-0.7425270080566406,-0.20479968190193176,-1.5483025312423706,-1.0000240802764893,0.783407986164093,-0.1981804221868515,0.20049934089183807,0.8919399976730347,-0.6711751818656921,-0.9858312606811523,1.5427964925765991,-0.4596521258354187,1.1561393737792969,-0.25670066475868225,0.5136335492134094,-0.20843802392482758,-0.6803632974624634,0.6189634203910828,0.6634672284126282,0.6093149185180664,1.0017731189727783,0.6157689094543457,-0.3522114157676697,-0.0040269773453474045,-0.47843924164772034,0.6926854252815247,0.5486771464347839,0.9877047538757324,0.6469206213951111,-0.6913556456565857,-0.3389406204223633,-1.5770740509033203,-0.6228814125061035,-0.3144374489784241,-2.048278570175171,-2.086256265640259,-1.0028144121170044,-0.23346176743507385,-2.6240742206573486,-0.6552369594573975,1.8476698398590088,4.11167049407959,-2.9779036045074463,0.2607547640800476,2.148540496826172,0.5996824502944946,-1.7806832790374756,2.02829909324646,-1.9833521842956543,2.1950011253356934,-0.7487359642982483,-1.4177449941635132,0.131692573428154,-1.6110857725143433,-0.14684829115867615,-1.5543763637542725,1.0998319387435913,0.6032209396362305,-0.01195443980395794,-1.8486732244491577,1.1358026266098022,-0.8955549001693726,2.7127525806427,2.465701103210449,-2.25346302986145,2.2356748580932617,0.4344746470451355,-2.5764575004577637,-1.212359070777893,2.1236412525177,-2.387068033218384,-0.19258743524551392,-0.1675218790769577,-0.17526741325855255,-0.23610344529151917,-2.2795774936676025,1.700312614440918,0.38534218072891235,-1.0242890119552612,-2.258711814880371,-1.1797436475753784,-0.3448120951652527,-1.5254698991775513,-2.469801902770996,2.1695683002471924,-1.9545848369598389,-0.23906663060188293,-2.397024631500244,-0.5958957076072693,-0.017323439940810204,1.7489080429077148,2.8212780952453613,-0.7205015420913696,-1.756026029586792,1.8370615243911743,5.2639970779418945,-0.516793429851532,0.6868561506271362,-1.8726108074188232,5.382391929626465,3.290560722351074,0.839223325252533,-3.9059879779815674,-4.880607604980469,0.7174897193908691,1.6204746961593628,3.250202178955078,0.6202441453933716,-2.239699363708496,0.7063106894493103,-2.1763768196105957,-4.3631696701049805,-1.727327823638916,-1.6552627086639404,4.553509712219238,2.354313611984253,-4.883978366851807,-0.061142075806856155,2.4878761768341064,-1.6928449869155884,3.630417823791504,-3.6966629028320312,1.2576377391815186,-0.7675952911376953,-1.0334703922271729,1.0544302463531494,2.9755938053131104,-1.113865613937378,-4.298132419586182,1.9420193433761597,3.8101632595062256,-4.746227741241455,0.2347133457660675,2.979280948638916,-2.2467031478881836,-1.0702489614486694,1.4122682809829712,-0.31358563899993896,4.444185733795166,-1.5810946226119995,-0.8286317586898804,1.189148187637329,-0.9504841566085815,-1.4800379276275635,2.900566339492798,-1.2901972532272339,-0.7535825967788696,-6.058567047119141,2.5953524112701416,4.370421886444092,2.035555124282837,2.0634124279022217,-1.8422069549560547,-1.0705755949020386,-0.8463004231452942,0.18058298528194427,-0.47230809926986694,-2.0822393894195557,-0.19202537834644318,1.541196584701538,1.4319978952407837,-0.8128946423530579,-1.0765175819396973,-0.6684139966964722,0.05123300850391388,1.4012247323989868,0.3295007348060608,-0.27085867524147034,-0.6529554724693298,-0.5636537075042725,-1.2571899890899658,-1.8672624826431274,-1.969946026802063,-0.18957217037677765,2.3732311725616455,-0.06051725149154663,-1.7343440055847168,1.1536730527877808,1.3981531858444214,-0.5375257730484009,0.6470768451690674,-0.3526870608329773,-0.6029725074768066,0.46029824018478394,-0.2875189781188965,0.30163052678108215,2.312150239944458,-0.4598512649536133,-1.8351689577102661,0.5861857533454895,0.7070006728172302,-0.30849435925483704,1.6930898427963257,3.08906888961792,-0.34681645035743713,0.020252691581845284,1.9682048559188843,-0.0839029848575592,0.814226508140564,-0.3329254388809204,-0.10788091272115707,-0.3081216514110565,-0.08350751549005508,-0.5083588361740112,0.8993200659751892,-0.35382455587387085,-0.37738901376724243,1.2766368389129639,2.519011974334717,1.1933467388153076,0.5567521452903748,0.5009248852729797,-2.9075489044189453,-0.30058011412620544,0.11577221006155014,-0.3823678493499756,-0.1527593433856964,1.3007479906082153,-0.3436417877674103,-0.05216553807258606,-2.306058883666992,-0.7075162529945374,1.524033546447754,-0.14384350180625916,-0.26898494362831116,-0.7795822024345398,0.005714969709515572,-1.9238874912261963,0.5775162577629089,-0.5386306643486023,0.5048461556434631,2.2184500694274902,1.9954262971878052,2.5363523960113525,-0.4212180972099304,0.30163314938545227,0.19308583438396454,-0.4550188183784485,-0.9518667459487915,1.5979385375976562,0.03490664064884186,-0.4675375521183014,-0.23548343777656555,-0.47867169976234436,1.746150255203247,-1.9959036111831665,-2.2434279918670654,2.061440944671631,0.35389018058776855,-0.06097237393260002,0.10470341145992279,0.15662787854671478,0.2243441492319107,-0.5265868306159973,0.05976807698607445,1.625862956047058,-0.8957229852676392,-1.9468607902526855,-0.07032649964094162,1.2688546180725098,0.2905585765838623,0.8154976963996887,2.073354482650757,2.429835557937622,-0.1949254423379898,2.2407619953155518,-0.7968442440032959,-0.3227474093437195,-0.18385735154151917,0.36232465505599976,-2.2281441688537598,-0.14227990806102753,0.6789108514785767,1.6600947380065918,0.6845658421516418,0.25152936577796936,-0.46878257393836975,-0.19520293176174164,-1.2888239622116089,-0.13407321274280548,1.0452576875686646,2.68222713470459,1.4930768013000488,0.6986978054046631,0.0842038244009018,-1.0430402755737305,0.9868557453155518,-1.3580938577651978,-0.9669646620750427,-0.8362822532653809,0.7888950109481812,0.018710970878601074,-0.33151042461395264,0.23855935037136078,-1.015899658203125,0.7998627424240112,1.0265796184539795,-0.6621354222297668,-0.8164505958557129,1.0808931589126587,0.19242745637893677,0.6367219686508179,0.19128696620464325,0.6425544023513794,1.668868899345398,-1.8223237991333008,0.3226841688156128,2.146260976791382,0.2372196912765503,-1.5506964921951294,0.15150806307792664,0.46022453904151917,-0.807104229927063,-0.9363572001457214,-1.2982004880905151,1.4384372234344482,-1.3869060277938843,-1.0926518440246582,-0.35189270973205566,1.44647216796875,0.653276801109314,0.04413633421063423,1.2096436023712158,1.2869722843170166,-0.5832158923149109,1.7117817401885986,-0.7403697371482849,-1.4765950441360474,-0.21312279999256134,0.18863996863365173,-1.0655838251113892,-1.5528110265731812,0.06494693458080292,1.2409474849700928,-0.17505113780498505,0.9677826166152954,0.27739274501800537,0.645311713218689,1.3862216472625732,-0.27042222023010254,-0.9492133855819702,-0.06695358455181122,0.28446921706199646,0.00007984216063050553,1.7542144060134888,-0.2505068778991699,-0.29674696922302246,0.2905953824520111,0.8085764646530151,0.015676971524953842,-0.6905982494354248,0.9802297949790955,0.7112954258918762,0.28845006227493286,0.1317659467458725,-0.3068792223930359,-0.8799193501472473,-0.2286948561668396,0.08647940307855606,-0.10762307792901993,-2.2488064765930176,0.43564242124557495,0.9837161302566528,-1.2726073265075684,-0.43570414185523987,0.08960004895925522,-1.678280234336853,-0.2207980901002884,0.10395985096693039,0.9442144632339478,-0.9483605027198792,-1.7064951658248901,-0.7202864289283752,-0.2775614857673645,0.6308823823928833,-0.9462904930114746,1.9113749265670776,0.5302221775054932,-0.8212968111038208,-0.795381486415863,0.5052396059036255,0.3651631772518158,-0.3921186625957489,-0.44444534182548523,-0.5571249127388,-0.9628459215164185,0.577181875705719,1.5700303316116333,-0.4340290129184723,-0.5228030681610107,0.1281178742647171,0.16706523299217224,0.3095972537994385,-0.448210209608078,0.7272073030471802,1.5955206155776978,0.3897141218185425,0.592093288898468,1.3915150165557861,1.6285028457641602,2.772538423538208,-0.7049553394317627,-1.033263087272644,-0.29574257135391235,-1.5003434419631958,-0.9270930290222168,1.9028977155685425,-0.0634976401925087,0.10218165069818497,0.13709118962287903,-0.028517210856080055,-0.2542698383331299,-0.12221034616231918,0.02371632307767868,1.4721605777740479,0.9765275120735168,-1.297331690788269,1.8034508228302002,0.6208558082580566,-0.24984364211559296,-1.1270763874053955,0.2940402925014496,0.5482076406478882,-0.8814433217048645,-0.42401793599128723,0.7155148983001709,0.6829136610031128,-0.04381155967712402,0.6274859309196472,-0.225347101688385,-0.4850327968597412,1.1122145652770996,0.25898098945617676,-0.20873084664344788,0.23833824694156647,0.2355765849351883,0.5255061984062195,0.08865305781364441,0.9296501278877258,-0.3345603346824646,-0.06052657216787338,1.486900806427002,-0.23180663585662842,-0.09027407318353653,-1.5152734518051147,-0.07750209420919418,-0.048502564430236816,-0.09451616555452347,0.2422134429216385,1.4157081842422485,0.03133156895637512,0.3907565474510193,-0.4483468532562256,-0.18418830633163452,1.3067396879196167,0.36297401785850525,1.9440793991088867,-0.8754911422729492,-0.4527641534805298,1.1688495874404907,0.5850634574890137,-0.3306180536746979,-0.8851126432418823,-0.8188443183898926,-2.791325807571411,0.7489714026451111,1.3472115993499756,0.13513152301311493,0.5773163437843323,0.19731499254703522,-2.7963156700134277,0.7071767449378967,-1.5341861248016357,-2.001673698425293,0.7800713181495667,2.6636297702789307,-1.3424941301345825,0.7818954586982727,1.8251261711120605,-1.1000901460647583,-0.7558507323265076,-0.3108423352241516,-0.609721839427948,-0.051475752145051956,-0.6973016858100891,1.2817630767822266,1.8814998865127563,0.3578563332557678,-2.2645909786224365,-1.6692471504211426,1.9439566135406494,-0.3646780252456665,2.564098596572876,-0.20117036998271942,0.9575228095054626,0.43820101022720337,-0.890528678894043,1.4502925872802734,1.0384265184402466,0.025694604963064194,-0.14498043060302734,2.8480591773986816,-1.3189326524734497,0.52082359790802,-0.8207647204399109,-0.3384268283843994,1.0144095420837402,1.436343789100647,0.7852229475975037,0.9842796325683594,0.10581646859645844,-0.6449505090713501,-1.7741879224777222,0.16653777658939362,-2.5536997318267822,-0.7214860916137695,0.8183658719062805,-0.9585492610931396,-1.2439597845077515,-4.481697082519531,1.5201860666275024,1.8146597146987915,-1.4466052055358887,3.141812562942505,0.12836800515651703,-1.57569420337677,-2.0055785179138184,3.904393434524536,3.6823372840881348,2.461087703704834,2.388418436050415,-4.288755416870117,-0.9292909502983093,-1.1127628087997437,-0.9814512729644775,-0.5475874543190002,3.6595680713653564,3.050640821456909,-2.0960469245910645,-1.3845436573028564,0.9044269323348999,0.3311743140220642,-1.9835782051086426,1.8731917142868042,0.16015534102916718,3.964451551437378,-1.9917360544204712,-3.5543413162231445,2.20945405960083,-1.878047227859497,-1.2578229904174805,2.9668073654174805,-2.1878035068511963,0.834238588809967,2.2944447994232178,-1.3374089002609253,-2.959311008453369,2.278223752975464,-2.38407039642334,1.0728741884231567,1.587713360786438,-2.077057361602783,-1.0620231628417969,-2.647975206375122,1.5908176898956299,-0.5719702243804932,2.5115883350372314,-0.273746132850647,-1.6901013851165771,-1.7791566848754883,3.2621371746063232,-2.4460487365722656,1.6266893148422241,-2.2050154209136963,-1.9775044918060303,0.03389347344636917,-0.8497577905654907,0.715199887752533,2.2842135429382324,3.9645724296569824,1.7836772203445435,-3.0916783809661865,-0.6441972851753235,-1.5066331624984741,-2.2201168537139893,0.22920605540275574,2.4789352416992188,-0.7919389009475708,-0.14008264243602753,-0.20642594993114471,-0.9362677335739136,-0.07584290951490402,-1.5981645584106445,-1.049365520477295,6.169652462005615,-0.024106504395604134,-4.8556365966796875,1.95711350440979,1.7206462621688843,-1.857958197593689,-0.6417946219444275,1.143249750137329,-1.9283047914505005,-0.5356107950210571,-1.595646619796753,1.2298895120620728,6.183100700378418,-1.3230981826782227,-2.208799362182617,0.8774207830429077,1.081496000289917,-0.8119076490402222,2.361158847808838,4.689143657684326,0.37265992164611816,-0.3314778506755829,3.805901527404785,-0.6652735471725464,2.874049186706543,0.11598949134349823,-0.9507976174354553,0.6891907453536987,-0.10165315866470337,-0.8011049628257751,0.18612205982208252,-1.1246594190597534,-0.6874116659164429,3.167295455932617,1.6415163278579712,3.1678528785705566,1.523967981338501,1.5508865118026733,-3.7732300758361816,-1.2565566301345825,2.453981637954712,0.5993319153785706,-0.3181658685207367,4.662600994110107,-2.4112136363983154,0.8079798221588135,-2.9091813564300537,1.9777196645736694,5.459115982055664,0.6610386967658997,-1.479689121246338,-1.914087176322937,3.184265613555908,5.681612014770508,0.8785638809204102,1.5983046293258667,2.7345690727233887,1.5106444358825684,2.2815325260162354,-2.072596311569214,-1.8915504217147827,0.15726131200790405,-2.4284002780914307,-3.3499062061309814,-1.4073978662490845,-2.013657331466675,4.234865188598633,1.425923228263855,4.219850540161133,-3.000368595123291,-0.5476798415184021,3.073530912399292,-3.0615854263305664,-1.8568254709243774,1.359471082687378,0.3789129853248596,1.6348345279693604,-0.9112064838409424,-1.6167360544204712,-2.8615853786468506,1.8421531915664673,-3.0438456535339355,-1.8755171298980713,3.1807973384857178,6.017858982086182,-1.389451026916504,-1.2885870933532715,-1.5163216590881348,-0.7660022377967834,-1.7236438989639282,-1.238377332687378,-0.01534152589738369,5.0572509765625,0.27921631932258606,-3.6898751258850098,2.0128962993621826,2.048105478286743,2.6727969646453857,3.5018951892852783,-4.363750457763672,1.3691716194152832,2.6560542583465576,-0.029749825596809387,-2.1804556846618652,0.9526205658912659,2.4975569248199463,2.0035605430603027,-1.6045910120010376,-0.6172446012496948,-1.7559529542922974,-0.9331009984016418,0.2956567704677582,2.577411413192749,-0.48301050066947937,-0.5298843383789062,-0.4233834147453308,-1.6969220638275146,0.18480436503887177,-1.1613848209381104,0.024613162502646446,2.0700018405914307,1.3753454685211182,-2.678555488586426,-0.022982455790042877,3.6095621585845947,-0.07900795340538025,-0.26512041687965393,-1.6612756252288818,-1.8905876874923706,-0.7710897326469421,0.01179440040141344,-0.301498144865036,2.891155958175659,0.467899888753891,-1.7226440906524658,0.06748789548873901,0.3032154142856598,-1.7946046590805054,3.4113223552703857,0.6550182700157166,-1.304380178451538,0.3349909782409668,1.5826661586761475,0.017938561737537384,2.0759336948394775,-0.11776245385408401,-0.08603926002979279,0.7238877415657043,-0.11330047994852066,0.09385161846876144,-0.7284477353096008,0.3263712227344513,-0.24831731617450714,3.0507888793945312,1.2163975238800049,1.5391963720321655,0.03227759525179863,0.34275537729263306,-1.9065567255020142,0.40784791111946106,-0.24074684083461761,-1.75821053981781,0.785758376121521,1.4136568307876587,1.3196732997894287,0.16411146521568298,-3.6260383129119873,-0.2615455389022827,1.6104596853256226,-0.31961214542388916,-3.0354511737823486,-0.33997294306755066,2.7271194458007812,-2.3266828060150146,1.0709378719329834,0.24337686598300934,1.096164345741272,-0.014356485567986965,2.069373846054077,1.5247882604599,-1.1460212469100952,2.2402138710021973,1.2325830459594727,-0.837946355342865,-0.9496021866798401,2.6977896690368652,-2.422534704208374,-0.8083012700080872,0.4029051959514618,-0.8478063941001892,2.2642292976379395,-1.3896294832229614,-2.464339017868042,1.7524596452713013,1.24053156375885,-0.15657131373882294,-1.189008116722107,2.1537749767303467,-0.8298400640487671,-0.8302313089370728,-1.1198045015335083,2.085442066192627,-4.04378604888916,-1.9475394487380981,0.3388550281524658,3.2076797485351562,3.1311612129211426,3.335139274597168,2.401200532913208,1.8461284637451172,-2.5909364223480225,2.1325700283050537,-2.063528299331665,-0.38505855202674866,-1.041534185409546,1.3978544473648071,-1.6418501138687134,-3.202881336212158,1.7758092880249023,-0.8730465769767761,1.1010394096374512,0.5578210353851318,1.9686414003372192,-1.869523525238037,0.4011286497116089,1.9317671060562134,1.9374619722366333,-0.17970111966133118,-2.3394784927368164,-2.484251022338867,-0.9770895838737488,0.6736276149749756,0.041909631341695786,0.348373144865036,-1.5532398223876953,-0.09159660339355469,-1.6627593040466309,-2.529203176498413,-2.023935556411743,-1.222832441329956,2.1935958862304688,-0.129362553358078,-0.4848981201648712,1.4921355247497559,1.2907379865646362,-0.0016785527113825083,-0.4113113284111023,-1.599863052368164,-0.950606107711792,-2.4189536571502686,-0.5855994820594788,0.9491820335388184,1.674597978591919,-1.7186836004257202,-2.2040812969207764,0.18829290568828583,1.3331741094589233,-3.2431576251983643,1.3587933778762817,1.9604917764663696,1.1917749643325806,-0.006459011696279049,0.6849969029426575,-0.18063347041606903,1.9615947008132935,-0.05345834046602249,0.6255457401275635,1.3500615358352661,-0.04053465649485588,-0.20586979389190674,-0.9063347578048706,-0.6538941264152527,0.3918258547782898,0.5848748683929443,1.6983925104141235,-0.01976868137717247,2.0058696269989014,0.35926294326782227,-1.4186137914657593,-0.9573063850402832,0.10093355178833008,1.2087348699569702,-1.8475114107131958,1.052978515625,1.2061407566070557,-0.17103980481624603,-1.781457781791687,0.8131098747253418,2.1787526607513428,-0.39751091599464417,3.7319462299346924,-0.24976815283298492,0.09508975595235825,-1.8627350330352783,-1.3392256498336792,-1.5294954776763916,1.0315605401992798,1.1968541145324707,1.9979543685913086,2.3830926418304443,-1.4645812511444092,-0.6388091444969177,1.5201408863067627,-3.2050023078918457,-0.24773754179477692,1.690833330154419,-1.2441126108169556,1.3358300924301147,2.945930004119873,-0.8977959752082825,0.8891295194625854,-2.131749391555786,-3.8837804794311523,1.9867892265319824,1.2406554222106934,1.240126371383667,-1.2502108812332153,-1.1625314950942993,-0.8563255071640015,-1.3496733903884888,-1.100489616394043,0.6279394626617432,1.776252031326294,-1.7731178998947144,-0.8702893257141113,-0.30103105306625366,1.1212520599365234,-1.7334771156311035,0.9798849821090698,0.4525822699069977,-1.1492944955825806,0.7660906910896301,-1.6593677997589111,1.08522367477417,-1.295382022857666,-1.760159969329834,-2.944931745529175,-0.6084283590316772,1.4263076782226562,0.29414430260658264,1.5379173755645752,-0.3081238269805908,0.19764351844787598,-1.484135627746582,0.14301428198814392,0.16394732892513275,-0.1686190962791443,3.901160955429077,-0.45235443115234375,0.3682631254196167,-1.660404920578003,0.24515004456043243,0.9113340973854065,2.7016096115112305,3.296560049057007,2.917940616607666,0.15937229990959167,-0.6448851227760315,-1.138596773147583,-3.1803882122039795,-0.109146349132061,1.3580496311187744,-0.03914588689804077,-0.4825992286205292,-0.995387613773346,-2.54129695892334,0.6292875409126282,0.4472585618495941,0.599994957447052,0.5731071829795837,-2.4701898097991943,2.765212297439575,1.423892855644226,-2.8580331802368164,-0.4164885878562927,2.710679531097412,0.9243260025978088,-0.22641386091709137,0.4776557385921478,0.7189540266990662,2.081996202468872,-2.7634434700012207,1.4785492420196533,2.535214424133301,0.12726284563541412,-2.671454906463623,1.3797967433929443,-0.9156122207641602,-2.8861472606658936,-2.509397506713867,-0.8162431120872498,-2.5063259601593018,3.328970432281494,0.2656635046005249,1.1332827806472778,1.013833999633789,3.7896344661712646,2.717409372329712,-0.8354077339172363,-2.1859259605407715,-0.6557192802429199,-0.15173545479774475,-0.2612189054489136,0.35619276762008667,-0.26316460967063904,-0.6044821739196777,-0.3872479200363159,0.4545570909976959,-0.21277379989624023,-0.3220245838165283,0.905524730682373,0.1973234862089157,-1.4707951545715332,1.64413583278656,1.756846308708191,0.9222618341445923,-0.4190421402454376,0.23410336673259735,-0.16985170543193817,-1.6529086828231812,0.35715603828430176,-1.200322151184082,-0.47124454379081726,-1.547659993171692,0.40967631340026855,-1.8990787267684937,1.471116304397583,1.9863576889038086,3.5087063312530518,0.041690245270729065,-1.6674588918685913,2.4300622940063477,0.05605875700712204,-2.6431760787963867,-0.8146108388900757,1.3614505529403687,-0.8901337385177612,-2.1157519817352295,0.3681890070438385,-0.3288686275482178,2.7876784801483154,-1.494193196296692,2.902657985687256,1.5121026039123535,-0.801539421081543,-1.4301036596298218,0.2397390753030777,-1.3328356742858887,-1.5204273462295532,-1.259139060974121,0.8691203594207764,-1.9139217138290405,1.917309284210205,0.18395723402500153,-0.5025955438613892,-1.7535104751586914,3.4457409381866455,1.660676121711731,0.44596806168556213,-1.4208800792694092,-0.24367012083530426,0.10963829606771469,-1.0949403047561646,0.9357620477676392,0.9290980696678162,-1.4756094217300415,-0.9298387765884399,0.3151729702949524,0.9735110402107239,0.9119255542755127,2.6861064434051514,-1.1759616136550903,-1.1538796424865723,0.1607825607061386,0.12608864903450012,0.4629967212677002,1.1360969543457031,0.9598046541213989,0.962656557559967,-0.42607781291007996,-1.3080705404281616,-1.0775198936462402,2.147312641143799,-2.251405954360962,-1.449034571647644,-0.03963185101747513,0.7703501582145691,0.4163700342178345,2.3648061752319336,-0.22672170400619507,-0.19041182100772858,0.08313778042793274,-0.3634454607963562,0.33721545338630676,1.7226351499557495,0.748065710067749,-1.3882923126220703,-1.7022302150726318,-1.5687423944473267,-0.9779551029205322,0.8128063082695007,-0.6591861248016357,0.18078498542308807,0.13984760642051697,-1.111895203590393,0.2575550675392151,0.2148398458957672,-2.6493160724639893,0.02408640645444393,-0.16408659517765045,-0.24989670515060425,-0.34937870502471924,0.3661929666996002,0.5644531846046448,-1.3423224687576294,-1.756618857383728,0.41790226101875305,0.24710962176322937,1.0434142351150513,-0.48564764857292175,2.4417622089385986,1.9821118116378784,2.3671863079071045,-2.1359996795654297,1.9327484369277954,1.3403512239456177,1.7133914232254028,0.388469934463501,-0.5480462908744812,-2.2441718578338623,-1.0368162393569946,1.8922137022018433,1.2870798110961914,0.535554051399231,0.12942664325237274,0.38815489411354065,-1.3448559045791626,-1.4084352254867554,-0.4401497542858124,0.10654767602682114,1.5951956510543823,1.173569917678833,-1.1604152917861938,1.0832452774047852,1.0834836959838867,0.049866318702697754,-2.2286672592163086,-1.4577783346176147,-0.14836443960666656,-2.368004322052002,-0.5487492680549622,0.3225504457950592,0.9619391560554504,-0.6569650173187256,-0.6719945073127747,0.585224986076355,1.2941290140151978,-2.2389936447143555,0.9439328908920288,1.7879091501235962,0.5472651720046997,-0.6486868858337402,0.10625648498535156,0.06738297641277313,1.7125880718231201,-0.7748419046401978,1.9507743120193481,1.37379789352417,-0.5382106900215149,-0.5117034316062927,-2.2141432762145996,-0.7058385014533997,0.6374956369400024,1.4532077312469482,1.1304893493652344,1.857673168182373,0.8492576479911804,0.5731549263000488,-1.0039573907852173,-0.31647196412086487,1.464932918548584,2.4087727069854736,1.168020486831665,-2.0673391819000244,-0.29894083738327026,2.6586520671844482,1.449695348739624,-1.415292739868164,-0.35002315044403076,-1.790997862815857,-0.3682289719581604,2.1154091358184814,2.2454726696014404,-0.7148759365081787,-1.4415252208709717,-0.8992416858673096,-2.196896553039551,-0.9977399706840515,-2.7860817909240723,0.3218678832054138,1.6944001913070679,1.2864692211151123,-2.953993320465088,0.4639905095100403,2.539875030517578,0.40169087052345276,-0.8745129704475403,-1.5978373289108276,-0.22326569259166718,-1.1837787628173828,0.06414809077978134,-0.294904500246048,0.9215776324272156,0.22135424613952637,-2.5359346866607666,-0.4539913833141327,1.7196578979492188,-1.423920750617981,2.423579454421997,1.4120042324066162,-2.0124094486236572,0.874936044216156,0.550965428352356,-0.5377869606018066,1.847080945968628,-0.5734480619430542,-0.0020974574144929647,1.3564510345458984,-0.018006404861807823,0.6000473499298096,-0.20818303525447845,0.28453773260116577,-0.8916536569595337,1.0605608224868774,2.2596542835235596,1.085302710533142,-0.0307611096650362,-0.5468956232070923,-3.6408791542053223,0.9992252588272095,-1.923622488975525,-0.24280135333538055,-0.9363976120948792,0.3003346621990204,-0.9723085761070251,-1.0579837560653687,1.5012694597244263,1.163745403289795,-1.295454740524292,1.3465193510055542,1.5090423822402954,-0.3592093288898468,-0.9718329906463623,1.6315264701843262,1.130874752998352,1.558821439743042,0.29096487164497375,0.03502539172768593,-0.4674273133277893,-1.5118106603622437,-0.6412954330444336,-0.620433509349823,1.2732181549072266,0.571830689907074,-0.7632278203964233,-1.349273920059204,0.8113417625427246,0.8189546465873718,0.48521798849105835,1.677331805229187,-1.8303241729736328,1.7705835103988647,1.7770010232925415,-1.9575269222259521,0.31226322054862976,0.8703230023384094,-0.8460357785224915,0.4884782135486603,-1.052631139755249,-0.34527388215065,-0.33917000889778137,-1.5645067691802979,1.4023206233978271,1.7057119607925415,-1.154848337173462,-1.765730619430542,-2.184234857559204,-0.7811132669448853,-1.8241547346115112,-1.7314268350601196,1.9423640966415405,-1.519619107246399,0.46687260270118713,-2.0517170429229736,-0.4109708368778229,0.33322200179100037,1.386312484741211,1.0896282196044922,0.1446228325366974,-1.1889550685882568,-3.937520980834961,-1.7025458812713623,-5.241422176361084,4.047656536102295,-1.272984266281128,-2.914698362350464,-2.2328500747680664,-0.4179932475090027,-2.208792209625244,3.6203105449676514,4.066372871398926,-3.997307300567627,-4.57524299621582,-1.1624705791473389,-0.4422215521335602,-1.1244643926620483,2.8252782821655273,1.905492901802063,2.9050989151000977,0.0643172413110733,-3.0082614421844482,-4.9236369132995605,2.85513973236084,-3.3778669834136963,-3.1274259090423584,0.9727641344070435,3.87408447265625,4.957273006439209,4.808999061584473,4.319329738616943,-0.35802367329597473,0.1733037829399109,1.1592556238174438,-0.1356734335422516,0.3005981147289276,1.558714509010315,-3.4112908840179443,-1.0461453199386597,-1.9843295812606812,-3.4024314880371094,0.11173553019762039,0.9620746374130249,2.3664798736572266,-0.8957494497299194,-4.481703281402588,0.9384196996688843,-1.7188336849212646,-5.20249605178833,0.7877665162086487,1.058943271636963,3.4949772357940674,-0.6091564297676086,-1.0774259567260742,-1.0147069692611694,-1.700782299041748,-2.266894817352295,0.48175084590911865,0.4659270644187927,0.8115413188934326,1.1804697513580322,-1.8149744272232056,-1.2841441631317139,-2.070552349090576,1.1659832000732422,0.41505861282348633,-1.8015389442443848,0.012229373678565025,0.8310448527336121,-0.6767758727073669,1.9433456659317017,0.4523654282093048,-1.6383781433105469,-2.8316898345947266,-0.41253307461738586,1.5164737701416016,-0.13515886664390564,1.4549962282180786,1.860537052154541,1.347594976425171,0.49207761883735657,-2.4020841121673584,-2.0805697441101074,1.9754118919372559,-1.992037057876587,-1.1634258031845093,0.39465567469596863,-1.542594075202942,1.0737158060073853,0.09459931403398514,1.9378262758255005,0.5290071964263916,-0.8779252767562866,-0.9856749773025513,0.6616643071174622,1.366727590560913,0.37363502383232117,-2.0157320499420166,1.653175950050354,-1.0475789308547974,-1.9787216186523438,-0.8453733921051025,0.18921588361263275,-0.7288803458213806,-0.646345853805542,-2.716745138168335,0.2400885671377182,-1.3229185342788696,-0.00622912123799324,0.4396681785583496,0.2607101500034332,0.8789755702018738,0.4464350938796997,-0.3882327377796173,-1.310910701751709,-2.364368200302124,-1.040345311164856,-0.848904013633728,-0.4122244417667389,1.6706608533859253,0.05622316524386406,-0.6101353764533997,-0.9227010607719421,-0.9995080828666687,0.47703272104263306,-1.0609960556030273,-0.48504120111465454,-0.3239195644855499,0.21231672167778015,0.49157583713531494,0.6273369193077087,0.5684335827827454,-0.263818621635437,-0.7538527846336365,0.4867471158504486,0.18342827260494232,0.5602234601974487,0.29456886649131775,1.0524259805679321,0.6153227686882019,-0.7386904954910278,-0.31748852133750916,-0.56516033411026,0.31020453572273254,-0.9123042821884155,-0.32045498490333557,-0.963529646396637,2.6961238384246826,0.5808079838752747,1.6725902557373047,0.19081807136535645,-1.2179476022720337,1.5635249614715576,-0.3692935109138489,-1.238004207611084,0.5735341310501099,0.6106330156326294,-0.5494691729545593,-0.5312801003456116,-0.23628541827201843,-0.31724053621292114,0.2871277928352356,-0.35277271270751953,-0.1858353316783905,0.43258294463157654,-0.49874651432037354,-1.6423240900039673,-1.6503074169158936,-0.9844223856925964,-1.2259581089019775,-0.2447698712348938,0.6848478317260742,-0.781944751739502,0.38577592372894287,-0.13073725998401642,-0.3530997335910797,-0.13047291338443756,1.5412523746490479,1.0889264345169067,0.4362678527832031,-0.1650584638118744,3.4119491577148438,3.3146865367889404,3.3365888595581055,0.4232102632522583,4.321066379547119,0.9052042365074158,-0.5572322010993958,-2.2739455699920654,0.19427134096622467,-1.1169347763061523,-3.4754104614257812,-1.0505157709121704,3.0319976806640625,-0.49666309356689453,-1.2258702516555786,-0.4512609839439392,-0.7966945171356201,0.6909251809120178,-0.48560580611228943,0.8390250205993652,1.7096514701843262,2.976435422897339,-0.5891029238700867,0.3495221734046936,-0.5689409971237183,1.3597275018692017,-7.400723457336426,-1.4050201177597046,-4.332540988922119,-4.6126580238342285,0.9475477933883667,-1.2660317420959473,-0.6362218260765076,1.6547743082046509,0.7775096893310547,-0.8159754276275635,1.873460054397583,-0.8862723112106323,0.32751715183258057,1.482086181640625,0.1139490082859993,0.005053157452493906,-0.10525242984294891,-0.2770390510559082,2.786106824874878,0.6160773038864136,0.16352565586566925,4.363802433013916,1.050140619277954,0.7158952355384827,-6.451453685760498,1.1758038997650146,0.11330258846282959,5.387734889984131,0.11681342869997025,1.2851336002349854,-0.8578416705131531,-0.8842891454696655,-1.4742369651794434,0.328128844499588,1.1336859464645386,2.6365113258361816,3.501723289489746,0.18514256179332733,7.000179767608643,2.970996379852295,2.405304193496704,-3.38922381401062,3.4889471530914307,-3.186288356781006,-3.7369682788848877,2.249915599822998,2.3820319175720215,-2.395008087158203,-2.6130809783935547,-1.5914314985275269,-2.990551710128784,-0.6708109974861145,-2.7421250343322754,2.433870315551758,3.3179872035980225,0.8470320701599121,-2.6371891498565674,3.9458818435668945,-0.38644322752952576,1.7172386646270752,-3.135049819946289,-2.490569829940796,-0.6396061778068542,-3.9332659244537354,0.0691845491528511,0.18585066497325897,-0.2424478381872177,-0.029772648587822914,-0.19060851633548737,-0.17379377782344818,0.37059643864631653,-0.45891496539115906,0.2662562131881714,3.7236056327819824,-2.7202157974243164,0.6115749478340149,-0.261929452419281,-2.55450439453125,3.1222567558288574,0.22726088762283325,2.3251445293426514,2.7021450996398926,1.0784156322479248,0.6591879725456238,-4.225198745727539,0.05548430606722832,-2.044412612915039,6.467740058898926,3.1638131141662598,2.4977850914001465,-0.044106993824243546,-0.12106223404407501,-2.6801657676696777,1.8631786108016968,6.206178665161133,4.688293933868408,1.3975309133529663,-2.615553379058838,6.678773403167725,2.239797592163086,2.527167320251465,-0.05161701887845993,-2.393449068069458,-3.5605673789978027,-0.9685942530632019,1.4629099369049072,3.141887664794922,0.6036919951438904,0.17090706527233124,0.32579416036605835,-1.1977012157440186,-1.142670750617981,-0.6646406054496765,-0.32479584217071533,2.1478443145751953,1.4337483644485474,-0.2656879425048828,1.2578703165054321,2.033747434616089,-0.11761932820081711,-2.8010945320129395,-4.112281322479248,0.2999699115753174,-5.997259140014648,-0.26273098587989807,-0.3029610514640808,2.966998338699341,-0.4219479560852051,-1.3075562715530396,0.8874224424362183,2.1057441234588623,-1.6663461923599243,2.1286532878875732,2.796205997467041,1.4878605604171753,-0.6964190602302551,1.1345640420913696,0.4033641815185547,3.558549642562866,-0.5756813287734985,1.5026538372039795,2.353921413421631,-0.2226458489894867,-0.5938634276390076,-5.734930992126465,-0.48183342814445496,0.5429606437683105,5.5010199546813965,2.040698528289795,1.85798978805542,0.0002517756656743586,0.46026813983917236,-1.2881200313568115,-0.5838008522987366,1.7465476989746094,2.23917818069458,1.1296696662902832,0.33428025245666504,4.135708332061768,0.8771408796310425,0.7209751009941101,-1.8460134267807007,0.6247408986091614,-0.5541316270828247,-0.8388006687164307,-0.36731210350990295,1.7692993879318237,0.3337709605693817,-0.6058647036552429,0.014653814025223255,-0.48936769366264343,-0.2282102108001709,0.12559346854686737,1.2652467489242554,1.190821886062622,1.3219881057739258,-0.29786500334739685,0.9596840739250183,-0.1330980807542801,0.9690619707107544,-4.486149311065674,0.2990309000015259,-2.029454469680786,-2.432008743286133,0.25455018877983093,-0.5783149003982544,0.04106978699564934,2.0422112941741943,0.6623755097389221,-0.26225852966308594,0.8042064905166626,-1.6603389978408813,-0.06353668123483658,1.0619206428527832,0.2925441861152649,-0.3597833812236786,1.5895782709121704,0.9921646118164062,1.4199368953704834,1.139732003211975,-0.2980426251888275,0.32686951756477356,1.3825933933258057,-0.4808725118637085,-2.9335148334503174,1.3345694541931152,0.29398399591445923,3.829420566558838,0.23604851961135864,1.4306975603103638,-1.1117944717407227,-0.3601163923740387,-0.9483082890510559,-0.47318968176841736,-0.34311869740486145,0.6969882845878601,1.4593169689178467,1.8748643398284912,-0.003133215708658099,2.8628172874450684,1.008416771888733,-2.595294713973999,0.5671346187591553,-1.0217514038085938,-0.2776154577732086,-0.5874224305152893,0.5470097661018372,-4.028321266174316,-4.397069454193115,-3.072601556777954,-1.855391502380371,2.954942226409912,1.8097776174545288,3.100520372390747,2.779611110687256,-0.04877214878797531,-3.2417240142822266,1.2761915922164917,0.34032341837882996,3.5502824783325195,-1.0636136531829834,-1.8289021253585815,-1.6398385763168335,-0.18573640286922455,0.17101846635341644,-3.359119415283203,-1.5269337892532349,2.906843662261963,0.0858910009264946,3.4643261432647705,-0.35507962107658386,1.0468758344650269,-0.35242128372192383,0.43958964943885803,-3.7141599655151367,1.2476695775985718,2.058565855026245,-2.9710099697113037,1.4696054458618164,-1.3751708269119263,-2.701662302017212,1.3403173685073853,2.492185354232788,1.8072104454040527,1.0858439207077026,1.2491729259490967,-3.606942892074585,-0.44210654497146606,1.5212650299072266,2.8712408542633057,-1.8947370052337646,2.2191195487976074,-2.114299774169922,1.8886312246322632,-2.0781946182250977,-0.432944655418396,0.12607435882091522,0.626691460609436,-1.5519095659255981,0.9846115112304688,1.212430715560913,-1.3648309707641602,-1.3762680292129517,0.2881423830986023,-0.5059623718261719,0.7276109457015991,-0.8377465009689331,-0.9496657848358154,-0.7745152115821838,-1.2578946352005005,-0.8682123422622681,-1.0865793228149414,-0.1743297576904297,0.9215479493141174,1.3523752689361572,-1.2663418054580688,-1.8825571537017822,2.091473340988159,1.1399527788162231,0.602593719959259,5.511466979980469,0.8386003971099854,1.432257056236267,-0.2212836742401123,0.1362435221672058,0.45434096455574036,1.451886534690857,-0.5477210879325867,-1.912506341934204,-1.6201261281967163,-0.03311622142791748,2.1124157905578613,1.3967006206512451,1.4203040599822998,0.510001540184021,1.7155859470367432,-1.3016424179077148,-1.3854718208312988,0.1531480997800827,0.7345144152641296,-2.4890573024749756,0.20402874052524567,0.8740798234939575,1.2525049448013306,3.1415388584136963,0.4838428199291229,-0.3505936861038208,-1.8270050287246704,1.3672772645950317,0.2029997706413269,0.24721106886863708,-0.2653706669807434,-0.5751886963844299,1.097890853881836,1.2683508396148682,1.7257885932922363,2.8604438304901123,-1.544644832611084,0.9774509072303772,1.2914856672286987,1.544715166091919,1.4623197317123413,-0.3928822875022888,-1.7249140739440918,-0.6540259122848511,0.8259389996528625,1.5665900707244873,1.2856165170669556,0.5963696837425232,1.812221646308899,-1.9129136800765991,-2.1565139293670654,-1.427851676940918,-2.7373833656311035,1.6422172784805298,2.2764363288879395,-0.09122481942176819,1.5858367681503296,0.9423341751098633,-0.9572756886482239,-1.5039139986038208,-3.2087113857269287,-0.28593355417251587,-0.0611068494617939,-0.8451433777809143,0.5011119842529297,2.3895132541656494,-1.1971313953399658,-1.3225125074386597,1.209897756576538,1.4433801174163818,-2.852350950241089,0.8479170203208923,1.606001853942871,1.707008957862854,-1.4891002178192139,0.12240190804004669,0.16413085162639618,1.9668970108032227,-1.068253517150879,2.189804792404175,1.3451247215270996,-1.2990449666976929,-0.842956006526947,-1.3499010801315308,-1.4132410287857056,0.4259883165359497,-0.4399833679199219,0.6832027435302734,1.6066340208053589,2.6848604679107666,0.572780430316925,-1.531936526298523,-0.927266538143158,1.0834890604019165,2.3379170894622803,-0.14528635144233704,-2.6325645446777344,1.5455141067504883,2.467724561691284,3.5030548572540283,-3.226670503616333,-1.8415969610214233,-1.1669001579284668,-0.6775787472724915,1.6787253618240356,2.0668513774871826,-2.74979829788208,-3.2746903896331787,-2.9738056659698486,-1.0352882146835327,-0.7985935211181641,-2.2226762771606445,2.2991833686828613,3.3154592514038086,1.0154694318771362,-3.4061005115509033,0.045392122119665146,2.3463354110717773,1.8473085165023804,-1.0466108322143555,-2.254023790359497,-2.2198164463043213,-1.2084869146347046,1.8492616415023804,-2.9549343585968018,2.6787540912628174,2.4731504917144775,-2.313342332839966,-0.9497897624969482,1.2492990493774414,-0.8160149455070496,2.6489012241363525,2.9196319580078125,-3.285734176635742,1.8424675464630127,0.9299769997596741,-2.420504570007324,1.637337565422058,0.3225691318511963,-0.13116787374019623,0.0022812336683273315,1.7121020555496216,1.0422359704971313,-1.1007096767425537,1.6317813396453857,-2.345851182937622,1.7851753234863281,2.9609076976776123,3.139545440673828,-2.2744393348693848,-1.3145768642425537,-3.81756591796875,1.9547947645187378,-0.873937726020813,-1.3076223134994507,-1.4016553163528442,2.0995845794677734,-1.6827572584152222,-1.0069341659545898,-2.249847412109375,1.3799412250518799,1.1047248840332031,0.9832800626754761,1.3363100290298462,-1.469929814338684,-0.9132694005966187,1.8346610069274902,2.3065664768218994,2.0212788581848145,0.9061353206634521,2.5054657459259033,2.2842960357666016,-1.420998215675354,-1.0904958248138428,-1.3497220277786255,0.38709771633148193,-1.493334174156189,-1.1581239700317383,-1.8348811864852905,2.402369260787964,1.974074125289917,3.0743889808654785,0.19330541789531708,-2.097829818725586,1.811322808265686,-1.8948924541473389,-1.8048218488693237,1.4514492750167847,2.2371761798858643,-1.3566192388534546,-1.443283200263977,-1.3006726503372192,-1.4999415874481201,2.53442645072937,-1.9937363862991333,1.7428970336914062,1.850418210029602,-1.0000407695770264,-2.034989356994629,-2.2546839714050293,-1.5303550958633423,-1.7937880754470825,-1.7596821784973145,1.4966979026794434,-1.9818156957626343,2.260387659072876,-0.5514797568321228,-0.9986631870269775,-0.8053956627845764,1.774227499961853,2.343965768814087,0.9656047224998474,-1.7442240715026855,2.5232126712799072,3.9061145782470703,1.965694546699524,-2.827218770980835,3.648987054824829,3.9920694828033447,3.6368277072906494,-2.706897258758545,2.012856960296631,-3.221865177154541,-0.8729493021965027,1.1810741424560547,4.379101753234863,-0.8155807852745056,-3.2857303619384766,-0.10199031233787537,-3.2020387649536133,-2.880286693572998,-3.935573101043701,-0.048037778586149216,2.0715253353118896,2.3889803886413574,-2.9761953353881836,2.0618643760681152,2.417921781539917,-0.42343688011169434,-4.5591301918029785,0.9259886741638184,-1.1756656169891357,-3.818500518798828,-0.26371192932128906,-1.6797815561294556,3.5974233150482178,1.2687774896621704,-1.9459247589111328,0.988221287727356,2.153139591217041,-1.5483113527297974,2.9633517265319824,2.036393880844116,-3.5113279819488525,-0.6478821039199829,1.6789329051971436,-0.9676476120948792,3.995201826095581,-0.8597607612609863,-0.823244035243988,0.824465274810791,-0.379793643951416,-0.48814061284065247,-2.89046049118042,-0.25950124859809875,-1.354809284210205,5.1723737716674805,2.628525495529175,1.6218582391738892,0.1747395545244217,0.014002603478729725,-4.424256801605225,-0.36244526505470276,2.9574296474456787,4.22731876373291,1.4009969234466553,-1.4044592380523682,6.169703483581543,2.5851123332977295,2.028830051422119,-2.2784311771392822,2.3602640628814697,-2.3656890392303467,-0.8639199137687683,0.9978203773498535,3.5701310634613037,-0.4239768385887146,-1.2220097780227661,-0.4609791040420532,-1.8694617748260498,-1.0491931438446045,-2.316831350326538,0.2497076392173767,0.8608854413032532,2.0301883220672607,-1.5292562246322632,0.452560156583786,1.5251569747924805,0.5309783220291138,-3.9368081092834473,-0.3205472230911255,-1.2991652488708496,-3.8882148265838623,0.796078622341156,-1.4791030883789062,1.6973415613174438,2.754871129989624,-1.0675005912780762,-0.30028825998306274,2.7588438987731934,-0.8163717985153198,1.9158992767333984,0.6893836259841919,-1.1017423868179321,0.17061172425746918,-0.02930309996008873,0.31189844012260437,2.8841989040374756,0.4263303577899933,0.34965425729751587,1.4655736684799194,0.5147301554679871,0.18851137161254883,-3.401325225830078,1.1211827993392944,-1.3661408424377441,7.02752161026001,1.1932694911956787,0.11178217828273773,-1.7412446737289429,-0.9000273942947388,-2.7348756790161133,-0.03454137593507767,0.04938703402876854,3.143845558166504,-3.6108274459838867,1.5069997310638428,2.588474750518799,-2.5538389682769775,-5.754001140594482,-4.757903099060059,-0.645190954208374,0.45214495062828064,4.796253681182861,-1.5413826704025269,-0.706577479839325,-2.384457588195801,1.105641484260559,-3.143554449081421,0.878180742263794,1.3642135858535767,1.6714621782302856,0.17878533899784088,-1.5690962076187134,-1.5623892545700073,1.8268722295761108,-6.125298976898193,-0.9984021186828613,2.826589822769165,0.11296075582504272,1.9027220010757446,2.6071557998657227,-0.4576089680194855,1.1116434335708618,-2.8912746906280518,-3.1736152172088623,5.199594974517822,0.8261122703552246,0.6712527275085449,-1.5972590446472168,-3.5413920879364014,-1.1854503154754639,-2.27894926071167,2.590116024017334,1.5360312461853027,-1.2975441217422485,-1.038697600364685,-2.378451108932495,2.610252618789673,4.236777305603027,-4.855754852294922,2.160285711288452,0.5575997829437256,-3.077655792236328,2.382993698120117,-2.572495222091675,2.295581102371216,-1.0856596231460571,-4.711740493774414,-4.2554168701171875,-1.8759195804595947,0.5985335111618042,2.4765965938568115,0.6398234367370605,1.1701894998550415,-1.2074493169784546,0.05051638185977936,1.373907208442688,-0.9662086367607117,0.6195053458213806,1.0856664180755615,-1.0662841796875,0.7542794346809387,1.0845026969909668,-0.6557517647743225,0.5138177871704102,1.918790340423584,3.205406904220581,1.2689412832260132,0.05115436390042305,0.15052618086338043,-0.06202814355492592,-1.069851040840149,-0.4594813585281372,0.8561422228813171,0.17296481132507324,-0.32471969723701477,-0.4863685369491577,-1.5186691284179688,1.0995954275131226,1.4913395643234253,-0.181981161236763,0.8475024104118347,-0.9030368328094482,0.9863957762718201,0.3804517090320587,0.21390390396118164,0.25245600938796997,0.19407686591148376,-0.26639828085899353,0.17156165838241577,-0.1355070173740387,0.040409255772829056,0.31586626172065735,-1.5538257360458374,0.4442329406738281,2.3273415565490723,-0.9953922629356384,-1.3639014959335327,-0.015798715874552727,-0.9507058262825012,-1.6295673847198486,-2.0064117908477783,-1.156615138053894,-0.25101393461227417,2.6919679641723633,-0.36060306429862976,-0.06103119999170303,0.23739075660705566,0.22774244844913483,0.393426775932312,-0.06670637428760529,-0.5910149812698364,-0.979208767414093,-0.18146918714046478,-1.1729127168655396,0.717461884021759,0.16291886568069458,-0.550025463104248,0.02726065181195736,-0.6260557174682617,0.7840113043785095,1.3605412244796753,0.368088960647583,-1.1703288555145264,-0.7628644108772278,-0.3089201748371124,0.09703469276428223,0.40746623277664185,0.9266782999038696,0.8503009080886841,0.6105628609657288,0.7483830451965332,-0.23123836517333984,0.025314241647720337,1.1977031230926514,0.6450080275535583,-1.2954699993133545,0.1294877529144287,-0.7484279274940491,-0.16955257952213287,-0.29481789469718933,0.6388821601867676,0.3627038598060608,-0.5459825992584229,-0.32468774914741516,0.4416548013687134,1.0246859788894653,-0.37653154134750366,-0.9968017935752869,-0.06321670114994049,-1.3449784517288208,-0.2535540461540222,-0.49302732944488525,0.3166618347167969,0.006789883133023977,-0.4642932415008545,-0.9006462097167969,0.1662272959947586,0.2445443868637085,0.04029279202222824,0.49542754888534546,0.24274961650371552,-0.49216461181640625,0.29399389028549194,-0.35602959990501404,-0.6203314065933228,-0.8590899705886841,0.9230580925941467,-0.6024078130722046,0.011261955834925175,0.48758795857429504,0.23012328147888184,0.07737617939710617,0.047872237861156464,0.004909458104521036,0.018872717395424843,-0.07270123064517975,-0.0006981682381592691,-0.020803090184926987,-0.070928193628788,0.06315451115369797,-0.03683846443891525,0.0001668657932896167,0.012513657100498676,-0.055378418415784836,0.03363513946533203,0.07554999738931656,-0.05900242179632187,-0.033045679330825806,-0.04779667779803276,-0.06991152465343475,-0.05667917802929878,-0.055692028254270554,-0.07192331552505493,-0.05832432582974434,0.01958213560283184,-0.023837022483348846,0.0003198655613232404,-0.06744261085987091,0.02102511189877987,0.04975815489888191,0.019664863124489784,-0.006146663799881935,-0.004314225632697344,0.06550874561071396,0.05439502000808716,0.05655718222260475,-0.03643951192498207,0.015445994213223457,0.05170189216732979,-0.06882783025503159,0.0596453957259655,0.07367242127656937,-0.015589096583425999,-0.06442980468273163,-0.05249452218413353,-0.019141249358654022,-0.05671340599656105,0.000041577888623578474,0.0717783123254776,-0.06237916275858879,0.03871447965502739,-0.06938005983829498,0.07397592067718506,-0.04755758121609688,0.0059418994933366776,-0.040241505950689316,-0.0352390855550766,0.011876995675265789,0.05530934035778046,-0.018107851967215538,0.06846331059932709]},"hiddenLayers":[{"inputMatrix":{"rows":20,"columns":60,"weights":[-0.0719132348895073,-0.2374708354473114,-1.1646076440811157,-0.29340633749961853,-0.4963741898536682,-0.48147356510162354,-1.259718656539917,1.053603172302246,-0.15563344955444336,0.549171507358551,0.38638070225715637,-0.09085935354232788,0.006267525255680084,0.7926893830299377,1.101309061050415,0.7220281362533569,0.731488049030304,-0.14324013888835907,-0.05934123322367668,-0.6725564002990723,-1.7494697570800781,0.05002664402127266,1.2883316278457642,-0.3134867250919342,0.09108831733465195,-0.73096764087677,0.7768675684928894,0.4986875653266907,0.2536723017692566,0.17279645800590515,0.22505821287631989,-0.014574876055121422,-0.01273548323661089,0.25709640979766846,-0.25556907057762146,-0.296244740486145,0.4836339056491852,0.70525723695755,0.43965384364128113,-0.9472797513008118,1.1136544942855835,-0.37926557660102844,-1.8299648761749268,0.95430588722229,-0.42362073063850403,0.3580732047557831,0.24697346985340118,-0.19483190774917603,-0.5260466933250427,-0.21445193886756897,0.3352283835411072,0.24454374611377716,0.5847196578979492,-0.2696649432182312,-0.25346747040748596,-1.0827800035476685,-0.5911266207695007,-0.6318033337593079,0.8118506669998169,-0.5526899695396423,-0.9435659646987915,-0.6247771382331848,-0.3561330735683441,0.6034294962882996,0.13263651728630066,-0.6409456133842468,0.31049418449401855,-0.7374439835548401,-0.317674845457077,0.5907755494117737,0.002325171371921897,0.32958075404167175,-1.3757315874099731,0.7328634262084961,1.2671825885772705,0.45120659470558167,-0.06929467618465424,0.5235525369644165,0.17485523223876953,-0.29013368487358093,0.1863659769296646,-0.509620726108551,-0.0818798840045929,-0.3476029932498932,0.09060734510421753,-0.4509619176387787,0.4334923028945923,-0.30428963899612427,-1.0957437753677368,0.6435854434967041,-0.3430420458316803,1.2920622825622559,0.35759031772613525,-0.8839676976203918,0.10835930705070496,-0.2395644187927246,-0.08035094290971756,0.035433828830718994,0.1557764708995819,0.43637022376060486,0.5340110659599304,-0.3792303800582886,-1.4104160070419312,0.3241567313671112,-0.3413187265396118,-0.16308072209358215,-1.0424221754074097,-0.15707534551620483,-0.1446499526500702,-0.35216575860977173,0.670775294303894,-0.10814287513494492,0.5422597527503967,-0.2645048499107361,-0.2926728129386902,-0.03809605538845062,0.8559246063232422,0.5433489084243774,0.25845029950141907,-0.21103504300117493,-0.9818987250328064,-0.9407121539115906,-1.276729941368103,-0.7103120684623718,-1.175870656967163,-0.4793495237827301,0.583838939666748,0.24175210297107697,-0.8496662974357605,-0.04911206290125847,1.2054730653762817,0.17153441905975342,-1.3609981536865234,-0.12745192646980286,0.43248578906059265,-0.6356396079063416,0.13673847913742065,-1.174445629119873,-0.5119544863700867,-0.5923986434936523,-0.11263158172369003,-0.7710175514221191,0.3791240155696869,-0.14393199980258942,-0.2637270987033844,-0.2788226008415222,2.3661811351776123,0.00796427484601736,0.08592291921377182,1.5025365352630615,0.34477171301841736,0.705157458782196,0.9340164661407471,-0.5010858774185181,-0.2990059554576874,-0.7036421895027161,-0.2987010180950165,1.7411017417907715,0.021858133375644684,0.4802784323692322,-0.029425647109746933,0.03643237426877022,-0.21950745582580566,0.3873768746852875,-0.23678576946258545,0.3577224612236023,-0.35751834511756897,-1.526298999786377,-0.0415264293551445,-0.3054775893688202,1.5046985149383545,-0.011628203094005585,0.2771467864513397,-1.1679567098617554,0.37406930327415466,-0.17927585542201996,0.45785433053970337,-0.664657473564148,-0.13873861730098724,-0.5384845733642578,-0.8994938135147095,-0.35100996494293213,-0.965749979019165,0.5868884325027466,-0.46174871921539307,-0.8499659299850464,1.1257944107055664,-0.18364040553569794,0.006562236230820417,0.4879925847053528,0.9780765771865845,-0.1857210099697113,-1.3608688116073608,0.23396380245685577,0.9350882172584534,0.07025625556707382,0.14439387619495392,0.510779619216919,0.3670288622379303,0.2942691147327423,-0.1813315451145172,-1.1783969402313232,0.23663119971752167,-1.2116625308990479,-0.14798593521118164,-0.500649094581604,1.221288800239563,1.4108997583389282,1.3221204280853271,0.4095636010169983,-0.11618170887231827,0.9787798523902893,0.3846539556980133,-0.540651798248291,-0.09341149032115936,0.13364556431770325,-0.9236226081848145,0.4740728437900543,-0.0959433987736702,-0.6416155695915222,0.45577046275138855,-0.003072535851970315,0.19477784633636475,-0.1374933123588562,-0.9669714570045471,0.09919748455286026,-0.6752060651779175,-1.480813980102539,0.03141056001186371,0.29611289501190186,0.6967930793762207,0.12131468206644058,0.6138784289360046,-0.9692193865776062,-0.702533483505249,-0.918234646320343,0.9507147669792175,0.49885278940200806,0.917918860912323,0.17366118729114532,-0.5892201662063599,-0.023620154708623886,-0.17980565130710602,0.3722669780254364,-0.07403171062469482,0.055657971650362015,1.164959192276001,0.15068112313747406,-1.0244406461715698,0.059728965163230896,0.5305882692337036,0.2164691835641861,-0.519254744052887,0.8277114033699036,0.45026710629463196,0.45772090554237366,-0.24512070417404175,-0.759038507938385,-0.3838336765766144,-0.7313788533210754,0.41462433338165283,-0.649876058101654,0.029776722192764282,0.5989847779273987,0.6088685393333435,-0.782508134841919,0.5911781787872314,0.5831422805786133,-0.17204810678958893,-0.01784462481737137,-1.3578177690505981,1.2348438501358032,1.2675150632858276,-1.4154466390609741,-0.502460777759552,0.8246612548828125,0.21908237040042877,0.10353965312242508,0.3568286895751953,0.5292446613311768,0.3395930528640747,-0.7948505282402039,0.6090507507324219,0.9132717251777649,0.19352327287197113,-1.0756360292434692,-1.0832240581512451,-0.4974353611469269,-0.9700278043746948,-0.939472496509552,0.7136260867118835,-0.9793689846992493,0.11270274221897125,-0.17887581884860992,0.4253390431404114,0.11517930030822754,0.9755329489707947,1.1398794651031494,-0.22143085300922394,-0.8585519194602966,0.37926405668258667,-0.2699064314365387,0.4634479284286499,-0.6095201969146729,0.014076528139412403,0.1492518186569214,0.26042860746383667,-0.0402052067220211,0.5150265693664551,-0.2863306999206543,-0.39007648825645447,0.8118506669998169,0.1893201619386673,0.781050980091095,0.30593162775039673,0.9363737106323242,-0.3486180603504181,0.08439485728740692,-0.4403640627861023,-0.7724280953407288,0.46220511198043823,0.5019528865814209,-0.00969899445772171,-0.14072377979755402,0.3678198754787445,-1.1120837926864624,0.15323933959007263,-0.5727237462997437,0.18688459694385529,-0.32842814922332764,-0.7794114947319031,1.2939890623092651,0.1296073943376541,-0.887665867805481,0.2207251340150833,-0.015323047526180744,0.43075501918792725,-0.18460437655448914,0.16939164698123932,0.4103861153125763,0.5162286758422852,-0.5872889757156372,-0.33538147807121277,0.5530779957771301,0.46978533267974854,-0.917664110660553,-0.07305179536342621,0.04892771691083908,-0.8715136647224426,-0.4506978690624237,-0.3500286042690277,-0.4430171847343445,0.788006603717804,0.28583356738090515,0.13286800682544708,0.12826485931873322,1.1478424072265625,0.7373472452163696,-0.005753359291702509,-0.3587825298309326,0.18249616026878357,-0.9461957812309265,-1.5098042488098145,0.21603702008724213,-0.7111834287643433,-0.9069749116897583,0.6223923563957214,0.5358396768569946,0.49149495363235474,1.2049801349639893,0.4513818919658661,-1.432682991027832,0.09095511585474014,0.006139003671705723,0.23931223154067993,0.5161665678024292,1.5361227989196777,0.5818915963172913,0.912647008895874,0.01505510974675417,-1.62533700466156,0.5934702157974243,1.6373385190963745,-0.7087976336479187,-1.4536285400390625,-0.09466332197189331,0.9553163647651672,0.511103093624115,0.19694991409778595,1.8274905681610107,0.3804624378681183,-0.13238802552223206,0.27250340580940247,0.3140422999858856,1.3413817882537842,-0.3283669650554657,-0.004827751778066158,0.9580740332603455,-1.0824052095413208,-0.9856098294258118,-0.9172863960266113,0.04755003750324249,-0.5513908863067627,0.04104683920741081,-0.46548908948898315,0.4118874669075012,-0.39615383744239807,-0.8828212022781372,0.1059880405664444,-0.006486993748694658,-0.09892663359642029,0.5137967467308044,0.14090171456336975,-1.8605215549468994,-0.6678289771080017,-0.2944678068161011,-0.12111112475395203,-0.37574905157089233,0.45102131366729736,0.2746749520301819,0.1604388952255249,-0.2469751536846161,-0.17114420235157013,-0.45904025435447693,0.19044961035251617,-0.1143215000629425,-0.1306656002998352,1.6367671489715576,-0.5440254807472229,-0.026700211688876152,0.5351242423057556,0.23041099309921265,-0.3178919553756714,1.1981403827667236,0.7246278524398804,1.0507415533065796,-0.1314404010772705,-0.09361634403467178,-0.020609455183148384,-1.167041301727295,-0.4952317476272583,-0.3096301257610321,0.3252270817756653,-0.44432324171066284,0.10842139273881912,-1.0721386671066284,0.024221504107117653,0.4480725824832916,1.2258881330490112,0.26786622405052185,-1.4579538106918335,0.9627214670181274,-0.074098601937294,-1.3431295156478882,-0.06279928237199783,1.9033960103988647,-0.4842715859413147,-0.011316710151731968,0.12497842311859131,0.06059790030121803,0.07314875721931458,-1.4149444103240967,0.9947858452796936,0.8126267790794373,-0.42760026454925537,-1.7642699480056763,-0.25104382634162903,-0.6571484208106995,-1.5644735097885132,-1.1169413328170776,0.1294347494840622,-1.6932094097137451,1.0539512634277344,0.13753604888916016,-0.03898611664772034,-0.08991727232933044,0.9162630438804626,1.495125412940979,-0.09445632249116898,-0.8904525637626648,-0.24362117052078247,0.19572128355503082,-2.261392831802368,-0.5357918739318848,-0.06968975067138672,-2.2135908603668213,0.9959419965744019,1.0621612071990967,-0.6016714572906494,2.1283135414123535,1.8234773874282837,-1.7282230854034424,-0.04936691373586655,0.09231144934892654,-0.002973493654280901,0.3264642655849457,0.9358418583869934,-0.06477067619562149,-0.34601297974586487,-0.5058871507644653,-1.7307254076004028,-0.228241428732872,2.2979159355163574,-1.3273290395736694,-1.376539707183838,-0.4355516731739044,0.6478170156478882,2.1437270641326904,1.0607744455337524,1.3066970109939575,-0.20596034824848175,-0.13791590929031372,0.31379762291908264,0.6941385269165039,0.5760707855224609,0.22185960412025452,-1.2158331871032715,-0.09516654908657074,-1.80600106716156,-1.5829874277114868,-0.2957160174846649,0.1473286896944046,0.3409862816333771,0.09363657236099243,-1.7659586668014526,-0.34540459513664246,0.5623025298118591,-2.5142786502838135,-0.43807750940322876,-0.2433774769306183,-0.4720999002456665,-0.025800462812185287,-0.015465405769646168,-0.8621963858604431,-0.7342875003814697,-1.2638003826141357,-0.35190945863723755,-0.046633146703243256,0.41692182421684265,0.6983126997947693,1.2709683179855347,0.8364454507827759,0.6797698140144348,-0.6964386105537415,-0.2913821041584015,0.7333182096481323,0.7016105055809021,1.6355856657028198,-0.37050163745880127,-0.6188539266586304,-0.13500483334064484,-0.10860081017017365,1.6372417211532593,-0.5272316336631775,-0.39651885628700256,-0.2197609394788742,0.03823179006576538,-1.1978106498718262,-0.8545808792114258,-1.2286536693572998,-0.5043650269508362,1.1606028079986572,0.0540587455034256,0.24521268904209137,0.04927032068371773,0.5044042468070984,-1.1809626817703247,-1.1071311235427856,-1.0671772956848145,-0.02452026680111885,1.0812621116638184,-1.2084369659423828,0.4814697206020355,1.5623993873596191,-0.2123303860425949,-0.6718745231628418,0.48871663212776184,-0.3255259692668915,-0.41809535026550293,-1.00113046169281,-0.41499313712120056,0.40369272232055664,-0.490924209356308,-0.49834173917770386,0.7638630867004395,-0.05316835641860962,1.620446801185608,1.0527665615081787,0.3033469319343567,0.5882510542869568,-0.6306500434875488,0.7971541881561279,-0.4360696077346802,-0.7270617485046387,-0.4414416551589966,-0.5068578124046326,-0.14950628578662872,-1.2973631620407104,0.12278332561254501,0.30457672476768494,0.4853075444698334,0.1779736429452896,0.4384302496910095,-0.9200360774993896,-0.06586480885744095,0.5877737998962402,0.42551693320274353,-0.9036822319030762,0.3462073504924774,0.0006377410609275103,-1.4611843824386597,0.4426974952220917,0.9221518635749817,-1.1821985244750977,-0.3684443235397339,-1.3412065505981445,-0.07138077914714813,-0.12736353278160095,-0.3757086396217346,1.3191567659378052,0.167997807264328,0.31761303544044495,-0.2531798779964447,0.9754051566123962,0.40388503670692444,0.8679710626602173,-0.5642328858375549,0.3639275133609772,-0.41419386863708496,-0.5092368125915527,0.9740890264511108,-1.1212899684906006,0.19431912899017334,1.091036319732666,-0.10913857817649841,-1.2603075504302979,0.4269077479839325,1.5907118320465088,0.8194559216499329,0.4856135845184326,-0.31445419788360596,1.4715105295181274,-0.6404511332511902,-0.7130483388900757,0.5667153000831604,1.2362759113311768,0.050272755324840546,0.4018155634403229,1.0837128162384033,1.2123234272003174,-0.8094776272773743,1.3566827774047852,-0.33742469549179077,0.568294882774353,0.8999214172363281,0.5750132203102112,-1.3458272218704224,-1.3620654344558716,-0.630432665348053,1.1256648302078247,1.1964075565338135,0.9308531880378723,-0.7143037915229797,-1.33194100856781,1.2377365827560425,-0.5711235404014587,1.2264726161956787,-0.41021350026130676,-1.0490680932998657,-0.04603741317987442,-0.4323470890522003,0.3300558924674988,1.218945860862732,-0.0749567523598671,0.201234370470047,0.41023895144462585,0.12946094572544098,0.18852245807647705,-0.8849893808364868,0.3158247172832489,-0.08219233900308609,1.7826529741287231,-0.3052203357219696,0.25859007239341736,-0.11401243507862091,-0.12467023730278015,-0.8054681420326233,0.1545506715774536,-1.386508584022522,0.2676960825920105,0.24090607464313507,0.042736075818538666,1.4292134046554565,0.9621370434761047,0.5568712949752808,-0.43563738465309143,0.4620574116706848,1.3603583574295044,0.35308578610420227,0.2765483856201172,-0.548023521900177,0.29749953746795654,0.33987122774124146,0.18632164597511292,-0.3897680342197418,0.116378054022789,-0.2952634394168854,0.14603467285633087,0.05639240890741348,-0.2443816363811493,-1.4853214025497437,0.47696149349212646,0.3192334473133087,0.6135148406028748,0.7505423426628113,1.0975008010864258,-1.00276517868042,-0.04016057774424553,-0.6214630007743835,0.28932785987854004,-0.7057403326034546,-0.4637322425842285,-1.3839600086212158,-0.2644021213054657,-1.5495786666870117,0.10339359194040298,-0.013238627463579178,-0.9058073163032532,0.06703922152519226,0.10241185873746872,0.39593538641929626,0.4578692317008972,-0.2936049997806549,-1.0760612487792969,-0.6956433653831482,-1.2302957773208618,0.01951190084218979,0.18464161455631256,-0.14518952369689941,1.1011615991592407,0.24950584769248962,-0.39982202649116516,-0.8496381044387817,-0.7152858376502991,0.5235528945922852,0.5335505604743958,1.6769249439239502,-0.6226271390914917,-0.8883689641952515,1.1640372276306152,0.964699387550354,-1.2900952100753784,0.3638058304786682,0.5664191842079163,-0.6545834541320801,0.014924702234566212,-0.21139799058437347,0.2701447308063507,0.37201082706451416,0.4698430001735687,-2.5874624252319336,0.7415179014205933,0.5562662482261658,-1.2665815353393555,-0.35300278663635254,0.33843597769737244,-0.24792437255382538,-0.6667042970657349,0.8929832577705383,0.40512606501579285,2.0872130393981934,0.616324782371521,-1.3456343412399292,-0.6326737403869629,0.38051655888557434,0.0486854612827301,-0.6058170199394226,-0.1287733018398285,-0.28001919388771057,1.0409023761749268,-0.0012493307003751397,-0.06061357259750366,0.47725802659988403,-0.15147976577281952,0.38118845224380493,0.8044039011001587,1.3405711650848389,-1.420485496520996,0.1446022242307663,-0.1909186840057373,-0.8963423371315002,0.35568541288375854,0.2928466200828552,-0.2488470822572708,-0.4736744463443756,-0.07301106303930283,-0.9974616765975952,0.030368603765964508,-0.6199720501899719,-0.021308064460754395,1.653233289718628,0.15825451910495758,-1.0865885019302368,1.0639690160751343,0.22375093400478363,-0.024716142565011978,0.2192782312631607,0.20565322041511536,0.4070235788822174,0.05027586966753006,-0.5620787739753723,0.24538277089595795,1.2493064403533936,-0.5070772171020508,-0.5730055570602417,0.4289119243621826,0.14532089233398438,-1.5099046230316162,0.6463140249252319,1.3192492723464966,-0.5367457270622253,0.1583697348833084,1.695799469947815,-0.19445893168449402,0.40166595578193665,-0.7654917240142822,-0.6324761509895325,0.0372333824634552,-0.24493001401424408,0.17953117191791534,0.202240988612175,-0.3370508551597595,-0.1319563239812851,0.6914747357368469,0.5860822796821594,0.5832421183586121,0.8087543249130249,0.6167718172073364,-0.8186488151550293,0.4405181109905243,-0.134000763297081,0.415910005569458,-0.6369500756263733,0.6485270261764526,1.314705729484558,-0.8518303632736206,-0.9680660963058472,-0.02051899954676628,-0.430530309677124,0.5346879959106445,0.872769296169281,-0.4874573051929474,-0.6136317253112793,0.5302636623382568,1.6081472635269165,0.0810912624001503,0.9041651487350464,0.9277525544166565,0.9776681065559387,-0.625207245349884,-0.6014384031295776,-0.29334330558776855,0.4323873519897461,-0.9823098182678223,-0.8414082527160645,-0.3128725290298462,-0.5542362332344055,0.3201305866241455,0.024033280089497566,0.0038577860686928034,-0.5028717517852783,0.21325868368148804,0.29559484124183655,-0.05626567825675011,1.0040103197097778,0.5028425455093384,-0.24166318774223328,-0.03681667521595955,-0.5414634346961975,-0.6419762372970581,1.698264718055725,-0.9956271052360535,0.09501814842224121,0.7288072109222412,-0.2568483352661133,-0.4360560178756714,0.4039096236228943,-1.3007533550262451,-0.5539311170578003,-0.5806940793991089,-0.10137974470853806,-0.5856062769889832,0.817043662071228,1.1941605806350708,-0.8088670372962952,-0.21517612040042877,0.3758753836154938,0.6363839507102966,0.5376809239387512,-0.6828620433807373,-1.6676931381225586,-1.0830174684524536,-0.28126370906829834,1.006722331047058,0.33476629853248596,-1.7960186004638672,-1.214135766029358,-0.49636995792388916,-0.16087886691093445,0.9942116141319275,0.1267434060573578,-0.46869102120399475,-1.7425105571746826,1.1115727424621582,0.5315385460853577,1.2854264974594116,0.2967219650745392,1.6969797611236572,0.8771765828132629,-0.12330183386802673,-0.38915231823921204,-0.7102951407432556,0.5523300170898438,0.5337985754013062,-0.8242508172988892,-1.1601828336715698,-1.0277416706085205,0.09688878059387207,-1.7062815427780151,0.39406800270080566,-1.321078896522522,0.6848973035812378,-0.9418824911117554,-1.4015618562698364,1.1941217184066772,0.8205915689468384,-1.0311495065689087,0.6481557488441467,-0.7412795424461365,-0.47143831849098206,-0.6697566509246826,-1.0885341167449951,1.488637924194336,1.2701739072799683,-0.35785990953445435,-1.5047770738601685,-1.4566954374313354,-0.0429033599793911,-1.170425295829773,-1.2738515138626099,1.2827949523925781,-1.3437711000442505,0.330461710691452,0.04004979506134987,-1.4069825410842896,0.4648917615413666,-0.3100431561470032,1.1031854152679443,1.0097590684890747,-0.7051489353179932,1.5315771102905273,2.161350965499878,0.16005687415599823,-0.7800750136375427,1.6743649244308472,0.5249924063682556,0.1294628381729126,0.8677575588226318,-0.0056640710681676865,-0.37079134583473206,-0.2280455231666565,0.9788731932640076,1.6775957345962524,0.6665942668914795,0.5815606117248535,0.6287252306938171,-0.5878956317901611,-0.089581198990345,-0.4036276936531067,-0.8558323979377747,-0.21421322226524353,1.5584681034088135,-0.5378488898277283,0.31276795268058777,0.900774359703064,-0.8405968546867371,-1.2633548974990845,0.21571817994117737,-0.22388896346092224,-1.9479624032974243,-0.4220050275325775,-0.7176767587661743,0.18134582042694092,0.5515612959861755,-0.35988304018974304,0.541225254535675,2.021980047225952,-1.067368507385254,1.2579145431518555,0.3399852216243744,0.6971254944801331,-0.627049446105957,1.076757788658142,0.9675771594047546,0.8924722671508789,-1.4311668872833252,0.03913995996117592,0.6045878529548645,-1.2041641473770142,-0.5534800291061401,-1.1684954166412354,-0.40870437026023865,0.7266048789024353,1.856605887413025,0.8527293801307678,1.3148760795593262,-0.7611432671546936,0.23931564390659332,-1.6420079469680786,-0.6590142846107483,-0.48911890387535095,-0.0025168107822537422,0.11323750019073486,0.2831050753593445,-0.013363523408770561,0.5208311080932617,1.2656868696212769,-2.0426671504974365,-0.2686997056007385,0.2967761754989624,-1.4236234426498413,0.019070349633693695,0.23201261460781097,-1.1559020280838013,-0.012971341609954834,-0.5732054114341736,-0.025195447728037834,0.3636300265789032,-0.6148443222045898,0.6252061724662781,0.30944323539733887,0.341551810503006,-0.6448835730552673,1.0933825969696045,0.5285413265228271,-0.013876005075871944,-1.0257549285888672,0.7223255038261414,-1.3140193223953247,0.5922319889068604,0.45648980140686035,-0.08270774781703949,0.9704441428184509,1.3931388854980469,-0.18323397636413574,-1.7389285564422607,0.2669021189212799,1.842729926109314,0.444928914308548,-0.5027992725372314,-0.6634433269500732,1.951450228691101,-0.894435703754425,-0.6006633043289185,0.23401665687561035,1.1712995767593384,-0.5368567705154419,1.4098683595657349,0.6135001182556152,1.7491655349731445,-0.16993315517902374,1.0185093879699707,-0.8452503681182861,-0.8330837488174438,0.15612728893756866,0.530951201915741,-1.0673149824142456,-1.3198609352111816,-0.238826721906662,1.1620357036590576,0.17352820932865143,0.36293163895606995,0.24741877615451813,1.4804790019989014,0.5818192958831787,-0.012186555191874504,-1.1583956480026245,-0.22478510439395905,0.7935990691184998,0.16240498423576355,0.15409401059150696,-0.32697543501853943,0.41011661291122437,0.0032234545797109604,0.06503921747207642,0.036218151450157166,0.2683018147945404,0.06912855058908463,1.3707834482192993,0.3451248109340668,-0.13241015374660492,0.20650625228881836,0.7669191956520081,0.44796913862228394,-0.40141186118125916,0.30119436979293823,-0.7675461769104004,-0.01941043697297573,-0.17931251227855682,-0.4116588830947876,0.10005557537078857,-0.8874070048332214,-2.1642205715179443,1.463222622871399,0.1393064260482788,-0.09751594066619873,-0.013139139860868454,0.6992611289024353,-0.6985467076301575,0.06875564903020859,0.4772499203681946,0.10265794396400452,-0.5834413766860962,0.23862844705581665,0.1276748925447464,0.3726145029067993,0.09197551757097244,0.12950734794139862,0.6128279566764832,-0.07471244782209396,-0.7302371263504028,0.39687877893447876,-0.17160168290138245,0.24250012636184692,-0.2478543072938919,0.12432991713285446,-2.3658249378204346,-0.03963960334658623,0.3788195848464966,-0.2980842888355255,0.2858349680900574,0.5963859558105469,0.5636440515518188,0.3129388689994812,0.04517844319343567,0.5788959860801697,0.019809026271104813,0.35564613342285156,0.6465492248535156,-0.8272156119346619,0.651022732257843,-0.05478568375110626,0.48847976326942444,0.4593334496021271,0.12244303524494171,0.30997663736343384,-0.45747944712638855,0.3637711703777313,-0.2932165265083313,-0.7760689854621887,-0.3681119382381439,0.04793713614344597,-0.035402435809373856,-0.6281084418296814,0.15451717376708984,-0.5314615368843079,-0.568837583065033,-0.5019022822380066,-0.6364250183105469,-0.6247618198394775,-0.9512282013893127,0.342873215675354,-0.11014239490032196,-0.1246117427945137,-0.3541054129600525,1.1637144088745117,0.44681286811828613,-1.4646837711334229,0.05635923892259598,-0.2738484740257263,0.1823107749223709,-0.9210535883903503,0.7245182991027832,0.9785927534103394,0.5642836689949036,-1.2049024105072021,0.25628381967544556,0.1471572369337082,-1.1132516860961914,-0.6323822140693665,-0.12003961950540543,-1.0484662055969238,-0.20035862922668457,1.0294965505599976,-0.19355522096157074,-0.7890853881835938,0.628899872303009,0.5053498148918152,-0.42049333453178406,-0.9597954750061035]},"inputHidden":{"rows":20,"columns":20,"weights":[2.7136611938476562,1.6635485887527466,1.4444891214370728,1.072753667831421,-1.770637035369873,-1.7424947023391724,-1.0676684379577637,-1.1377801895141602,0.7048261761665344,-1.5521577596664429,1.8101249933242798,-1.6369308233261108,0.5949838757514954,1.687986135482788,-1.0488030910491943,-0.8658365607261658,1.3478305339813232,-0.6584111452102661,1.76220703125,-1.474927544593811,-0.7601755261421204,-1.9541380405426025,0.3718840479850769,0.18627622723579407,-0.9363725781440735,1.6120293140411377,0.18841971457004547,-0.8509665131568909,-0.4858510494232178,2.256772756576538,-3.1006784439086914,-2.7199995517730713,-0.6603100299835205,0.3422960638999939,-0.24640695750713348,0.5541525483131409,-1.77629816532135,2.2728054523468018,0.33350077271461487,1.819217324256897,-0.5982145071029663,-0.5144326686859131,0.03420350328087807,-1.0589629411697388,0.5162452459335327,0.4176943600177765,-0.8925209641456604,0.2334793657064438,0.036257531493902206,-0.33129286766052246,0.20878779888153076,-1.0593880414962769,-0.3696700930595398,0.7443773150444031,0.6819714903831482,0.5642359256744385,0.06056378036737442,0.619076669216156,-0.532207727432251,-0.11218418926000595,-0.8375865817070007,1.1570440530776978,0.6455817818641663,-0.43968069553375244,1.7379800081253052,-0.46361640095710754,-0.2102632075548172,0.11961235851049423,-0.9316145777702332,1.6766961812973022,-1.3550238609313965,2.9041249752044678,-0.3917783796787262,0.05041741579771042,1.04660165309906,-1.2315596342086792,0.545840859413147,1.0040991306304932,0.8440722823143005,0.42734724283218384,-1.3949919939041138,-0.5624537467956543,-0.7878985404968262,0.15726374089717865,-0.1241132989525795,0.6063623428344727,-0.8423512578010559,0.2547082304954529,-0.8820499181747437,0.4499390125274658,-0.2747080326080322,0.44052019715309143,-0.6339948177337646,0.9181244969367981,0.24127773940563202,-0.440013587474823,